<?xml version="1.0" encoding="UTF-8"?>
<!-- This network was created in BNBENCH -->
<smile version="1.0" id="bnbench" numsamples="100000" discsamples="100000">
    <nodes>
        <cpt id="Bulk_Density">
            <state id="s0_to_0_25" />
            <state id="s0_25_to_0_5" />
            <state id="s0_5_to_0_75" />
            <state id="s0_75_to_1" />
            <state id="s1_to_1_25" />
            <state id="s1_25_to_1_5" />
            <parents>Land_Use Texture Tillage</parents>
            <probabilities>0.09090989 0.09090989 0.09090899 0.18181778 0.45454445 0.09090899 0.08333331 0.08333331 0.08333331 0.16666702 0.33333303 0.25000003 0.1111111 0.1111111 0.1111111 0.2222222 0.3333333 0.1111111 0.1666667 0.1666667 0.1666667 0.1666667 0.1666667 0.1666667 0.1666667 0.1666667 0.1666667 0.1666667 0.1666667 0.1666667 0.1428571 0.1428571 0.1428571 0.1428571 0.2857143 0.1428571 0.1666667 0.1666667 0.1666667 0.1666667 0.1666667 0.1666667 0.1666667 0.1666667 0.1666667 0.1666667 0.1666667 0.1666667 0.08333331 0.08333331 0.25000003 0.25000003 0.25000003 0.08333331 0.1428571 0.1428571 0.2857143 0.1428571 0.1428571 0.1428571 0.1666667 0.1666667 0.1666667 0.1666667 0.1666667 0.1666667 0.1428571 0.1428571 0.1428571 0.2857143 0.1428571 0.1428571 0.1428571 0.1428571 0.1428571 0.1428571 0.2857143 0.1428571 0.1666667 0.1666667 0.1666667 0.1666667 0.1666667 0.1666667 0.1666667 0.1666667 0.1666667 0.1666667 0.1666667 0.1666667 0.1666667 0.1666667 0.1666667 0.1666667 0.1666667 0.1666667</probabilities>
        </cpt>
        <cpt id="Daily_Runoff">
            <state id="s0_to_18" />
            <state id="s18_to_36" />
            <state id="s36_to_54" />
            <state id="s54_to_72" />
            <parents>Rainfall Slope Water</parents>
            <probabilities>0.25 0.25 0.25 0.25 0.25 0.25 0.25 0.25 0.25 0.25 0.25 0.25 0.25 0.25 0.25 0.25 0.25 0.25 0.25 0.25 0.25 0.25 0.25 0.25 0.25 0.25 0.25 0.25 0.25 0.25 0.25 0.25 0.7 0.1 0.1 0.1 0.625 0.125 0.125 0.125 0.625 0.125 0.125 0.125 0.7 0.1 0.1 0.1 0.7 0.1 0.1 0.1 0.625 0.125 0.125 0.125 0.4999995 0.1666668 0.1666668 0.1666668 0.75000008 0.08333331 0.08333331 0.08333331 0.8125 0.0625 0.0625 0.0625 0.86363617 0.04545461 0.04545461 0.04545461 0.8125 0.0625 0.0625 0.0625 0.86363617 0.04545461 0.04545461 0.04545461 0.86363617 0.04545461 0.04545461 0.04545461 0.8125 0.0625 0.0625 0.0625 0.7 0.1 0.1 0.1 0.8928571 0.0357143 0.0357143 0.0357143 0.93877538 0.02040821 0.02040821 0.02040821 0.945946 0.027027 0.0135135 0.0135135 0.93333337 0.02222221 0.02222221 0.02222221 0.871795 0.102564 0.0128205 0.0128205 0.94444438 0.02777781 0.01388891 0.01388891 0.78431361 0.15686292 0.03921568 0.01960779 0.8 0.12 0.04 0.04 0.63265319 0.28571409 0.06122452 0.02040821 0.9684211 0.0105263 0.0105263 0.0105263 0.97202798 0.013986 0.00699301 0.00699301 0.92771081 0.04819279 0.0120482 0.0120482 0.838709815 0.148386967 0.006451609 0.006451609 0.957746521 0.028168986 0.007042246 0.007042246 0.645833 0.322917 0.0208333 0.0104167 0.44680845 0.44680845 0.08510649 0.02127662 0.335078665 0.586387414 0.073298327 0.005235595 0.88461544 0.03846152 0.03846152 0.03846152 0.918919 0.027027 0.027027 0.027027 0.88 0.04 0.04 0.04 0.76315831 0.18421007 0.02631581 0.02631581 0.918919 0.027027 0.027027 0.027027 0.576923 0.346154 0.0384615 0.0384615 0.19999992 0.66666673 0.06666667 0.06666667 0.06249998 0.74999978 0.16666695 0.02083329 0.75000008 0.08333331 0.08333331 0.08333331 0.75 0.125 0.0625 0.0625 0.4444444 0.3333333 0.1111111 0.1111111 0.42105275 0.42105275 0.10526294 0.05263157 0.625 0.25 0.0625 0.0625 0.24999993 0.41666687 0.24999993 0.08333328 0.125 0.375 0.375 0.125 0.05 0.35 0.4 0.2</probabilities>
        </cpt>
        <cpt id="Erosion">
            <state id="High" />
            <state id="Low" />
            <parents>Bulk_Density Runoff Tillage</parents>
            <probabilities>0.02 0.98 0.88 0.12 0.08 0.92 0.94 0.06 0.03 0.97 0.89 0.11 0.09 0.91 0.95 0.05 0.04 0.96 0.9 0.1 0.1 0.9 0.96 0.04 0.05 0.95 0.91 0.09 0.11 0.89 0.97 0.03 0.06 0.94 0.92 0.08 0.12 0.88 0.98 0.02 0.07 0.93 0.93 0.07 0.13 0.87 0.99 0.01</probabilities>
        </cpt>
        <cpt id="Farm_Yield">
            <state id="Positive" />
            <state id="Negative" />
            <parents>Yield</parents>
            <probabilities>0.01 0.99 0.99 0.01</probabilities>
        </cpt>
        <cpt id="Flood_Alleviation">
            <state id="Positive" />
            <state id="Negative" />
            <parents>Runoff</parents>
            <probabilities>0.990000001 0.009999999 0.01 0.99</probabilities>
        </cpt>
        <cpt id="Land_Use">
            <state id="Arable" />
            <state id="Arable_With_Grass" />
            <state id="Grassland" />
            <state id="Woodland" />
            <probabilities>0.54444 0.2 0.18889 0.06667</probabilities>
        </cpt>
        <cpt id="Nutrients">
            <state id="High" />
            <state id="Low" />
            <parents>Erosion SOMC Weeds</parents>
            <probabilities>0.8 0.2 0.5 0.5 0.85 0.15 0.55 0.45 0.9 0.1 0.6 0.4 0.95 0.05 0.65 0.35 0.99 0.01 0.7 0.3 0.75 0.25 0.2 0.8 0.8 0.2 0.15 0.85 0.85 0.15 0.1 0.9 0.9 0.1 0.05 0.95 0.95 0.05 0.01 0.99</probabilities>
        </cpt>
        <cpt id="Product_Weight">
            <state id="s0_to_2550" />
            <state id="s2550_to_5100" />
            <state id="s5100_to_7650" />
            <state id="s7650_to_10200" />
            <parents>Weight</parents>
            <probabilities>0.993492 0.002169333 0.002169333 0.002169333 0.41855205 0.57692307 0.00226244 0.00226244 0.002150539 0.492472833 0.490322833 0.015053795 0.002724801 0.095367838 0.798365319 0.103542041 0.008982036 0.008982036 0.502994012 0.479041916</probabilities>
        </cpt>
        <cpt id="Rainfall">
            <state id="s0_to_0_4" />
            <state id="s0_4_to_0_8" />
            <state id="s0_8_to_1_2" />
            <state id="s1_2_to_1_6" />
            <state id="s1_6_to_2" />
            <state id="s2_to_2_4" />
            <state id="s2_4_to_2_8" />
            <probabilities>0.0005414179 0.0221981974 0.0655115923 0.2495939705 0.4986459412 0.1196539859 0.0438548948</probabilities>
        </cpt>
        <cpt id="Runoff">
            <state id="s0_to_7_7" />
            <state id="s7_7_to_15_4" />
            <parents>Bulk_Density Daily_Runoff VESS Weeds</parents>
            <probabilities>0.99 0.01 0.4 0.6 0.95 0.05 0.36 0.64 0.91 0.09 0.32 0.68 0.87 0.13 0.28 0.72 0.83 0.17 0.24 0.76 0.98 0.02 0.39 0.61 0.94 0.06 0.35 0.65 0.9 0.1 0.31 0.69 0.86 0.14 0.27 0.73 0.82 0.18 0.23 0.77 0.97 0.03 0.38 0.62 0.93 0.07 0.34 0.66 0.89 0.11 0.3 0.7 0.85 0.15 0.26 0.74 0.81 0.19 0.22 0.78 0.96 0.04 0.37 0.63 0.92 0.08 0.33 0.67 0.88 0.12 0.29 0.71 0.84 0.16 0.25 0.75 0.8 0.2 0.21 0.79 0.95 0.05 0.36 0.64 0.91 0.09 0.32 0.68 0.87 0.13 0.28 0.72 0.83 0.17 0.24 0.76 0.79 0.21 0.2 0.8 0.94 0.06 0.35 0.65 0.9 0.1 0.31 0.69 0.86 0.14 0.27 0.73 0.82 0.18 0.23 0.77 0.78 0.22 0.19 0.81 0.93 0.07 0.34 0.66 0.89 0.11 0.3 0.7 0.85 0.15 0.26 0.74 0.81 0.19 0.22 0.78 0.77 0.23 0.18 0.82 0.92 0.08 0.33 0.67 0.88 0.12 0.29 0.71 0.84 0.16 0.25 0.75 0.8 0.2 0.21 0.79 0.76 0.24 0.17 0.83 0.91 0.09 0.32 0.68 0.87 0.13 0.28 0.72 0.83 0.17 0.24 0.76 0.79 0.21 0.2 0.8 0.75 0.25 0.16 0.84 0.9 0.1 0.31 0.69 0.86 0.14 0.27 0.73 0.82 0.18 0.23 0.77 0.78 0.22 0.19 0.81 0.74 0.26 0.15 0.85 0.89 0.11 0.3 0.7 0.85 0.15 0.26 0.74 0.81 0.19 0.22 0.78 0.77 0.23 0.18 0.82 0.73 0.27 0.14 0.86 0.88 0.12 0.29 0.71 0.84 0.16 0.25 0.75 0.8 0.2 0.21 0.79 0.76 0.24 0.17 0.83 0.72 0.28 0.13 0.87 0.87 0.13 0.28 0.72 0.83 0.17 0.24 0.76 0.79 0.21 0.2 0.8 0.75 0.25 0.16 0.84 0.71 0.29 0.12 0.88 0.86 0.14 0.27 0.73 0.82 0.18 0.23 0.77 0.78 0.22 0.19 0.81 0.74 0.26 0.15 0.85 0.7 0.3 0.11 0.89 0.85 0.15 0.26 0.74 0.81 0.19 0.22 0.78 0.77 0.23 0.18 0.82 0.73 0.27 0.14 0.86 0.69 0.31 0.1 0.9 0.84 0.16 0.25 0.75 0.8 0.2 0.21 0.79 0.76 0.24 0.17 0.83 0.72 0.28 0.13 0.87 0.68 0.32 0.09 0.91 0.83 0.17 0.24 0.76 0.79 0.21 0.2 0.8 0.75 0.25 0.16 0.84 0.71 0.29 0.12 0.88 0.67 0.33 0.08 0.92 0.82 0.18 0.23 0.77 0.78 0.22 0.19 0.81 0.74 0.26 0.15 0.85 0.7 0.3 0.11 0.89 0.66 0.34 0.07 0.93 0.81 0.19 0.22 0.78 0.77 0.23 0.18 0.82 0.73 0.27 0.14 0.86 0.69 0.31 0.1 0.9 0.65 0.35 0.06 0.94 0.8 0.2 0.21 0.79 0.76 0.24 0.17 0.83 0.72 0.28 0.13 0.87 0.68 0.32 0.09 0.91 0.64 0.36 0.05 0.95 0.79 0.21 0.2 0.8 0.75 0.25 0.16 0.84 0.71 0.29 0.12 0.88 0.67 0.33 0.08 0.92 0.63 0.37 0.04 0.96 0.78 0.22 0.19 0.81 0.74 0.26 0.15 0.85 0.7 0.3 0.11 0.89 0.66 0.34 0.07 0.93 0.62 0.38 0.03 0.97 0.77 0.23 0.18 0.82 0.73 0.27 0.14 0.86 0.69 0.31 0.1 0.9 0.65 0.35 0.06 0.94 0.61 0.39 0.02 0.98 0.76 0.24 0.17 0.83 0.72 0.28 0.13 0.87 0.68 0.32 0.09 0.91 0.64 0.36 0.05 0.95 0.6 0.4 0.00999999 0.99000001</probabilities>
        </cpt>
        <cpt id="Senesced">
            <state id="s0_to_77_5" />
            <state id="s77_5_to_155" />
            <state id="s155_to_232_5" />
            <state id="s232_5_to_310" />
            <parents>SOMC Weight</parents>
            <probabilities>0.947126379 0.043678217 0.006896553 0.002298851 0.91891889 0.067567592 0.008108109 0.005405409 0.809321846 0.173728967 0.012711898 0.004237289 0.5000001 0.4705881 0.0147059 0.0147059 0.3125 0.5625 0.0625 0.0625 0.8125 0.0625 0.0625 0.0625 0.730769 0.192308 0.0384615 0.0384615 0.568345296 0.417266217 0.007194244 0.007194244 0.496453901 0.496453901 0.003546099 0.003546099 0.174312066 0.807339307 0.009174313 0.009174313 0.83333317 0.05555561 0.05555561 0.05555561 0.833333 0.12963 0.0185185 0.0185185 0.7040819 0.2755099 0.0102041 0.0102041 0.48 0.44 0.04 0.04 0.125 0.625 0.125 0.125 0.25 0.25 0.25 0.25 0.25 0.25 0.25 0.25 0.25 0.25 0.25 0.25 0.25 0.25 0.25 0.25 0.25 0.25 0.25 0.25 0.25 0.25 0.25 0.25 0.25 0.25 0.25 0.25 0.25 0.25 0.25 0.25 0.25 0.25 0.25 0.25 0.25 0.25 0.25 0.25</probabilities>
        </cpt>
        <cpt id="Slope">
            <state id="Flat" />
            <state id="Sloped" />
            <probabilities>0.5 0.5</probabilities>
        </cpt>
        <cpt id="SOMC">
            <state id="s0_to_1_833e5" />
            <state id="s1_833e5_to_3_666e5" />
            <state id="s3_666e5_to_5_499e5" />
            <state id="s5_499e5_to_7_322e5" />
            <state id="s7_322e5_to_9_165e5" />
            <parents>Land_Use Texture Tillage</parents>
            <probabilities>0.1 0.5 0.2 0.1 0.1 0.18181815 0.45454536 0.18181815 0.09090917 0.09090917 0.125 0.375 0.125 0.25 0.125 0.2 0.2 0.2 0.2 0.2 0.2 0.2 0.2 0.2 0.2 0.1666668 0.1666668 0.3333327 0.1666668 0.1666668 0.2 0.2 0.2 0.2 0.2 0.2 0.2 0.2 0.2 0.2 0.18181816 0.09090918 0.27272725 0.27272725 0.18181816 0.1666668 0.1666668 0.1666668 0.1666668 0.3333327 0.2 0.2 0.2 0.2 0.2 0.1666668 0.1666668 0.3333327 0.1666668 0.1666668 0.1666668 0.1666668 0.3333327 0.1666668 0.1666668 0.2 0.2 0.2 0.2 0.2 0.2 0.2 0.2 0.2 0.2 0.2 0.2 0.2 0.2 0.2</probabilities>
        </cpt>
        <cpt id="Temperature">
            <state id="s7_5_to_8_54" />
            <state id="s8_54_to_9_06" />
            <state id="s9_06_to_9_58" />
            <state id="s9_58_to_10_1" />
            <state id="s10_1_to_10_62" />
            <probabilities>0.30406464 0.2498647 0.27154467 0.15230382 0.02222217</probabilities>
        </cpt>
        <cpt id="Texture">
            <state id="Loamy" />
            <state id="Clay" />
            <probabilities>0.7283973 0.2716027</probabilities>
        </cpt>
        <cpt id="Tillage">
            <state id="Conservational" />
            <state id="Conventional" />
            <parents>Land_Use Texture</parents>
            <probabilities>0.48485 0.51515 0.63636 0.36364 0.4 0.6 0.57143 0.42857 0.72727 0.27273 0.66667 0.33333 0.66667 0.33333 0.5 0.5</probabilities>
        </cpt>
        <cpt id="VESS">
            <state id="Fragile" />
            <state id="Intact" />
            <state id="Firm" />
            <state id="Compact" />
            <state id="Very_Compact" />
            <parents>Bulk_Density SOMC Texture</parents>
            <probabilities>0.2 0.2 0.2 0.2 0.2 0.2 0.2 0.2 0.2 0.2 0.2 0.2 0.2 0.2 0.2 0.2 0.2 0.2 0.2 0.2 0.2 0.2 0.2 0.2 0.2 0.2 0.2 0.2 0.2 0.2 0.2 0.2 0.2 0.2 0.2 0.2 0.2 0.2 0.2 0.2 0.2 0.2 0.2 0.2 0.2 0.2 0.2 0.2 0.2 0.2 0.2 0.2 0.2 0.2 0.2 0.2 0.2 0.2 0.2 0.2 0.2 0.2 0.2 0.2 0.2 0.2 0.2 0.2 0.2 0.2 0.2 0.2 0.2 0.2 0.2 0.2 0.2 0.2 0.2 0.2 0.1666668 0.3333327 0.1666668 0.1666668 0.1666668 0.2 0.2 0.2 0.2 0.2 0.2857143 0.1428571 0.2857143 0.1428571 0.1428571 0.2 0.2 0.2 0.2 0.2 0.2 0.2 0.2 0.2 0.2 0.2 0.2 0.2 0.2 0.2 0.2 0.2 0.2 0.2 0.2 0.2 0.2 0.2 0.2 0.2 0.25 0.125 0.375 0.125 0.125 0.1666668 0.1666668 0.1666668 0.1666668 0.3333327 0.3333327 0.1666668 0.1666668 0.1666668 0.1666668 0.3333327 0.1666668 0.1666668 0.1666668 0.1666668 0.2 0.2 0.2 0.2 0.2 0.2 0.2 0.2 0.2 0.2 0.1666668 0.3333327 0.1666668 0.1666668 0.1666668 0.2 0.2 0.2 0.2 0.2 0.08333328 0.3333329 0.16666695 0.24999993 0.16666695 0.1428571 0.2857143 0.2857143 0.1428571 0.1428571 0.125 0.25 0.375 0.125 0.125 0.2 0.2 0.2 0.2 0.2 0.2 0.2 0.2 0.2 0.2 0.2 0.2 0.2 0.2 0.2 0.2 0.2 0.2 0.2 0.2 0.2 0.2 0.2 0.2 0.2 0.1666668 0.1666668 0.1666668 0.3333327 0.1666668 0.2 0.2 0.2 0.2 0.2 0.1666668 0.1666668 0.1666668 0.3333327 0.1666668 0.2 0.2 0.2 0.2 0.2 0.2 0.2 0.2 0.2 0.2 0.2 0.2 0.2 0.2 0.2 0.2 0.2 0.2 0.2 0.2 0.2 0.2 0.2 0.2 0.2 0.2 0.2 0.2 0.2 0.2 0.2 0.2 0.2 0.2 0.2 0.2 0.2 0.2 0.2 0.2 0.2 0.2 0.2 0.2 0.2 0.2 0.2 0.2 0.2 0.2 0.2 0.2 0.2 0.2 0.2 0.2 0.2 0.2 0.2 0.2 0.2 0.2 0.2 0.2 0.2 0.2 0.2 0.2 0.2 0.2 0.2 0.2 0.2 0.2 0.2 0.2 0.2 0.2 0.2 0.2 0.2 0.2 0.2 0.2 0.2</probabilities>
        </cpt>
        <cpt id="Water">
            <state id="s0_to_159" />
            <state id="s159_to_318" />
            <state id="s318_to_477" />
            <state id="s477_to_636" />
            <parents>Rainfall Senesced Tillage</parents>
            <probabilities>0.25 0.25 0.25 0.25 0.25 0.25 0.25 0.25 0.25 0.25 0.25 0.25 0.25 0.25 0.25 0.25 0.25 0.25 0.25 0.25 0.25 0.25 0.25 0.25 0.25 0.25 0.25 0.25 0.25 0.25 0.25 0.25 0.387097 0.290323 0.16129 0.16129 0.387097 0.290323 0.16129 0.16129 0.11764694 0.05882347 0.17647091 0.64705868 0.11764694 0.05882347 0.17647091 0.64705868 0.25 0.25 0.25 0.25 0.25 0.25 0.25 0.25 0.25 0.25 0.25 0.25 0.25 0.25 0.25 0.25 0.2772277 0.2871287 0.1287129 0.3069307 0.2772277 0.2871287 0.1287129 0.3069307 0.04166667 0.12499991 0.2916668 0.54166662 0.04166667 0.12499991 0.2916668 0.54166662 0.4999995 0.1666668 0.1666668 0.1666668 0.4999995 0.1666668 0.1666668 0.1666668 0.4 0.2 0.2 0.2 0.4 0.2 0.2 0.2 0.281421 0.300546 0.120219 0.297814 0.281421 0.300546 0.120219 0.297814 0.1 0.09 0.2 0.61 0.1 0.09 0.2 0.61 0.4999995 0.1666668 0.1666668 0.1666668 0.4999995 0.1666668 0.1666668 0.1666668 0.25 0.25 0.25 0.25 0.25 0.25 0.25 0.25 0.3380953 0.3333333 0.09523819 0.23333321 0.3380953 0.3333333 0.09523819 0.23333321 0.05405411 0.07770272 0.21621604 0.65202713 0.05405411 0.07770272 0.21621604 0.65202713 0.4999995 0.1666668 0.1666668 0.1666668 0.4999995 0.1666668 0.1666668 0.1666668 0.25 0.25 0.25 0.25 0.25 0.25 0.25 0.25 0.2755103 0.2857143 0.1581632 0.2806123 0.2755103 0.2857143 0.1581632 0.2806123 0.09375 0.03125 0.09375 0.78125 0.09375 0.03125 0.09375 0.78125 0.25 0.25 0.25 0.25 0.25 0.25 0.25 0.25 0.25 0.25 0.25 0.25 0.25 0.25 0.25 0.25 0.253165 0.265823 0.126582 0.35443 0.253165 0.265823 0.126582 0.35443 0.222222 0.111111 0.111111 0.555556 0.222222 0.111111 0.111111 0.555556 0.25 0.25 0.25 0.25 0.25 0.25 0.25 0.25 0.25 0.25 0.25 0.25 0.25 0.25 0.25 0.25</probabilities>
        </cpt>
        <cpt id="Water_Stress">
            <state id="s0_to_3_66" />
            <state id="s3_66_to_7_32" />
            <state id="s7_32_to_10_98" />
            <state id="s10_98_to_14_64" />
            <parents>Rainfall Temperature</parents>
            <probabilities>0.25 0.25 0.25 0.25 0.25 0.25 0.25 0.25 0.25 0.25 0.25 0.25 0.25 0.25 0.25 0.25 0.25 0.25 0.25 0.25 0.25 0.25 0.25 0.25 0.11363608 0.25000018 0.61363643 0.02272732 0.25 0.25 0.25 0.25 0.25 0.25 0.25 0.25 0.25 0.25 0.25 0.25 0.25 0.25 0.25 0.25 0.11363605 0.02272731 0.84090934 0.02272731 0.107143 0.107143 0.7738092 0.0119048 0.25 0.25 0.25 0.25 0.25 0.25 0.25 0.25 0.05487801 0.0426829 0.49390205 0.40853704 0.07065217 0.10326096 0.7554347 0.07065217 0.107143 0.3333331 0.5476191 0.0119048 0.11363608 0.11363608 0.75000053 0.02272732 0.25 0.25 0.25 0.25 0.01851851 0.11111106 0.74382737 0.12654306 0.0182927 0.0792683 0.640244 0.262195 0.004098359 0.11065596 0.684425754 0.200819928 0.04411762 0.32843113 0.45588218 0.17156907 0.25 0.25 0.25 0.25 0.03571431 0.08333333 0.77380931 0.10714304 0.02272732 0.11363608 0.65909146 0.20454514 0.015625 0.140625 0.828125 0.015625 0.0454546 0.181818 0.7500001 0.0227273 0.25 0.25 0.25 0.25 0.25 0.25 0.25 0.25 0.25 0.25 0.25 0.25 0.02272732 0.11363608 0.65909146 0.20454514 0.25 0.25 0.25 0.25 0.02272729 0.11363597 0.72727278 0.13636396</probabilities>
        </cpt>
        <cpt id="Weeds">
            <state id="Present" />
            <state id="Absent" />
            <parents>SOMC Tillage</parents>
            <probabilities>0.95 0.05 0.05 0.95 0.96 0.04 0.04 0.96 0.97 0.03 0.03 0.97 0.98 0.02 0.02 0.98 0.99 0.01 0.00999999 0.99000001</probabilities>
        </cpt>
        <cpt id="Weight">
            <state id="s0_to_5000" />
            <state id="s5000_to_10000" />
            <state id="s10000_to_15000" />
            <state id="s15000_to_20000" />
            <state id="s20000_to_25000" />
            <parents>Rainfall Temperature Water_Stress</parents>
            <probabilities>0.2 0.2 0.2 0.2 0.2 0.2 0.2 0.2 0.2 0.2 0.2 0.2 0.2 0.2 0.2 0.2 0.2 0.2 0.2 0.2 0.2 0.2 0.2 0.2 0.2 0.2 0.2 0.2 0.2 0.2 0.2 0.2 0.2 0.2 0.2 0.2 0.2 0.2 0.2 0.2 0.2 0.2 0.2 0.2 0.2 0.2 0.2 0.2 0.2 0.2 0.2 0.2 0.2 0.2 0.2 0.2 0.2 0.2 0.2 0.2 0.2 0.2 0.2 0.2 0.2 0.2 0.2 0.2 0.2 0.2 0.2 0.2 0.2 0.2 0.2 0.2 0.2 0.2 0.2 0.2 0.2 0.2 0.2 0.2 0.2 0.2 0.2 0.2 0.2 0.2 0.2 0.2 0.2 0.2 0.2 0.2 0.2 0.2 0.2 0.2 0.2 0.2 0.2 0.2 0.2 0.2 0.2 0.2 0.2 0.2 0.2 0.2 0.2 0.2 0.2 0.2 0.2 0.2 0.2 0.2 0.555556 0.111111 0.111111 0.111111 0.111111 0.73333315 0.06666671 0.06666671 0.06666671 0.06666671 0.2258062 0.41935538 0.16129015 0.16129015 0.03225813 0.2 0.2 0.2 0.2 0.2 0.2 0.2 0.2 0.2 0.2 0.2 0.2 0.2 0.2 0.2 0.2 0.2 0.2 0.2 0.2 0.2 0.2 0.2 0.2 0.2 0.2 0.2 0.2 0.2 0.2 0.2 0.2 0.2 0.2 0.2 0.2 0.2 0.2 0.2 0.2 0.2 0.2 0.2 0.2 0.2 0.2 0.2 0.2 0.2 0.2 0.2 0.2 0.2 0.2 0.2 0.2 0.2 0.2 0.2 0.2 0.2 0.2 0.2 0.2 0.2 0.2 0.2 0.2 0.2 0.2 0.2 0.2 0.2 0.2 0.2 0.2 0.2 0.2 0.2 0.2 0.2 0.2 0.2 0.2 0.2 0.111111 0.555556 0.111111 0.111111 0.111111 0.2 0.2 0.2 0.2 0.2 0.07317071 0.19512202 0.31707303 0.39024404 0.0243902 0.2 0.2 0.2 0.2 0.2 0.53846184 0.23076893 0.07692308 0.07692308 0.07692308 0.53846184 0.23076893 0.07692308 0.07692308 0.07692308 0.04347825 0.24637673 0.37681159 0.31884065 0.01449278 0.2 0.2 0.2 0.2 0.2 0.2 0.2 0.2 0.2 0.2 0.2 0.2 0.2 0.2 0.2 0.2 0.2 0.2 0.2 0.2 0.2 0.2 0.2 0.2 0.2 0.2 0.2 0.2 0.2 0.2 0.2 0.2 0.2 0.2 0.2 0.2 0.2 0.2 0.2 0.2 0.2 0.2 0.2 0.2 0.2 0.07692308 0.53846184 0.23076893 0.07692308 0.07692308 0.27272719 0.09090916 0.45454532 0.09090916 0.09090916 0.38823519 0.28235314 0.10588205 0.16470608 0.05882353 0.52112674 0.11267594 0.23943688 0.11267594 0.01408449 0.05882344 0.52941147 0.17647082 0.17647082 0.05882344 0.43478274 0.26086984 0.21739087 0.04347827 0.04347827 0.209790208 0.237762235 0.314685312 0.230769228 0.006993017 0.05882347 0.05882347 0.05882347 0.64705868 0.17647091 0.07692307 0.07692307 0.69230772 0.07692307 0.07692307 0.78125 0.125 0.03125 0.03125 0.03125 0.12 0.18 0.24 0.36 0.1 0.2 0.2 0.2 0.2 0.2 0.111111 0.111111 0.555556 0.111111 0.111111 0.555556 0.111111 0.111111 0.111111 0.111111 0.18918919 0.2972973 0.02702703 0.24324324 0.24324324 0.2 0.2 0.2 0.2 0.2 0.2 0.2 0.2 0.2 0.2 0.2 0.2 0.2 0.2 0.2 0.2 0.2 0.2 0.2 0.2 0.2 0.2 0.2 0.2 0.2 0.1 0.5 0.2 0.1 0.1 0.175 0.375 0.3 0.125 0.025 0.318367 0.269388 0.2 0.2 0.0122449 0.02222221 0.02222221 0.22222213 0.3333332 0.40000024 0.1428571 0.1428571 0.1428571 0.4285714 0.1428571 0.17647082 0.05882344 0.52941147 0.17647082 0.05882344 0.15596286 0.31192672 0.2201838 0.28440374 0.02752288 0.31914926 0.44680836 0.02127662 0.02127662 0.19148915 0.2 0.2 0.2 0.2 0.2 0.09677424 0.06451613 0.70967728 0.09677424 0.03225811 0.25146208 0.26900608 0.21052606 0.22807007 0.04093571 0.01886789 0.09433955 0.32075484 0.24528288 0.32075484 0.07692315 0.38461527 0.38461527 0.07692315 0.07692315 0.74647863 0.04225348 0.12676094 0.01408449 0.07042246 0.09278345 0.25773187 0.27835086 0.25773187 0.11340194 0.025641 0.025641 0.538462 0.025641 0.384615 0.2 0.2 0.2 0.2 0.2 0.2 0.2 0.2 0.2 0.2 0.2 0.2 0.2 0.2 0.2 0.2 0.2 0.2 0.2 0.2 0.1428571 0.4285714 0.1428571 0.1428571 0.1428571 0.09090916 0.27272719 0.45454532 0.09090916 0.09090916 0.130435 0.3913041 0.3333331 0.130435 0.0144928 0.07692307 0.07692307 0.69230772 0.07692307 0.07692307 0.2 0.2 0.2 0.2 0.2 0.111111 0.111111 0.555556 0.111111 0.111111 0.33333333 0.33333333 0.27272727 0.03030303 0.03030303 0.07692308 0.07692308 0.23076893 0.53846184 0.07692308 0.2 0.2 0.2 0.2 0.2 0.23076918 0.07692316 0.23076918 0.38461531 0.07692316 0.03508768 0.2807018 0.17543888 0.21052585 0.29824579 0.2 0.2 0.2 0.2 0.2 0.1666668 0.1666668 0.3333327 0.1666668 0.1666668 0.41666704 0.08333331 0.33333303 0.08333331 0.08333331 0.35135135 0.13513514 0.24324324 0.02702703 0.24324324 0.2 0.2 0.2 0.2 0.2 0.2 0.2 0.2 0.2 0.2 0.2 0.2 0.2 0.2 0.2 0.2 0.2 0.2 0.2 0.2 0.2 0.2 0.2 0.2 0.2 0.2 0.2 0.2 0.2 0.2 0.2 0.2 0.2 0.2 0.2 0.2 0.2 0.2 0.2 0.2 0.2 0.2 0.2 0.2 0.2 0.2 0.2 0.2 0.2 0.2 0.2 0.2 0.2 0.2 0.2 0.2 0.2 0.2 0.2 0.2 0.2 0.2 0.2 0.2 0.2 0.2 0.2 0.2 0.2 0.2 0.111111 0.111111 0.111111 0.555556 0.111111 0.09090918 0.42424238 0.30303027 0.15151514 0.03030303 0.07692307 0.07692307 0.07692307 0.69230772 0.07692307 0.2 0.2 0.2 0.2 0.2 0.2 0.2 0.2 0.2 0.2 0.2 0.2 0.2 0.2 0.2 0.2 0.2 0.2 0.2 0.2 0.2 0.2 0.2 0.2 0.2 0.1111111 0.1111111 0.4444444 0.2222222 0.1111111 0.47222209 0.13888903 0.13888903 0.22222204 0.02777781 0.1 0.1 0.1 0.6 0.1</probabilities>
        </cpt>
        <cpt id="Yield">
            <state id="Decrease" />
            <state id="Increase" />
            <parents>Land_Use Nutrients Product_Weight</parents>
            <probabilities>0.7 0.3 0.65 0.35 0.6 0.4 0.55 0.45 0.04 0.96 0.03 0.97 0.02 0.98 0.01 0.99 0.8 0.2 0.75 0.25 0.7 0.3 0.65 0.35 0.65 0.35 0.6 0.4 0.55 0.45 0.5 0.5 0.85 0.15 0.8 0.2 0.75 0.25 0.7 0.3 0.7 0.3 0.65 0.35 0.6 0.4 0.55 0.45 0.95 0.05 0.9 0.1 0.85 0.15 0.8 0.2 0.75 0.25 0.7 0.3 0.65 0.35 0.6 0.4</probabilities>
        </cpt>
    </nodes>
    <extensions>
        <genie version="1.0" app="bnbench" name="flood">
            <node id="Bulk_Density">
                <name>Bulk_Density</name>
                <interior color="e5f6f7" />
                <outline color="000080" />
                <font color="000000" name="Arial" size="8" />
                <position>100 50 176 86</position>
            </node>
            <node id="Daily_Runoff">
                <name>Daily_Runoff</name>
                <interior color="e5f6f7" />
                <outline color="000080" />
                <font color="000000" name="Arial" size="8" />
                <position>250 50 326 86</position>
            </node>
            <node id="Erosion">
                <name>Erosion</name>
                <interior color="e5f6f7" />
                <outline color="000080" />
                <font color="000000" name="Arial" size="8" />
                <position>400 50 476 86</position>
            </node>
            <node id="Farm_Yield">
                <name>Farm_Yield</name>
                <interior color="e5f6f7" />
                <outline color="000080" />
                <font color="000000" name="Arial" size="8" />
                <position>550 50 626 86</position>
            </node>
            <node id="Flood_Alleviation">
                <name>Flood_Alleviation</name>
                <interior color="e5f6f7" />
                <outline color="000080" />
                <font color="000000" name="Arial" size="8" />
                <position>700 50 776 86</position>
            </node>
            <node id="Land_Use">
                <name>Land_Use</name>
                <interior color="e5f6f7" />
                <outline color="000080" />
                <font color="000000" name="Arial" size="8" />
                <position>850 50 926 86</position>
            </node>
            <node id="Nutrients">
                <name>Nutrients</name>
                <interior color="e5f6f7" />
                <outline color="000080" />
                <font color="000000" name="Arial" size="8" />
                <position>100 170 176 206</position>
            </node>
            <node id="Product_Weight">
                <name>Product_Weight</name>
                <interior color="e5f6f7" />
                <outline color="000080" />
                <font color="000000" name="Arial" size="8" />
                <position>250 170 326 206</position>
            </node>
            <node id="Rainfall">
                <name>Rainfall</name>
                <interior color="e5f6f7" />
                <outline color="000080" />
                <font color="000000" name="Arial" size="8" />
                <position>400 170 476 206</position>
            </node>
            <node id="Runoff">
                <name>Runoff</name>
                <interior color="e5f6f7" />
                <outline color="000080" />
                <font color="000000" name="Arial" size="8" />
                <position>550 170 626 206</position>
            </node>
            <node id="Senesced">
                <name>Senesced</name>
                <interior color="e5f6f7" />
                <outline color="000080" />
                <font color="000000" name="Arial" size="8" />
                <position>700 170 776 206</position>
            </node>
            <node id="Slope">
                <name>Slope</name>
                <interior color="e5f6f7" />
                <outline color="000080" />
                <font color="000000" name="Arial" size="8" />
                <position>850 170 926 206</position>
            </node>
            <node id="SOMC">
                <name>SOMC</name>
                <interior color="e5f6f7" />
                <outline color="000080" />
                <font color="000000" name="Arial" size="8" />
                <position>100 290 176 326</position>
            </node>
            <node id="Temperature">
                <name>Temperature</name>
                <interior color="e5f6f7" />
                <outline color="000080" />
                <font color="000000" name="Arial" size="8" />
                <position>250 290 326 326</position>
            </node>
            <node id="Texture">
                <name>Texture</name>
                <interior color="e5f6f7" />
                <outline color="000080" />
                <font color="000000" name="Arial" size="8" />
                <position>400 290 476 326</position>
            </node>
            <node id="Tillage">
                <name>Tillage</name>
                <interior color="e5f6f7" />
                <outline color="000080" />
                <font color="000000" name="Arial" size="8" />
                <position>550 290 626 326</position>
            </node>
            <node id="VESS">
                <name>VESS</name>
                <interior color="e5f6f7" />
                <outline color="000080" />
                <font color="000000" name="Arial" size="8" />
                <position>700 290 776 326</position>
            </node>
            <node id="Water">
                <name>Water</name>
                <interior color="e5f6f7" />
                <outline color="000080" />
                <font color="000000" name="Arial" size="8" />
                <position>850 290 926 326</position>
            </node>
            <node id="Water_Stress">
                <name>Water_Stress</name>
                <interior color="e5f6f7" />
                <outline color="000080" />
                <font color="000000" name="Arial" size="8" />
                <position>100 410 176 446</position>
            </node>
            <node id="Weeds">
                <name>Weeds</name>
                <interior color="e5f6f7" />
                <outline color="000080" />
                <font color="000000" name="Arial" size="8" />
                <position>250 410 326 446</position>
            </node>
            <node id="Weight">
                <name>Weight</name>
                <interior color="e5f6f7" />
                <outline color="000080" />
                <font color="000000" name="Arial" size="8" />
                <position>400 410 476 446</position>
            </node>
            <node id="Yield">
                <name>Yield</name>
                <interior color="e5f6f7" />
                <outline color="000080" />
                <font color="000000" name="Arial" size="8" />
                <position>550 410 626 446</position>
            </node>
        </genie>
    </extensions>
</smile>