<?xml version="1.0" encoding="UTF-8"?>
<!-- This network was created in BNBENCH -->
<smile version="1.0" id="bnbench" numsamples="100000" discsamples="100000">
    <nodes>
        <cpt id="PotentialTNConcentration">
            <state id="S0_to_50" />
            <state id="S100_to_150" />
            <state id="S1000_to_2000" />
            <state id="S150_to_200" />
            <state id="S200_to_300" />
            <state id="S300_to_400" />
            <state id="S400_to_500" />
            <state id="S50_to_100" />
            <state id="S500_to_600" />
            <state id="S600_to_700" />
            <state id="S700_to_1000" />
            <probabilities>0.09090909 0.09090909 0.09090909 0.09090909 0.09090909 0.09090909 0.09090909 0.09090909 0.09090909 0.09090909 0.09090909</probabilities>
        </cpt>
        <cpt id="EstuaryType">
            <state id="Coastal_lake" />
            <state id="Tidal_lagoon" />
            <state id="Tidal_river" />
            <probabilities>0.3333333 0.3333333 0.3333333</probabilities>
        </cpt>
        <cpt id="Flushing">
            <state id="S0_to_3" />
            <state id="S3_to_6" />
            <state id="S6_to_10" />
            <state id="More_than_10" />
            <probabilities>0.25 0.25 0.25 0.25</probabilities>
        </cpt>
        <cpt id="Intertidal">
            <state id="S0_to_5" />
            <state id="S40_to_100" />
            <state id="S5_to_40" />
            <probabilities>0.3333333 0.3333333 0.3333333</probabilities>
        </cpt>
        <cpt id="WaterColStratification">
            <state id="No" />
            <state id="Yes" />
            <probabilities>0.5 0.5</probabilities>
        </cpt>
        <cpt id="Seasonality">
            <state id="S0_5_to_6_5" />
            <state id="S_0_5" />
            <state id="S_0_65" />
            <probabilities>0.3333333 0.3333333 0.3333333</probabilities>
        </cpt>
        <cpt id="Salinity">
            <state id="S0_to_5" />
            <state id="S30_to_36" />
            <state id="S5_to_30" />
            <probabilities>0.3333333 0.3333333 0.3333333</probabilities>
        </cpt>
        <cpt id="SedimentLoad">
            <state id="S0_to_1" />
            <state id="S1_to_5" />
            <state id="S10_to_20" />
            <state id="S20_to_50" />
            <state id="S5_to_10" />
            <state id="S50_to_100" />
            <state id="More_than_100" />
            <probabilities>0.1428571 0.1428571 0.1428571 0.1428571 0.1428571 0.1428571 0.1428571</probabilities>
        </cpt>
        <cpt id="ClosureDuration">
            <state id="Long_close" />
            <state id="Open" />
            <state id="Short_close" />
            <probabilities>0.3333333 0.3333333 0.3333333</probabilities>
        </cpt>
        <cpt id="Phytoplankton">
            <state id="S0_to_5" />
            <state id="S10_to_15" />
            <state id="S15_to_25" />
            <state id="S25_to_60" />
            <state id="S5_to_10" />
            <state id="S60_to_100" />
            <parents>Flushing PotentialTNConcentration Seasonality</parents>
            <probabilities>1.0 0.0 0.0 0.0 0.0 0.0 1.0 0.0 0.0 0.0 0.0 0.0 1.0 0.0 0.0 0.0 0.0 0.0 1.0 0.0 0.0 0.0 0.0 0.0 1.0 0.0 0.0 0.0 0.0 0.0 1.0 0.0 0.0 0.0 0.0 0.0 1.0 0.0 0.0 0.0 0.0 0.0 1.0 0.0 0.0 0.0 0.0 0.0 1.0 0.0 0.0 0.0 0.0 0.0 1.0 0.0 0.0 0.0 0.0 0.0 1.0 0.0 0.0 0.0 0.0 0.0 1.0 0.0 0.0 0.0 0.0 0.0 1.0 0.0 0.0 0.0 0.0 0.0 1.0 0.0 0.0 0.0 0.0 0.0 1.0 0.0 0.0 0.0 0.0 0.0 1.0 0.0 0.0 0.0 0.0 0.0 1.0 0.0 0.0 0.0 0.0 0.0 1.0 0.0 0.0 0.0 0.0 0.0 1.0 0.0 0.0 0.0 0.0 0.0 1.0 0.0 0.0 0.0 0.0 0.0 1.0 0.0 0.0 0.0 0.0 0.0 1.0 0.0 0.0 0.0 0.0 0.0 1.0 0.0 0.0 0.0 0.0 0.0 1.0 0.0 0.0 0.0 0.0 0.0 1.0 0.0 0.0 0.0 0.0 0.0 1.0 0.0 0.0 0.0 0.0 0.0 1.0 0.0 0.0 0.0 0.0 0.0 1.0 0.0 0.0 0.0 0.0 0.0 1.0 0.0 0.0 0.0 0.0 0.0 1.0 0.0 0.0 0.0 0.0 0.0 1.0 0.0 0.0 0.0 0.0 0.0 1.0 0.0 0.0 0.0 0.0 0.0 1.0 0.0 0.0 0.0 0.0 0.0 1.0 0.0 0.0 0.0 0.0 0.0 1.0 0.0 0.0 0.0 0.0 0.0 1.0 0.0 0.0 0.0 0.0 0.0 0.665467 0.0 0.0 0.0 0.334533 0.0 0.8132 0.0 0.0 0.0 0.1868 0.0 0.520267 0.356 0.0 0.0 0.123733 0.0 0.155705 0.0 0.0 0.0 0.0 0.844295 0.16692003 0.0 0.0 0.09227182 0.0 0.74080815 0.144766 0.0 0.0 0.0 0.0 0.855234 0.504533 0.446267 0.0 0.0 0.0492 0.0 0.60999982 0.02453329 0.0 0.0 0.36546689 0.0 0.402 0.2512 0.3468 0.0 0.0 0.0 0.389133 0.1884 0.422467 0.0 0.0 0.0 0.463333 0.509867 0.0268 0.0 0.0 0.0 0.3168667 0.0 0.5778664 0.1052669 0.0 0.0 0.30940009 0.0 0.59633318 0.09426673 0.0 0.0 0.361867 0.0 0.638133 0.0 0.0 0.0 0.258 0.0 0.0 0.742 0.0 0.0 0.265533 0.0 0.0 0.734467 0.0 0.0 0.30613309 0.0 0.62840019 0.06546672 0.0 0.0 0.225733 0.0 0.0 0.774267 0.0 0.0 0.94826672 0.0 0.0 0.0 0.05173328 0.0 0.9994666672 0.0 0.0 0.0 0.0005333328 0.0 0.8024 0.0 0.0 0.0 0.1976 0.0 0.237667 0.0 0.0 0.762333 0.0 0.0 0.2712 0.0 0.0 0.7288 0.0 0.0 0.205533 0.0 0.0 0.794467 0.0 0.0 0.218933 0.0 0.0 0.781067 0.0 0.0 0.247 0.0 0.0 0.753 0.0 0.0 0.191133 0.0 0.0 0.652467 0.0 0.1564 0.194889 0.0 0.0 0.596711 0.0 0.2084 0.216444 0.0 0.0 0.783556 0.0 0.0 0.173867 0.0 0.0 0.0 0.0 0.826133 1.0 0.0 0.0 0.0 0.0 0.0 1.0 0.0 0.0 0.0 0.0 0.0 1.0 0.0 0.0 0.0 0.0 0.0 0.0 0.0105 0.0 0.0 0.9895 0.0 0.0 0.0 0.0 0.0 1.0 0.0 0.0 0.782 0.0 0.0 0.218 0.0 0.0 0.0 0.0 0.0 0.0 1.0 0.0 0.0 0.0 0.107851 0.0 0.892149 0.0 0.0 0.0 0.0 0.0 1.0 0.0 0.9848 0.0 0.0 0.0152 0.0 0.0 0.1884 0.0 0.0 0.8116 0.0 0.0 0.3463 0.6537 0.0 0.0 0.0 0.0 0.268 0.732 0.0 0.0 0.0 0.0 0.8771 0.1229 0.0 0.0 0.0 0.0 0.0 0.80155 0.19845 0.0 0.0 0.0 0.0 0.79835 0.20165 0.0 0.0 0.0 0.0 1.0 0.0 0.0 0.0 0.0 0.0 0.0 1.0 0.0 0.0 0.0 0.0 0.0 1.0 0.0 0.0 0.0 0.0 0.81975 0.18025 0.0 0.0 0.0 0.0 0.0 1.0 0.0 0.0 0.4752 0.0 0.0 0.0 0.5248 0.0 0.8693 0.0 0.0 0.0 0.1307 0.0 0.0896 0.0 0.0 0.0 0.9104 0.0 0.0 0.0 0.0 1.0 0.0 0.0 0.0 0.0 0.0 1.0 0.0 0.0 0.0 0.0 0.0 1.0 0.0 0.0 0.0 0.0 0.0 1.0 0.0 0.0 0.0 0.0 0.0 1.0 0.0 0.0 0.0 0.0 0.0 0.75005 0.0 0.24995 0.0 0.0 0.0 0.718233 0.0 0.281767 0.0 0.0 0.0 1.0 0.0 0.0 0.0 0.0 0.0 0.0 0.0 1.0 1.0 0.0 0.0 0.0 0.0 0.0 1.0 0.0 0.0 0.0 0.0 0.0 1.0 0.0 0.0 0.0 0.0 0.0 0.0 0.08195609 0.0 0.0 0.91804391 0.0 0.0 0.0 0.0 0.0 1.0 0.0 0.0 0.846667 0.0 0.0 0.153333 0.0 0.0 0.0 0.0 0.0 0.0 1.0 0.0 0.0 0.0 0.104146 0.0 0.895854 0.0 0.0 0.0 0.0 0.0 1.0 0.0 1.0 0.0 0.0 0.0 0.0 0.0 0.30012 0.0 0.0 0.69988 0.0 0.0 0.280479 0.719521 0.0 0.0 0.0 0.0 0.223393 0.776607 0.0 0.0 0.0 0.0 0.821477 0.178523 0.0 0.0 0.0 0.0 0.0 0.768423 0.231577 0.0 0.0 0.0 0.0 0.753872 0.246128 0.0 0.0 0.0 0.0 1.0 0.0 0.0 0.0 0.0 0.0 0.0 1.0 0.0 0.0 0.0 0.0 0.0 1.0 0.0 0.0 0.0 0.0 0.763932 0.236068 0.0 0.0 0.0 0.0 0.0 1.0 0.0 0.0 0.385868 0.0 0.0 0.0 0.614132 0.0 0.756926 0.0 0.0 0.0 0.243074 0.0 0.0245908 0.0 0.0 0.0 0.9754092 0.0 0.0 0.0 0.0 1.0 0.0 0.0 0.0 0.0 0.0 1.0 0.0 0.0 0.0 0.0 0.0 1.0 0.0 0.0 0.0 0.0 0.0 1.0 0.0 0.0 0.0 0.0 0.0 1.0 0.0 0.0 0.0 0.0 0.0 0.717405 0.0 0.282595 0.0 0.0 0.0 0.7035593 0.0 0.2964407 0.0 0.0 0.0 1.0 0.0 0.0 0.0 0.0 0.0 0.0 0.0 1.0</probabilities>
        </cpt>
        <cpt id="SedTrappingEfficiency">
            <state id="S0_to_0_1" />
            <state id="S0_1_to_0_5" />
            <state id="S0_5_to_0_85" />
            <state id="S0_85_to_0_95" />
            <state id="S0_95_to_1" />
            <parents>ClosureDuration EstuaryType</parents>
            <probabilities>0.0 0.01 0.02 0.05 0.92 0.0 0.05 0.15 0.39 0.41 0.01 0.76 0.19 0.03 0.01 0.0 0.01 0.02 0.05 0.92 0.03 0.04 0.2 0.4 0.33 0.61 0.28 0.1 0.01 0.0 0.0 0.01 0.02 0.05 0.92 0.04 0.04 0.18 0.41 0.33 0.55 0.3 0.13 0.02 0.0</probabilities>
        </cpt>
        <cpt id="Macroalgae">
            <state id="S0_to_0_4" />
            <state id="S0_4_to_0_6" />
            <state id="S0_6_to_0_8" />
            <state id="S0_8_to_1" />
            <parents>EstuaryType PotentialTNConcentration Salinity</parents>
            <probabilities>0.0 0.0 0.0 1.0 0.0 0.0002 0.0285 0.9713 0.0 0.0002 0.0285 0.9713 0.0 0.0 0.0 1.0 0.0 0.0033 0.138 0.8587 0.0 0.0033 0.138 0.8587 0.1768 0.5726 0.2503 0.0003 0.9998 0.0002 0.0 0.0 0.9998 0.0002 0.0 0.0 0.0 0.0 0.0 1.0 0.0 0.0107 0.2455 0.7438 0.0 0.0107 0.2455 0.7438 0.0 0.0 0.0005 0.9995 0.0006 0.0505 0.4398 0.5091 0.0006 0.0505 0.4398 0.5091 0.0 0.0 0.0069 0.9931 0.0079 0.2018 0.578 0.2123 0.0079 0.2018 0.578 0.2123 0.0 0.0 0.0517 0.9483 0.057 0.4483 0.4411 0.0536 0.057 0.4483 0.4411 0.0536 0.0 0.0 0.0 1.0 0.0 0.0009 0.067 0.9321 0.0 0.0009 0.067 0.9321 0.0 0.0 0.2103 0.7897 0.2244 0.5697 0.1978 0.0081 0.2244 0.5697 0.1978 0.0081 0.0 0.0 0.5004 0.4996 0.5192 0.4268 0.0532 0.0008 0.5192 0.4268 0.0532 0.0008 0.0 0.0055 0.8967 0.0978 0.9089 0.0877 0.0034 0.0 0.9089 0.0877 0.0034 0.0 0.0 0.0 0.0 1.0 0.0 0.0002 0.0285 0.9713 0.0 0.0002 0.0285 0.9713 0.0 0.0 0.0 1.0 0.0 0.0033 0.138 0.8587 0.0 0.0033 0.138 0.8587 0.1768 0.5726 0.2503 0.0003 0.9998 0.0002 0.0 0.0 0.9998 0.0002 0.0 0.0 0.0 0.0 0.0 1.0 0.0 0.0107 0.2455 0.7438 0.0 0.0107 0.2455 0.7438 0.0 0.0 0.0005 0.9995 0.0006 0.0505 0.4398 0.5091 0.0006 0.0505 0.4398 0.5091 0.0 0.0 0.0069 0.9931 0.0079 0.2018 0.578 0.2123 0.0079 0.2018 0.578 0.2123 0.0 0.0 0.0517 0.9483 0.057 0.4483 0.4411 0.0536 0.057 0.4483 0.4411 0.0536 0.0 0.0 0.0 1.0 0.0 0.0009 0.067 0.9321 0.0 0.0009 0.067 0.9321 0.0 0.0 0.2103 0.7897 0.2244 0.5697 0.1978 0.0081 0.2244 0.5697 0.1978 0.0081 0.0 0.0 0.5004 0.4996 0.5192 0.4268 0.0532 0.0008 0.5192 0.4268 0.0532 0.0008 0.0 0.0055 0.8967 0.0978 0.9089 0.0877 0.0034 0.0 0.9089 0.0877 0.0034 0.0 0.0 0.0 0.0 1.0 0.0 0.0001 0.0201 0.9798 0.0 0.0001 0.0201 0.9798 0.0 0.0 0.0 1.0 0.0 0.0003 0.0389 0.9608 0.0 0.0003 0.0389 0.9608 0.0 0.0 0.223 0.777 0.2342 0.4479 0.2781 0.0398 0.2342 0.4479 0.2781 0.0398 0.0 0.0 0.0 1.0 0.0 0.0006 0.0526 0.9468 0.0 0.0006 0.0526 0.9468 0.0 0.0 0.0 1.0 0.0 0.0012 0.0809 0.9179 0.0 0.0012 0.0809 0.9179 0.0 0.0 0.0 1.0 0.0 0.003 0.1332 0.8638 0.0 0.003 0.1332 0.8638 0.0 0.0 0.0 1.0 0.0 0.007 0.2042 0.7888 0.0 0.007 0.2042 0.7888 0.0 0.0 0.0 1.0 0.0 0.0002 0.0282 0.9716 0.0 0.0002 0.0282 0.9716 0.0 0.0 0.0001 0.9999 0.0001 0.0153 0.2911 0.6935 0.0001 0.0153 0.2911 0.6935 0.0 0.0 0.0002 0.9998 0.0002 0.031 0.386 0.5828 0.0002 0.031 0.386 0.5828 0.0 0.0 0.0019 0.9981 0.0023 0.1068 0.5363 0.3546 0.0023 0.1068 0.5363 0.3546</probabilities>
        </cpt>
        <cpt id="PhytoplanktonStandardised">
            <state id="S0_to_0_25" />
            <state id="S0_25_to_0_50" />
            <state id="S0_50_to_0_75" />
            <state id="S0_75_to_1" />
            <parents>Phytoplankton Salinity</parents>
            <probabilities>1.0 0.0 0.0 0.0 0.6 0.4 0.0 0.0 1.0 0.0 0.0 0.0 0.0 1.0 0.0 0.0 0.0 0.0 0.4 0.6 0.0 0.0 1.0 0.0 0.0 1.0 0.0 0.0 0.0 0.0 0.0 1.0 0.0 0.0 0.1 0.9 0.0 0.0 1.0 0.0 0.0 0.0 0.0 1.0 0.0 0.0 0.0 1.0 1.0 0.0 0.0 0.0 0.0 0.6 0.4 0.0 0.0 1.0 0.0 0.0 0.0 0.0 0.0 1.0 0.0 0.0 0.0 1.0 0.0 0.0 0.0 1.0</probabilities>
        </cpt>
        <cpt id="MacroalgaeStandardised">
            <state id="S0_to_0_25" />
            <state id="S0_25_to_0_50" />
            <state id="S0_50_to_0_75" />
            <state id="S0_75_to_1" />
            <parents>Macroalgae</parents>
            <probabilities>0.0 0.0 0.0 1.0 0.0 0.0 1.0 0.0 0.0 1.0 0.0 0.0 1.0 0.0 0.0 0.0</probabilities>
        </cpt>
        <cpt id="SedDeposition">
            <state id="S0_to_0_1" />
            <state id="S0_1_to_0_5" />
            <state id="S0_5_to_1" />
            <state id="S1_to_2" />
            <state id="S2_to_5" />
            <state id="S5_to_10" />
            <state id="More_than_10" />
            <parents>SedTrappingEfficiency SedimentLoad</parents>
            <probabilities>1.0 0.0 0.0 0.0 0.0 0.0 0.0 0.98 0.02 0.0 0.0 0.0 0.0 0.0 0.29 0.71 0.0 0.0 0.0 0.0 0.0 0.13 0.54 0.3 0.03 0.0 0.0 0.0 0.59 0.41 0.0 0.0 0.0 0.0 0.0 0.06 0.24 0.3 0.37 0.03 0.0 0.0 0.01 0.04 0.05 0.1 0.18 0.13 0.49 0.98 0.02 0.0 0.0 0.0 0.0 0.0 0.27 0.7 0.03 0.0 0.0 0.0 0.0 0.0 0.11 0.37 0.47 0.05 0.0 0.0 0.0 0.0 0.09 0.33 0.54 0.04 0.0 0.0 0.48 0.47 0.05 0.0 0.0 0.0 0.0 0.0 0.0 0.05 0.43 0.47 0.05 0.0 0.0 0.0 0.0 0.03 0.09 0.88 0.76 0.24 0.0 0.0 0.0 0.0 0.0 0.0 0.68 0.31 0.01 0.0 0.0 0.0 0.0 0.0 0.0 0.32 0.68 0.0 0.0 0.0 0.0 0.0 0.0 0.0 0.0 1.0 0.0 0.0 0.32 0.67 0.01 0.0 0.0 0.64 0.36 0.0 0.0 0.0 0.0 0.0 0.0 0.5 0.4 0.1 0.0 0.0 0.0 0.0 0.0 0.0 0.84 0.16 0.0 0.0 0.0 0.0 0.0 0.0 1.0 0.0 0.0 0.0 0.0 0.0 0.0 0.0 0.0 1.0 0.0 0.0 0.0 0.0 0.0 0.0 1.0 0.0 0.0 0.0 0.0 0.17 0.69 0.14 0.6 0.4 0.0 0.0 0.0 0.0 0.0 0.0 0.5 0.37 0.13 0.0 0.0 0.0 0.0 0.0 0.0 0.72 0.28 0.0 0.0 0.0 0.0 0.0 0.0 1.0 0.0 0.0 0.0 0.0 0.0 0.0 0.0 0.0 1.0 0.0 0.0 0.0 0.0 0.0 0.0 1.0 0.0 0.0 0.0 0.0 0.1 0.7 0.2 1.0 0.0 0.0 0.0 0.0 0.0 0.0 0.98 0.02 0.0 0.0 0.0 0.0 0.0</probabilities>
        </cpt>
        <cpt id="Oxygen">
            <state id="S4_to_5" />
            <state id="S5_to_6" />
            <state id="S6_to_7" />
            <state id="S7_to_8" />
            <parents>Flushing Phytoplankton WaterColStratification</parents>
            <probabilities>0.0 0.0 0.0 1.0 0.0 0.0 0.032 0.968 0.0 0.0 0.0 1.0 0.0 0.075 0.599 0.326 0.0 0.0 0.0 1.0 0.064 0.325 0.403 0.208 0.0 0.0 0.0 1.0 0.497 0.198 0.201 0.104 0.0 0.0 0.0 1.0 0.0 0.0 0.445 0.555 0.0 0.0 0.6 0.4 0.766 0.092 0.118 0.024 0.0 0.0 0.0 1.0 0.0 0.0 0.457 0.543 0.0 0.0 0.0 1.0 0.388 0.569 0.043 0.0 0.0 0.0 0.0 1.0 0.917 0.083 0.0 0.0 0.0 0.0 0.0 1.0 1.0 0.0 0.0 0.0 0.0 0.0 0.0 1.0 0.002 0.386 0.612 0.0 0.0 0.0 0.6 0.4 1.0 0.0 0.0 0.0 0.0 0.0 0.0 1.0 0.0 0.141 0.53 0.329 0.0 0.0 0.0 1.0 1.0 0.0 0.0 0.0 0.0 0.0 0.0 1.0 1.0 0.0 0.0 0.0 0.0 0.0 0.0 1.0 1.0 0.0 0.0 0.0 0.0 0.0 0.0 1.0 0.482 0.478 0.04 0.0 0.0 0.0 0.6 0.4 1.0 0.0 0.0 0.0 0.0 0.0 0.0 1.0 0.517 0.173 0.179 0.131 0.0 0.0 0.0 1.0 1.0 0.0 0.0 0.0 0.0 0.0 0.0 1.0 1.0 0.0 0.0 0.0 0.0 0.0 0.0 1.0 1.0 0.0 0.0 0.0 0.0 0.0 0.0 1.0 0.993 0.007 0.0 0.0 0.0 0.0 0.6 0.4 1.0 0.0 0.0 0.0</probabilities>
        </cpt>
        <cpt id="OxygenStandardised">
            <state id="S0_to_0_25" />
            <state id="S0_25_to_0_50" />
            <state id="S0_50_to_0_75" />
            <state id="S0_75_to_1" />
            <parents>Oxygen</parents>
            <probabilities>0.0 0.0 0.0 1.0 0.0 0.0 1.0 0.0 0.0 1.0 0.0 0.0 1.0 0.0 0.0 0.0</probabilities>
        </cpt>
        <cpt id="SeagrassDecline">
            <state id="Extreme" />
            <state id="Minor" />
            <state id="Moderate" />
            <state id="Severe" />
            <parents>Macroalgae SedDeposition</parents>
            <probabilities>0.2 0.01 0.19 0.6 0.3 0.01 0.1 0.59 0.5 0.01 0.05 0.44 0.6 0.01 0.02 0.37 0.7 0.01 0.01 0.28 0.8 0.01 0.01 0.18 0.97 0.01 0.01 0.01 0.05 0.15 0.7 0.1 0.05 0.1 0.65 0.2 0.1 0.05 0.55 0.3 0.15 0.05 0.45 0.35 0.15 0.05 0.3 0.5 0.66 0.01 0.03 0.3 0.92 0.01 0.02 0.05 0.01 0.96 0.02 0.01 0.01 0.89 0.07 0.03 0.01 0.8 0.14 0.05 0.01 0.7 0.25 0.04 0.01 0.1 0.79 0.1 0.1 0.01 0.1 0.79 0.88 0.01 0.01 0.1 0.01 0.96 0.02 0.01 0.01 0.89 0.07 0.03 0.01 0.8 0.15 0.04 0.01 0.75 0.2 0.04 0.01 0.69 0.25 0.05 0.1 0.1 0.4 0.4 0.88 0.01 0.01 0.1</probabilities>
        </cpt>
        <cpt id="SedMud">
            <state id="S0_to_12" />
            <state id="S12_to_25" />
            <state id="S25_to_34" />
            <state id="S34_to_100" />
            <parents>SedDeposition</parents>
            <probabilities>0.9 0.09 0.01 0.0 0.55 0.4 0.05 0.0 0.09 0.8 0.09 0.02 0.02 0.09 0.8 0.09 0.01 0.05 0.2 0.74 0.0 0.01 0.19 0.8 0.0 0.01 0.01 0.98</probabilities>
        </cpt>
        <cpt id="ETIPrimaryScore">
            <state id="S0_to_0_1" />
            <state id="S0_1_to_0_2" />
            <state id="S0_2_to_0_3" />
            <state id="S0_3_to_0_4" />
            <state id="S0_4_to_0_5" />
            <state id="S0_5_to_0_6" />
            <state id="S0_6_to_0_7" />
            <state id="S0_7_to_0_8" />
            <state id="S0_8_to_0_9" />
            <state id="S0_9_to_1_0" />
            <parents>Intertidal MacroalgaeStandardised PhytoplanktonStandardised</parents>
            <probabilities>0.46 0.34 0.2 0.0 0.0 0.0 0.0 0.0 0.0 0.0 0.0 0.0 0.23 0.39 0.38 0.0 0.0 0.0 0.0 0.0 0.0 0.0 0.0 0.0 0.0 0.38 0.41 0.21 0.0 0.0 0.0 0.0 0.0 0.0 0.0 0.0 0.0 0.17 0.34 0.49 0.39 0.43 0.18 0.0 0.0 0.0 0.0 0.0 0.0 0.0 0.0 0.0 0.18 0.39 0.43 0.0 0.0 0.0 0.0 0.0 0.0 0.0 0.0 0.0 0.0 0.46 0.37 0.17 0.0 0.0 0.0 0.0 0.0 0.0 0.0 0.0 0.0 0.15 0.48 0.37 0.3 0.49 0.21 0.0 0.0 0.0 0.0 0.0 0.0 0.0 0.0 0.0 0.22 0.32 0.46 0.0 0.0 0.0 0.0 0.0 0.0 0.0 0.0 0.0 0.0 0.39 0.43 0.18 0.0 0.0 0.0 0.0 0.0 0.0 0.0 0.0 0.0 0.25 0.35 0.4 0.36 0.37 0.27 0.0 0.0 0.0 0.0 0.0 0.0 0.0 0.0 0.0 0.19 0.43 0.38 0.0 0.0 0.0 0.0 0.0 0.0 0.0 0.0 0.0 0.0 0.39 0.38 0.23 0.0 0.0 0.0 0.0 0.0 0.0 0.0 0.0 0.0 0.21 0.34 0.45 0.44 0.46 0.1 0.0 0.0 0.0 0.0 0.0 0.0 0.0 0.42 0.41 0.17 0.0 0.0 0.0 0.0 0.0 0.0 0.0 0.4 0.39 0.21 0.0 0.0 0.0 0.0 0.0 0.0 0.0 0.28 0.5 0.22 0.0 0.0 0.0 0.0 0.0 0.0 0.0 0.0 0.0 0.16 0.44 0.4 0.0 0.0 0.0 0.0 0.0 0.0 0.0 0.17 0.49 0.34 0.0 0.0 0.0 0.0 0.0 0.0 0.0 0.17 0.42 0.41 0.0 0.0 0.0 0.0 0.0 0.0 0.0 0.15 0.41 0.44 0.0 0.0 0.0 0.0 0.0 0.0 0.0 0.0 0.0 0.0 0.37 0.44 0.19 0.0 0.0 0.0 0.0 0.0 0.0 0.0 0.37 0.46 0.17 0.0 0.0 0.0 0.0 0.0 0.0 0.0 0.4 0.44 0.16 0.0 0.0 0.0 0.0 0.0 0.0 0.0 0.37 0.4 0.23 0.0 0.0 0.0 0.0 0.0 0.0 0.0 0.0 0.0 0.15 0.35 0.5 0.0 0.0 0.0 0.0 0.0 0.0 0.0 0.16 0.39 0.45 0.0 0.0 0.0 0.0 0.0 0.0 0.0 0.22 0.42 0.36 0.0 0.0 0.0 0.0 0.0 0.0 0.0 0.18 0.44 0.38 0.21 0.33 0.46 0.0 0.0 0.0 0.0 0.0 0.0 0.0 0.0 0.0 0.25 0.41 0.34 0.0 0.0 0.0 0.0 0.0 0.0 0.0 0.0 0.0 0.0 0.37 0.38 0.25 0.0 0.0 0.0 0.0 0.0 0.0 0.0 0.0 0.0 0.21 0.41 0.38 0.0 0.0 0.3 0.4 0.3 0.0 0.0 0.0 0.0 0.0 0.0 0.0 0.04 0.32 0.64 0.0 0.0 0.0 0.0 0.0 0.0 0.0 0.0 0.0 0.0 0.48 0.37 0.15 0.0 0.0 0.0 0.0 0.0 0.0 0.0 0.0 0.0 0.22 0.33 0.45 0.0 0.0 0.0 0.0 0.0 0.41 0.39 0.2 0.0 0.0 0.0 0.0 0.0 0.0 0.0 0.43 0.4 0.17 0.0 0.0 0.0 0.0 0.0 0.0 0.0 0.14 0.54 0.32 0.0 0.0 0.0 0.0 0.0 0.0 0.0 0.0 0.0 0.25 0.33 0.42 0.0 0.0 0.0 0.0 0.0 0.0 0.0 0.14 0.44 0.42 0.0 0.0 0.0 0.0 0.0 0.0 0.0 0.3 0.37 0.33 0.0 0.0 0.0 0.0 0.0 0.0 0.0 0.19 0.44 0.37 0.0 0.0 0.0 0.0 0.0 0.0 0.0 0.03 0.4 0.57</probabilities>
        </cpt>
        <cpt id="SedToc">
            <state id="S0_to_0_5" />
            <state id="S0_5_to_1_2" />
            <state id="S1_2_to_2" />
            <state id="S2_to_10" />
            <parents>Macroalgae SedMud</parents>
            <probabilities>0.4373 0.4464 0.1026 0.0137 0.152 0.4787 0.2813 0.088 0.0384 0.3106 0.4003 0.2507 0.0005 0.0123 0.0746 0.9126 0.5468 0.4186 0.0342 0.0004 0.2584 0.6104 0.1275 0.0037 0.1 0.606 0.2777 0.0163 0.0092 0.1757 0.3798 0.4353 0.7403 0.2519 0.0077 0.0001 0.4685 0.4919 0.0385 0.0011 0.239 0.6439 0.1106 0.0065 0.0411 0.35 0.2837 0.3252 0.885 0.1129 0.0021 0.0 0.708 0.2788 0.0131 0.0001 0.4726 0.4776 0.0492 0.0006 0.1629 0.5199 0.2528 0.0644</probabilities>
        </cpt>
        <cpt id="SeagrassStandardised">
            <state id="S0_to_0_25" />
            <state id="S0_25_to_0_50" />
            <state id="S0_50_to_0_75" />
            <state id="S0_75_to_1" />
            <parents>SeagrassDecline</parents>
            <probabilities>0.0 0.0 0.0 1.0 1.0 0.0 0.0 0.0 0.0 1.0 0.0 0.0 0.0 0.0 1.0 0.0</probabilities>
        </cpt>
        <cpt id="Macrobenthos">
            <state id="S0_to_1_2" />
            <state id="S1_2_to_3_3" />
            <state id="S3_3_to_4_3" />
            <state id="S4_3_to_7" />
            <parents>Macroalgae SedMud SedToc</parents>
            <probabilities>0.01 0.24 0.74 0.01 0.01 0.24 0.74 0.01 0.01 0.25 0.49 0.25 0.01 0.25 0.49 0.25 0.01 0.25 0.49 0.25 0.01 0.25 0.49 0.25 0.01 0.01 0.48 0.5 0.01 0.01 0.48 0.5 0.01 0.01 0.74 0.24 0.01 0.01 0.73 0.25 0.01 0.01 0.24 0.74 0.01 0.01 0.24 0.74 0.01 0.01 0.48 0.5 0.01 0.01 0.48 0.5 0.01 0.01 0.01 0.97 0.01 0.01 0.01 0.97 0.25 0.73 0.01 0.01 0.25 0.73 0.01 0.01 0.25 0.73 0.01 0.01 0.25 0.73 0.01 0.01 0.25 0.49 0.25 0.01 0.25 0.49 0.25 0.01 0.25 0.49 0.25 0.01 0.25 0.49 0.25 0.01 0.01 0.25 0.49 0.25 0.01 0.25 0.49 0.25 0.01 0.25 0.49 0.25 0.01 0.25 0.49 0.25 0.01 0.01 0.48 0.5 0.01 0.01 0.48 0.5 0.01 0.01 0.48 0.5 0.01 0.01 0.48 0.5 0.5 0.48 0.01 0.01 0.5 0.48 0.01 0.01 0.5 0.48 0.01 0.01 0.5 0.48 0.01 0.01 0.25 0.73 0.01 0.01 0.25 0.73 0.01 0.01 0.25 0.73 0.01 0.01 0.25 0.73 0.01 0.01 0.01 0.97 0.01 0.01 0.01 0.97 0.01 0.01 0.01 0.49 0.49 0.01 0.01 0.49 0.49 0.01 0.01 0.97 0.01 0.01 0.01 0.97 0.01 0.01 0.01 0.25 0.49 0.25 0.01 0.25 0.49 0.25 0.5 0.48 0.01 0.01 0.5 0.48 0.01 0.01 0.5 0.48 0.01 0.01 0.5 0.48 0.01 0.01 0.25 0.73 0.01 0.01 0.25 0.73 0.01 0.01 0.25 0.73 0.01 0.01 0.25 0.73 0.01 0.01 0.01 0.95 0.03 0.01 0.01 0.97 0.01 0.01 0.01 0.49 0.49 0.01 0.01 0.49 0.49 0.01 0.01 0.95 0.03 0.01 0.01 0.97 0.01 0.01 0.01 0.25 0.49 0.25 0.01 0.25 0.49 0.25</probabilities>
        </cpt>
        <cpt id="SedTocStandardised">
            <state id="S0_to_0_25" />
            <state id="S0_25_to_0_50" />
            <state id="S0_50_to_0_75" />
            <state id="S0_75_to_1" />
            <parents>SedToc</parents>
            <probabilities>1.0 0.0 0.0 0.0 0.0 1.0 0.0 0.0 0.0 0.0 1.0 0.0 0.0 0.0 0.0 1.0</probabilities>
        </cpt>
        <cpt id="SedARPD">
            <state id="S1_to_2_5" />
            <state id="S2_5_to_4" />
            <state id="S_1" />
            <state id="S_4" />
            <parents>Macroalgae SedToc</parents>
            <probabilities>0.43055 0.38765 0.1022 0.0796 0.448894489 0.134071341 0.408824088 0.008210082 0.19628 0.01303 0.79044 0.00025 0.1523798 0.006269992 0.8413189 3.129996e-05 0.1635 0.5133 0.0087 0.3145 0.44836 0.37593 0.11564 0.06007 0.38838 0.07406 0.53462 0.00294 0.1520913 0.006280055 0.8415973 3.130027e-05 0.0518 0.3725 0.0009 0.5748 0.27586 0.50293 0.03021 0.191 0.49181 0.19694 0.29525 0.016 0.1595865 0.007278017 0.833073 6.248297e-05 0.0113 0.1773 0.0002 0.8112 0.1145 0.46686 0.00421 0.41443 0.44663 0.36906 0.11987 0.06444 0.1749201749 0.0118500119 0.812960813 0.0002690003</probabilities>
        </cpt>
        <cpt id="SedARPDStandardised">
            <state id="S0_to_0_25" />
            <state id="S0_25_to_0_50" />
            <state id="S0_50_to_0_75" />
            <state id="S0_75_to_1" />
            <parents>SedARPD</parents>
            <probabilities>0.0 0.0 1.0 0.0 0.0 1.0 0.0 0.0 0.0 0.0 0.0 1.0 1.0 0.0 0.0 0.0</probabilities>
        </cpt>
        <cpt id="MacrobenthosStandardised">
            <state id="S0_to_0_25" />
            <state id="S0_25_to_0_50" />
            <state id="S0_50_to_0_75" />
            <state id="S0_75_to_1" />
            <parents>Macrobenthos</parents>
            <probabilities>1.0 0.0 0.0 0.0 0.0 1.0 0.0 0.0 0.0 0.0 1.0 0.0 0.0 0.0 0.0 1.0</probabilities>
        </cpt>
        <cpt id="ETISecondaryScore">
            <state id="S0_to_0_1" />
            <state id="S0_1_to_0_2" />
            <state id="S0_2_to_0_3" />
            <state id="S0_3_to_0_4" />
            <state id="S0_4_to_0_5" />
            <state id="S0_5_to_0_6" />
            <state id="S0_6_to_0_7" />
            <state id="S0_7_to_0_8" />
            <state id="S0_8_to_0_9" />
            <state id="S0_9_to_1_0" />
            <parents>EstuaryType MacrobenthosStandardised OxygenStandardised Salinity SeagrassStandardised SedARPDStandardised SedTocStandardised</parents>
            <probabilities>0.27 0.72 0.01 0.0 0.0 0.0 0.0 0.0 0.0 0.0 0.0 0.67 0.33 0.0 0.0 0.0 0.0 0.0 0.0 0.0 0.0 0.05 0.88 0.07 0.0 0.0 0.0 0.0 0.0 0.0 0.0 0.0 0.34 0.65 0.01 0.0 0.0 0.0 0.0 0.0 0.01 0.64 0.35 0.0 0.0 0.0 0.0 0.0 0.0 0.0 0.0 0.11 0.81 0.08 0.0 0.0 0.0 0.0 0.0 0.0 0.0 0.0 0.33 0.67 0.0 0.0 0.0 0.0 0.0 0.0 0.0 0.0 0.01 0.76 0.23 0.0 0.0 0.0 0.0 0.0 0.0 0.08 0.84 0.08 0.0 0.0 0.0 0.0 0.0 0.0 0.0 0.0 0.36 0.64 0.0 0.0 0.0 0.0 0.0 0.0 0.0 0.0 0.03 0.75 0.22 0.0 0.0 0.0 0.0 0.0 0.0 0.0 0.0 0.1 0.86 0.04 0.0 0.0 0.0 0.0 0.0 0.01 0.33 0.66 0.0 0.0 0.0 0.0 0.0 0.0 0.0 0.0 0.01 0.73 0.26 0.0 0.0 0.0 0.0 0.0 0.0 0.0 0.0 0.15 0.8 0.05 0.0 0.0 0.0 0.0 0.0 0.0 0.0 0.0 0.51 0.49 0.0 0.0 0.0 0.0 0.25 0.71 0.04 0.0 0.0 0.0 0.0 0.0 0.0 0.0 0.0 0.67 0.33 0.0 0.0 0.0 0.0 0.0 0.0 0.0 0.0 0.07 0.85 0.08 0.0 0.0 0.0 0.0 0.0 0.0 0.0 0.0 0.38 0.62 0.0 0.0 0.0 0.0 0.0 0.0 0.0 0.65 0.35 0.0 0.0 0.0 0.0 0.0 0.0 0.0 0.0 0.11 0.81 0.08 0.0 0.0 0.0 0.0 0.0 0.0 0.0 0.0 0.3 0.67 0.03 0.0 0.0 0.0 0.0 0.0 0.0 0.0 0.01 0.71 0.28 0.0 0.0 0.0 0.0 0.0 0.0 0.07 0.85 0.08 0.0 0.0 0.0 0.0 0.0 0.0 0.0 0.0 0.31 0.68 0.01 0.0 0.0 0.0 0.0 0.0 0.0 0.0 0.02 0.8 0.18 0.0 0.0 0.0 0.0 0.0 0.0 0.0 0.0 0.16 0.81 0.03 0.0 0.0 0.0 0.0 0.0 0.0 0.34 0.66 0.0 0.0 0.0 0.0 0.0 0.0 0.0 0.0 0.02 0.72 0.26 0.0 0.0 0.0 0.0 0.0 0.0 0.0 0.0 0.23 0.73 0.04 0.0 0.0 0.0 0.0 0.0 0.0 0.0 0.0 0.58 0.42 0.0 0.0 0.0 0.0 0.2 0.76 0.04 0.0 0.0 0.0 0.0 0.0 0.0 0.0 0.01 0.52 0.47 0.0 0.0 0.0 0.0 0.0 0.0 0.0 0.0 0.09 0.86 0.05 0.0 0.0 0.0 0.0 0.0 0.0 0.0 0.0 0.46 0.54 0.0 0.0 0.0 0.0 0.0 0.0 0.0 0.59 0.41 0.0 0.0 0.0 0.0 0.0 0.0 0.0 0.0 0.12 0.78 0.1 0.0 0.0 0.0 0.0 0.0 0.0 0.0 0.0 0.37 0.63 0.0 0.0 0.0 0.0 0.0 0.0 0.0 0.0 0.02 0.78 0.2 0.0 0.0 0.0 0.0 0.0 0.0 0.08 0.83 0.09 0.0 0.0 0.0 0.0 0.0 0.0 0.0 0.0 0.39 0.6 0.01 0.0 0.0 0.0 0.0 0.0 0.0 0.0 0.04 0.76 0.2 0.0 0.0 0.0 0.0 0.0 0.0 0.0 0.0 0.21 0.74 0.05 0.0 0.0 0.0 0.0 0.0 0.0 0.34 0.66 0.0 0.0 0.0 0.0 0.0 0.0 0.0 0.0 0.01 0.82 0.17 0.0 0.0 0.0 0.0 0.0 0.0 0.0 0.0 0.11 0.82 0.07 0.0 0.0 0.0 0.0 0.0 0.0 0.0 0.0 0.5 0.5 0.0 0.0 0.0 0.0 0.14 0.83 0.03 0.0 0.0 0.0 0.0 0.0 0.0 0.0 0.01 0.64 0.35 0.0 0.0 0.0 0.0 0.0 0.0 0.0 0.0 0.09 0.79 0.12 0.0 0.0 0.0 0.0 0.0 0.0 0.0 0.0 0.46 0.53 0.01 0.0 0.0 0.0 0.0 0.0 0.0 0.67 0.33 0.0 0.0 0.0 0.0 0.0 0.0 0.0 0.0 0.09 0.85 0.06 0.0 0.0 0.0 0.0 0.0 0.0 0.0 0.0 0.37 0.62 0.01 0.0 0.0 0.0 0.0 0.0 0.0 0.0 0.03 0.76 0.21 0.0 0.0 0.0 0.0 0.0 0.0 0.07 0.86 0.07 0.0 0.0 0.0 0.0 0.0 0.0 0.0 0.0 0.39 0.61 0.0 0.0 0.0 0.0 0.0 0.0 0.0 0.0 0.02 0.77 0.21 0.0 0.0 0.0 0.0 0.0 0.0 0.0 0.0 0.16 0.77 0.07 0.0 0.0 0.0 0.0 0.0 0.0 0.37 0.63 0.0 0.0 0.0 0.0 0.0 0.0 0.0 0.0 0.03 0.7 0.27 0.0 0.0 0.0 0.0 0.0 0.0 0.0 0.0 0.09 0.87 0.04 0.0 0.0 0.0 0.0 0.0 0.0 0.0 0.0 0.51 0.49 0.0 0.0 0.0 0.0 0.18 0.82 0.0 0.0 0.0 0.0 0.0 0.0 0.0 0.0 0.01 0.8 0.19 0.0 0.0 0.0 0.0 0.0 0.0 0.0 0.0 0.2 0.8 0.0 0.0 0.0 0.0 0.0 0.0 0.0 0.0 0.01 0.72 0.27 0.0 0.0 0.0 0.0 0.0 0.0 0.01 0.73 0.26 0.0 0.0 0.0 0.0 0.0 0.0 0.0 0.0 0.21 0.76 0.03 0.0 0.0 0.0 0.0 0.0 0.0 0.0 0.01 0.84 0.15 0.0 0.0 0.0 0.0 0.0 0.0 0.0 0.0 0.28 0.72 0.0 0.0 0.0 0.0 0.0 0.0 0.0 0.2 0.8 0.0 0.0 0.0 0.0 0.0 0.0 0.0 0.0 0.04 0.68 0.28 0.0 0.0 0.0 0.0 0.0 0.0 0.0 0.0 0.28 0.72 0.0 0.0 0.0 0.0 0.0 0.0 0.0 0.0 0.0 0.8 0.2 0.0 0.0 0.0 0.0 0.0 0.0 0.02 0.75 0.23 0.0 0.0 0.0 0.0 0.0 0.0 0.0 0.0 0.24 0.75 0.01 0.0 0.0 0.0 0.0 0.0 0.0 0.0 0.01 0.82 0.17 0.0 0.0 0.0 0.0 0.0 0.0 0.0 0.0 0.24 0.74 0.02 0.0 0.0 0.0 0.0 0.02 0.81 0.17 0.0 0.0 0.0 0.0 0.0 0.0 0.0 0.0 0.23 0.77 0.0 0.0 0.0 0.0 0.0 0.0 0.0 0.0 0.0 0.76 0.24 0.0 0.0 0.0 0.0 0.0 0.0 0.0 0.0 0.26 0.72 0.02 0.0 0.0 0.0 0.0 0.0 0.0 0.25 0.75 0.0 0.0 0.0 0.0 0.0 0.0 0.0 0.0 0.01 0.76 0.23 0.0 0.0 0.0 0.0 0.0 0.0 0.0 0.0 0.31 0.68 0.01 0.0 0.0 0.0 0.0 0.0 0.0 0.0 0.01 0.79 0.2 0.0 0.0 0.0 0.0 0.0 0.0 0.0 0.77 0.23 0.0 0.0 0.0 0.0 0.0 0.0 0.0 0.0 0.19 0.79 0.02 0.0 0.0 0.0 0.0 0.0 0.0 0.0 0.01 0.74 0.25 0.0 0.0 0.0 0.0 0.0 0.0 0.0 0.0 0.32 0.67 0.01 0.0 0.0 0.0 0.0 0.0 0.0 0.18 0.81 0.01 0.0 0.0 0.0 0.0 0.0 0.0 0.0 0.0 0.82 0.18 0.0 0.0 0.0 0.0 0.0 0.0 0.0 0.0 0.19 0.81 0.0 0.0 0.0 0.0 0.0 0.0 0.0 0.0 0.0 0.75 0.25 0.0 0.0 0.0 0.0 0.0 0.17 0.82 0.01 0.0 0.0 0.0 0.0 0.0 0.0 0.0 0.0 0.73 0.27 0.0 0.0 0.0 0.0 0.0 0.0 0.0 0.0 0.2 0.79 0.01 0.0 0.0 0.0 0.0 0.0 0.0 0.0 0.02 0.82 0.16 0.0 0.0 0.0 0.0 0.0 0.0 0.0 0.78 0.22 0.0 0.0 0.0 0.0 0.0 0.0 0.0 0.0 0.19 0.81 0.0 0.0 0.0 0.0 0.0 0.0 0.0 0.0 0.01 0.8 0.19 0.0 0.0 0.0 0.0 0.0 0.0 0.0 0.0 0.21 0.79 0.0 0.0 0.0 0.0 0.0 0.0 0.0 0.22 0.78 0.0 0.0 0.0 0.0 0.0 0.0 0.0 0.0 0.01 0.83 0.16 0.0 0.0 0.0 0.0 0.0 0.0 0.0 0.0 0.23 0.77 0.0 0.0 0.0 0.0 0.0 0.0 0.0 0.0 0.0 0.79 0.21 0.0 0.0 0.0 0.0 0.0 0.0 0.0 0.83 0.17 0.0 0.0 0.0 0.0 0.0 0.0 0.0 0.0 0.24 0.75 0.01 0.0 0.0 0.0 0.0 0.0 0.0 0.0 0.01 0.74 0.25 0.0 0.0 0.0 0.0 0.0 0.0 0.0 0.0 0.24 0.75 0.01 0.0 0.0 0.0 0.0 0.0 0.86 0.14 0.0 0.0 0.0 0.0 0.0 0.0 0.0 0.0 0.2 0.79 0.01 0.0 0.0 0.0 0.0 0.0 0.0 0.0 0.01 0.79 0.2 0.0 0.0 0.0 0.0 0.0 0.0 0.0 0.0 0.22 0.77 0.01 0.0 0.0 0.0 0.0 0.0 0.0 0.28 0.72 0.0 0.0 0.0 0.0 0.0 0.0 0.0 0.0 0.01 0.77 0.22 0.0 0.0 0.0 0.0 0.0 0.0 0.0 0.0 0.24 0.76 0.0 0.0 0.0 0.0 0.0 0.0 0.0 0.0 0.01 0.85 0.14 0.0 0.0 0.0 0.0 0.0 0.0 0.01 0.75 0.24 0.0 0.0 0.0 0.0 0.0 0.0 0.0 0.0 0.24 0.75 0.01 0.0 0.0 0.0 0.0 0.0 0.0 0.0 0.0 0.74 0.26 0.0 0.0 0.0 0.0 0.0 0.0 0.0 0.0 0.17 0.82 0.01 0.0 0.0 0.0 0.0 0.0 0.0 0.17 0.82 0.01 0.0 0.0 0.0 0.0 0.0 0.0 0.0 0.0 0.76 0.24 0.0 0.0 0.0 0.0 0.0 0.0 0.0 0.0 0.2 0.8 0.0 0.0 0.0 0.0 0.0 0.0 0.0 0.0 0.0 0.81 0.19 0.0 0.0 0.0 0.24 0.76 0.0 0.0 0.0 0.0 0.0 0.0 0.0 0.0 0.01 0.8 0.19 0.0 0.0 0.0 0.0 0.0 0.0 0.0 0.0 0.23 0.77 0.0 0.0 0.0 0.0 0.0 0.0 0.0 0.0 0.0 0.79 0.21 0.0 0.0 0.0 0.0 0.0 0.0 0.0 0.8 0.2 0.0 0.0 0.0 0.0 0.0 0.0 0.0 0.0 0.19 0.81 0.0 0.0 0.0 0.0 0.0 0.0 0.0 0.0 0.0 0.77 0.23 0.0 0.0 0.0 0.0 0.0 0.0 0.0 0.0 0.28 0.71 0.01 0.0 0.0 0.0 0.0 0.0 0.0 0.21 0.78 0.01 0.0 0.0 0.0 0.0 0.0 0.0 0.0 0.03 0.77 0.2 0.0 0.0 0.0 0.0 0.0 0.0 0.0 0.0 0.27 0.72 0.01 0.0 0.0 0.0 0.0 0.0 0.0 0.0 0.01 0.78 0.21 0.0 0.0 0.0 0.0 0.0 0.0 0.01 0.79 0.2 0.0 0.0 0.0 0.0 0.0 0.0 0.0 0.0 0.28 0.72 0.0 0.0 0.0 0.0 0.0 0.0 0.0 0.0 0.02 0.76 0.22 0.0 0.0 0.0 0.0 0.0 0.0 0.0 0.0 0.19 0.81 0.0 0.0 0.0 0.0 0.0 0.0 0.79 0.21 0.0 0.0 0.0 0.0 0.0 0.0 0.0 0.0 0.18 0.82 0.0 0.0 0.0 0.0 0.0 0.0 0.0 0.0 0.01 0.71 0.28 0.0 0.0 0.0 0.0 0.0 0.0 0.0 0.0 0.26 0.74 0.0 0.0 0.0 0.0 0.0 0.0 0.0 0.27 0.72 0.01 0.0 0.0 0.0 0.0 0.0 0.0 0.0 0.0 0.7 0.3 0.0 0.0 0.0 0.0 0.0 0.0 0.0 0.0 0.2 0.8 0.0 0.0 0.0 0.0 0.0 0.0 0.0 0.0 0.02 0.78 0.2 0.0 0.0 0.0 0.0 0.0 0.0 0.01 0.73 0.26 0.0 0.0 0.0 0.0 0.0 0.0 0.0 0.0 0.21 0.78 0.01 0.0 0.0 0.0 0.0 0.0 0.0 0.0 0.0 0.77 0.23 0.0 0.0 0.0 0.0 0.0 0.0 0.0 0.0 0.27 0.73 0.0 0.0 0.0 0.0 0.0 0.0 0.0 0.28 0.72 0.0 0.0 0.0 0.0 0.0 0.0 0.0 0.0 0.01 0.78 0.21 0.0 0.0 0.0 0.0 0.0 0.0 0.0 0.0 0.22 0.78 0.0 0.0 0.0 0.0 0.0 0.0 0.0 0.0 0.01 0.71 0.28 0.0 0.0 0.0 0.0 0.0 0.21 0.79 0.0 0.0 0.0 0.0 0.0 0.0 0.0 0.0 0.0 0.77 0.23 0.0 0.0 0.0 0.0 0.0 0.0 0.0 0.0 0.23 0.73 0.04 0.0 0.0 0.0 0.0 0.0 0.0 0.0 0.0 0.78 0.22 0.0 0.0 0.0 0.0 0.0 0.0 0.01 0.79 0.2 0.0 0.0 0.0 0.0 0.0 0.0 0.0 0.0 0.26 0.74 0.0 0.0 0.0 0.0 0.0 0.0 0.0 0.0 0.02 0.74 0.24 0.0 0.0 0.0 0.0 0.0 0.0 0.0 0.0 0.21 0.79 0.0 0.0 0.0 0.0 0.0 0.0 0.0 0.3 0.7 0.0 0.0 0.0 0.0 0.0 0.0 0.0 0.0 0.01 0.7 0.29 0.0 0.0 0.0 0.0 0.0 0.0 0.0 0.0 0.24 0.75 0.01 0.0 0.0 0.0 0.0 0.0 0.0 0.0 0.02 0.77 0.21 0.0 0.0 0.0 0.0 0.0 0.0 0.0 0.73 0.27 0.0 0.0 0.0 0.0 0.0 0.0 0.0 0.0 0.23 0.76 0.01 0.0 0.0 0.0 0.0 0.0 0.0 0.0 0.01 0.78 0.21 0.0 0.0 0.0 0.0 0.0 0.0 0.0 0.0 0.22 0.78 0.0 0.0 0.0 0.0 0.0 0.0 0.81 0.19 0.0 0.0 0.0 0.0 0.0 0.0 0.0 0.0 0.2 0.79 0.01 0.0 0.0 0.0 0.0 0.0 0.0 0.0 0.02 0.67 0.31 0.0 0.0 0.0 0.0 0.0 0.0 0.0 0.0 0.23 0.77 0.0 0.0 0.0 0.0 0.0 0.0 0.0 0.2 0.8 0.0 0.0 0.0 0.0 0.0 0.0 0.0 0.0 0.0 0.8 0.2 0.0 0.0 0.0 0.0 0.0 0.0 0.0 0.0 0.2 0.8 0.0 0.0 0.0 0.0 0.0 0.0 0.0 0.0 0.0 0.71 0.29 0.0 0.0 0.0 0.0 0.0 0.0 0.0 0.74 0.26 0.0 0.0 0.0 0.0 0.0 0.0 0.0 0.0 0.32 0.68 0.0 0.0 0.0 0.0 0.0 0.0 0.0 0.0 0.01 0.76 0.23 0.0 0.0 0.0 0.0 0.0 0.0 0.0 0.0 0.23 0.76 0.01 0.0 0.0 0.0 0.0 0.0 0.0 0.2 0.79 0.01 0.0 0.0 0.0 0.0 0.0 0.0 0.0 0.0 0.76 0.24 0.0 0.0 0.0 0.0 0.0 0.0 0.0 0.0 0.27 0.73 0.0 0.0 0.0 0.0 0.0 0.0 0.0 0.0 0.0 0.72 0.28 0.0 0.0 0.0 0.0 0.67 0.33 0.0 0.0 0.0 0.0 0.0 0.0 0.0 0.0 0.13 0.77 0.1 0.0 0.0 0.0 0.0 0.0 0.0 0.0 0.0 0.39 0.61 0.0 0.0 0.0 0.0 0.0 0.0 0.0 0.0 0.03 0.73 0.24 0.0 0.0 0.0 0.0 0.0 0.0 0.11 0.79 0.1 0.0 0.0 0.0 0.0 0.0 0.0 0.0 0.0 0.41 0.59 0.0 0.0 0.0 0.0 0.0 0.0 0.0 0.0 0.0 0.73 0.27 0.0 0.0 0.0 0.0 0.0 0.0 0.0 0.0 0.18 0.78 0.04 0.0 0.0 0.0 0.0 0.0 0.0 0.36 0.62 0.02 0.0 0.0 0.0 0.0 0.0 0.0 0.0 0.02 0.72 0.26 0.0 0.0 0.0 0.0 0.0 0.0 0.0 0.0 0.12 0.87 0.01 0.0 0.0 0.0 0.0 0.0 0.0 0.0 0.01 0.47 0.52 0.0 0.0 0.0 0.0 0.0 0.0 0.03 0.7 0.27 0.0 0.0 0.0 0.0 0.0 0.0 0.0 0.0 0.13 0.84 0.03 0.0 0.0 0.0 0.0 0.0 0.0 0.0 0.0 0.44 0.55 0.01 0.0 0.0 0.0 0.0 0.0 0.0 0.0 0.05 0.78 0.17 0.0 0.0 0.0 0.0 0.61 0.39 0.0 0.0 0.0 0.0 0.0 0.0 0.0 0.0 0.08 0.86 0.06 0.0 0.0 0.0 0.0 0.0 0.0 0.0 0.0 0.36 0.63 0.01 0.0 0.0 0.0 0.0 0.0 0.0 0.0 0.0 0.71 0.29 0.0 0.0 0.0 0.0 0.0 0.0 0.06 0.86 0.08 0.0 0.0 0.0 0.0 0.0 0.0 0.0 0.0 0.4 0.6 0.0 0.0 0.0 0.0 0.0 0.0 0.0 0.0 0.03 0.74 0.23 0.0 0.0 0.0 0.0 0.0 0.0 0.0 0.0 0.29 0.66 0.05 0.0 0.0 0.0 0.0 0.0 0.0 0.36 0.64 0.0 0.0 0.0 0.0 0.0 0.0 0.0 0.0 0.05 0.74 0.21 0.0 0.0 0.0 0.0 0.0 0.0 0.0 0.0 0.11 0.84 0.05 0.0 0.0 0.0 0.0 0.0 0.0 0.0 0.0 0.56 0.44 0.0 0.0 0.0 0.0 0.0 0.0 0.04 0.73 0.23 0.0 0.0 0.0 0.0 0.0 0.0 0.0 0.0 0.17 0.78 0.05 0.0 0.0 0.0 0.0 0.0 0.0 0.0 0.0 0.39 0.6 0.01 0.0 0.0 0.0 0.0 0.0 0.0 0.0 0.06 0.81 0.13 0.0 0.0 0.0 0.0 0.62 0.38 0.0 0.0 0.0 0.0 0.0 0.0 0.0 0.0 0.09 0.78 0.13 0.0 0.0 0.0 0.0 0.0 0.0 0.0 0.0 0.35 0.65 0.0 0.0 0.0 0.0 0.0 0.0 0.0 0.0 0.03 0.71 0.26 0.0 0.0 0.0 0.0 0.0 0.0 0.11 0.81 0.08 0.0 0.0 0.0 0.0 0.0 0.0 0.0 0.0 0.43 0.56 0.01 0.0 0.0 0.0 0.0 0.0 0.0 0.0 0.01 0.75 0.24 0.0 0.0 0.0 0.0 0.0 0.0 0.0 0.0 0.14 0.81 0.05 0.0 0.0 0.0 0.0 0.0 0.0 0.41 0.59 0.0 0.0 0.0 0.0 0.0 0.0 0.0 0.0 0.03 0.75 0.22 0.0 0.0 0.0 0.0 0.0 0.0 0.0 0.0 0.14 0.84 0.02 0.0 0.0 0.0 0.0 0.0 0.0 0.0 0.0 0.52 0.48 0.0 0.0 0.0 0.0 0.0 0.0 0.05 0.69 0.26 0.0 0.0 0.0 0.0 0.0 0.0 0.0 0.0 0.15 0.83 0.02 0.0 0.0 0.0 0.0 0.0 0.0 0.0 0.0 0.52 0.47 0.01 0.0 0.0 0.0 0.0 0.0 0.0 0.0 0.03 0.8 0.17 0.0 0.0 0.0 0.02 0.58 0.4 0.0 0.0 0.0 0.0 0.0 0.0 0.0 0.0 0.05 0.88 0.07 0.0 0.0 0.0 0.0 0.0 0.0 0.0 0.0 0.36 0.63 0.01 0.0 0.0 0.0 0.0 0.0 0.0 0.0 0.04 0.7 0.26 0.0 0.0 0.0 0.0 0.0 0.0 0.08 0.83 0.09 0.0 0.0 0.0 0.0 0.0 0.0 0.0 0.0 0.37 0.63 0.0 0.0 0.0 0.0 0.0 0.0 0.0 0.0 0.01 0.71 0.28 0.0 0.0 0.0 0.0 0.0 0.0 0.0 0.0 0.14 0.82 0.04 0.0 0.0 0.0 0.0 0.0 0.0 0.39 0.61 0.0 0.0 0.0 0.0 0.0 0.0 0.0 0.0 0.02 0.67 0.31 0.0 0.0 0.0 0.0 0.0 0.0 0.0 0.0 0.22 0.76 0.02 0.0 0.0 0.0 0.0 0.0 0.0 0.0 0.0 0.44 0.56 0.0 0.0 0.0 0.0 0.0 0.0 0.02 0.71 0.27 0.0 0.0 0.0 0.0 0.0 0.0 0.0 0.0 0.13 0.79 0.08 0.0 0.0 0.0 0.0 0.0 0.0 0.0 0.0 0.54 0.46 0.0 0.0 0.0 0.0 0.0 0.0 0.0 0.0 0.04 0.77 0.19 0.0 0.0 0.0 0.0 0.79 0.21 0.0 0.0 0.0 0.0 0.0 0.0 0.0 0.0 0.17 0.81 0.02 0.0 0.0 0.0 0.0 0.0 0.0 0.0 0.02 0.71 0.27 0.0 0.0 0.0 0.0 0.0 0.0 0.0 0.0 0.19 0.81 0.0 0.0 0.0 0.0 0.0 0.0 0.0 0.23 0.76 0.01 0.0 0.0 0.0 0.0 0.0 0.0 0.0 0.01 0.82 0.17 0.0 0.0 0.0 0.0 0.0 0.0 0.0 0.0 0.15 0.85 0.0 0.0 0.0 0.0 0.0 0.0 0.0 0.0 0.01 0.81 0.18 0.0 0.0 0.0 0.0 0.0 0.0 0.03 0.74 0.23 0.0 0.0 0.0 0.0 0.0 0.0 0.0 0.0 0.31 0.68 0.01 0.0 0.0 0.0 0.0 0.0 0.0 0.0 0.01 0.84 0.15 0.0 0.0 0.0 0.0 0.0 0.0 0.0 0.0 0.22 0.77 0.01 0.0 0.0 0.0 0.0 0.0 0.0 0.3 0.7 0.0 0.0 0.0 0.0 0.0 0.0 0.0 0.0 0.01 0.78 0.21 0.0 0.0 0.0 0.0 0.0 0.0 0.0 0.0 0.29 0.69 0.02 0.0 0.0 0.0 0.0 0.0 0.0 0.0 0.01 0.72 0.27 0.0 0.0 0.0 0.0 0.0 0.21 0.79 0.0 0.0 0.0 0.0 0.0 0.0 0.0 0.0 0.0 0.75 0.25 0.0 0.0 0.0 0.0 0.0 0.0 0.0 0.0 0.18 0.82 0.0 0.0 0.0 0.0 0.0 0.0 0.0 0.0 0.0 0.79 0.21 0.0 0.0 0.0 0.0 0.0 0.0 0.01 0.73 0.26 0.0 0.0 0.0 0.0 0.0 0.0 0.0 0.0 0.24 0.76 0.0 0.0 0.0 0.0 0.0 0.0 0.0 0.0 0.01 0.78 0.21 0.0 0.0 0.0 0.0 0.0 0.0 0.0 0.0 0.18 0.8 0.02 0.0 0.0 0.0 0.0 0.0 0.0 0.24 0.76 0.0 0.0 0.0 0.0 0.0 0.0 0.0 0.0 0.01 0.69 0.3 0.0 0.0 0.0 0.0 0.0 0.0 0.0 0.0 0.3 0.7 0.0 0.0 0.0 0.0 0.0 0.0 0.0 0.0 0.01 0.74 0.25 0.0 0.0 0.0 0.0 0.0 0.0 0.02 0.7 0.28 0.0 0.0 0.0 0.0 0.0 0.0 0.0 0.0 0.16 0.83 0.01 0.0 0.0 0.0 0.0 0.0 0.0 0.0 0.02 0.77 0.21 0.0 0.0 0.0 0.0 0.0 0.0 0.0 0.0 0.21 0.78 0.01 0.0 0.0 0.0 0.0 0.0 0.85 0.15 0.0 0.0 0.0 0.0 0.0 0.0 0.0 0.0 0.3 0.7 0.0 0.0 0.0 0.0 0.0 0.0 0.0 0.0 0.01 0.79 0.2 0.0 0.0 0.0 0.0 0.0 0.0 0.0 0.0 0.16 0.83 0.01 0.0 0.0 0.0 0.0 0.0 0.0 0.23 0.76 0.01 0.0 0.0 0.0 0.0 0.0 0.0 0.0 0.02 0.83 0.15 0.0 0.0 0.0 0.0 0.0 0.0 0.0 0.0 0.25 0.74 0.01 0.0 0.0 0.0 0.0 0.0 0.0 0.0 0.0 0.68 0.32 0.0 0.0 0.0 0.0 0.0 0.0 0.0 0.74 0.26 0.0 0.0 0.0 0.0 0.0 0.0 0.0 0.0 0.24 0.76 0.0 0.0 0.0 0.0 0.0 0.0 0.0 0.0 0.0 0.76 0.24 0.0 0.0 0.0 0.0 0.0 0.0 0.0 0.0 0.33 0.66 0.01 0.0 0.0 0.0 0.0 0.0 0.0 0.16 0.82 0.02 0.0 0.0 0.0 0.0 0.0 0.0 0.0 0.01 0.76 0.23 0.0 0.0 0.0 0.0 0.0 0.0 0.0 0.0 0.25 0.74 0.01 0.0 0.0 0.0 0.0 0.0 0.0 0.0 0.01 0.75 0.24 0.0 0.0 0.0 0.0 0.0 0.28 0.71 0.01 0.0 0.0 0.0 0.0 0.0 0.0 0.0 0.01 0.74 0.25 0.0 0.0 0.0 0.0 0.0 0.0 0.0 0.0 0.31 0.68 0.01 0.0 0.0 0.0 0.0 0.0 0.0 0.0 0.03 0.72 0.25 0.0 0.0 0.0 0.0 0.0 0.0 0.0 0.67 0.33 0.0 0.0 0.0 0.0 0.0 0.0 0.0 0.0 0.21 0.79 0.0 0.0 0.0 0.0 0.0 0.0 0.0 0.0 0.01 0.74 0.25 0.0 0.0 0.0 0.0 0.0 0.0 0.0 0.0 0.24 0.73 0.03 0.0 0.0 0.0 0.0 0.0 0.0 0.23 0.77 0.0 0.0 0.0 0.0 0.0 0.0 0.0 0.0 0.01 0.85 0.14 0.0 0.0 0.0 0.0 0.0 0.0 0.0 0.0 0.22 0.75 0.03 0.0 0.0 0.0 0.0 0.0 0.0 0.0 0.0 0.74 0.26 0.0 0.0 0.0 0.0 0.0 0.0 0.01 0.77 0.22 0.0 0.0 0.0 0.0 0.0 0.0 0.0 0.0 0.22 0.75 0.03 0.0 0.0 0.0 0.0 0.0 0.0 0.0 0.0 0.83 0.17 0.0 0.0 0.0 0.0 0.0 0.0 0.0 0.0 0.21 0.78 0.01 0.0 0.0 0.01 0.71 0.28 0.0 0.0 0.0 0.0 0.0 0.0 0.0 0.0 0.22 0.78 0.0 0.0 0.0 0.0 0.0 0.0 0.0 0.0 0.02 0.78 0.2 0.0 0.0 0.0 0.0 0.0 0.0 0.0 0.0 0.24 0.74 0.02 0.0 0.0 0.0 0.0 0.0 0.0 0.26 0.74 0.0 0.0 0.0 0.0 0.0 0.0 0.0 0.0 0.01 0.81 0.18 0.0 0.0 0.0 0.0 0.0 0.0 0.0 0.0 0.21 0.79 0.0 0.0 0.0 0.0 0.0 0.0 0.0 0.0 0.0 0.73 0.27 0.0 0.0 0.0 0.0 0.0 0.0 0.01 0.73 0.26 0.0 0.0 0.0 0.0 0.0 0.0 0.0 0.0 0.23 0.77 0.0 0.0 0.0 0.0 0.0 0.0 0.0 0.0 0.0 0.78 0.22 0.0 0.0 0.0 0.0 0.0 0.0 0.0 0.0 0.24 0.76 0.0 0.0 0.0 0.0 0.0 0.0 0.0 0.21 0.78 0.01 0.0 0.0 0.0 0.0 0.0 0.0 0.0 0.0 0.76 0.24 0.0 0.0 0.0 0.0 0.0 0.0 0.0 0.0 0.22 0.77 0.01 0.0 0.0 0.0 0.0 0.0 0.0 0.0 0.01 0.77 0.22 0.0 0.0 0.0 0.0 0.0 0.18 0.81 0.01 0.0 0.0 0.0 0.0 0.0 0.0 0.0 0.02 0.73 0.25 0.0 0.0 0.0 0.0 0.0 0.0 0.0 0.0 0.25 0.75 0.0 0.0 0.0 0.0 0.0 0.0 0.0 0.0 0.01 0.76 0.23 0.0 0.0 0.0 0.0 0.0 0.0 0.01 0.72 0.27 0.0 0.0 0.0 0.0 0.0 0.0 0.0 0.0 0.19 0.81 0.0 0.0 0.0 0.0 0.0 0.0 0.0 0.0 0.0 0.84 0.16 0.0 0.0 0.0 0.0 0.0 0.0 0.0 0.0 0.25 0.75 0.0 0.0 0.0 0.0 0.0 0.0 0.0 0.19 0.8 0.01 0.0 0.0 0.0 0.0 0.0 0.0 0.0 0.02 0.78 0.2 0.0 0.0 0.0 0.0 0.0 0.0 0.0 0.0 0.28 0.71 0.01 0.0 0.0 0.0 0.0 0.0 0.0 0.0 0.0 0.74 0.26 0.0 0.0 0.0 0.0 0.0 0.0 0.01 0.84 0.15 0.0 0.0 0.0 0.0 0.0 0.0 0.0 0.0 0.17 0.83 0.0 0.0 0.0 0.0 0.0 0.0 0.0 0.0 0.0 0.69 0.31 0.0 0.0 0.0 0.0 0.0 0.0 0.0 0.0 0.2 0.79 0.01 0.0 0.0 0.0 0.0 0.0 0.78 0.22 0.0 0.0 0.0 0.0 0.0 0.0 0.0 0.0 0.22 0.77 0.01 0.0 0.0 0.0 0.0 0.0 0.0 0.0 0.02 0.75 0.23 0.0 0.0 0.0 0.0 0.0 0.0 0.0 0.0 0.15 0.83 0.02 0.0 0.0 0.0 0.0 0.0 0.0 0.26 0.72 0.02 0.0 0.0 0.0 0.0 0.0 0.0 0.0 0.02 0.68 0.3 0.0 0.0 0.0 0.0 0.0 0.0 0.0 0.0 0.24 0.75 0.01 0.0 0.0 0.0 0.0 0.0 0.0 0.0 0.0 0.81 0.19 0.0 0.0 0.0 0.0 0.0 0.0 0.0 0.73 0.27 0.0 0.0 0.0 0.0 0.0 0.0 0.0 0.0 0.2 0.8 0.0 0.0 0.0 0.0 0.0 0.0 0.0 0.0 0.01 0.79 0.2 0.0 0.0 0.0 0.0 0.0 0.0 0.0 0.0 0.2 0.8 0.0 0.0 0.0 0.0 0.0 0.0 0.0 0.23 0.76 0.01 0.0 0.0 0.0 0.0 0.0 0.0 0.0 0.03 0.71 0.26 0.0 0.0 0.0 0.0 0.0 0.0 0.0 0.0 0.17 0.83 0.0 0.0 0.0 0.0 0.0 0.0 0.0 0.0 0.01 0.7 0.29 0.0 0.0 0.0 0.0 0.0 0.23 0.77 0.0 0.0 0.0 0.0 0.0 0.0 0.0 0.0 0.01 0.85 0.14 0.0 0.0 0.0 0.0 0.0 0.0 0.0 0.0 0.22 0.77 0.01 0.0 0.0 0.0 0.0 0.0 0.0 0.0 0.02 0.74 0.24 0.0 0.0 0.0 0.0 0.0 0.0 0.01 0.8 0.19 0.0 0.0 0.0 0.0 0.0 0.0 0.0 0.0 0.19 0.81 0.0 0.0 0.0 0.0 0.0 0.0 0.0 0.0 0.01 0.72 0.27 0.0 0.0 0.0 0.0 0.0 0.0 0.0 0.0 0.25 0.75 0.0 0.0 0.0 0.0 0.0 0.0 0.0 0.26 0.74 0.0 0.0 0.0 0.0 0.0 0.0 0.0 0.0 0.0 0.81 0.19 0.0 0.0 0.0 0.0 0.0 0.0 0.0 0.0 0.25 0.73 0.02 0.0 0.0 0.0 0.0 0.0 0.0 0.0 0.02 0.79 0.19 0.0 0.0 0.0 0.0 0.0 0.0 0.01 0.79 0.2 0.0 0.0 0.0 0.0 0.0 0.0 0.0 0.0 0.28 0.72 0.0 0.0 0.0 0.0 0.0 0.0 0.0 0.0 0.0 0.69 0.31 0.0 0.0 0.0 0.0 0.0 0.0 0.0 0.0 0.19 0.8 0.01 0.0 0.0 0.0 0.11 0.81 0.08 0.0 0.0 0.0 0.0 0.0 0.0 0.0 0.0 0.3 0.7 0.0 0.0 0.0 0.0 0.0 0.0 0.0 0.0 0.0 0.76 0.24 0.0 0.0 0.0 0.0 0.0 0.0 0.0 0.0 0.13 0.82 0.05 0.0 0.0 0.0 0.0 0.0 0.0 0.46 0.52 0.02 0.0 0.0 0.0 0.0 0.0 0.0 0.0 0.03 0.68 0.29 0.0 0.0 0.0 0.0 0.0 0.0 0.0 0.0 0.12 0.84 0.04 0.0 0.0 0.0 0.0 0.0 0.0 0.0 0.0 0.54 0.46 0.0 0.0 0.0 0.0 0.0 0.0 0.03 0.7 0.27 0.0 0.0 0.0 0.0 0.0 0.0 0.0 0.0 0.15 0.85 0.0 0.0 0.0 0.0 0.0 0.0 0.0 0.0 0.0 0.46 0.54 0.0 0.0 0.0 0.0 0.0 0.0 0.0 0.0 0.04 0.82 0.14 0.0 0.0 0.0 0.0 0.0 0.0 0.1 0.87 0.03 0.0 0.0 0.0 0.0 0.0 0.0 0.0 0.0 0.49 0.51 0.0 0.0 0.0 0.0 0.0 0.0 0.0 0.0 0.01 0.86 0.13 0.0 0.0 0.0 0.0 0.0 0.0 0.0 0.0 0.3 0.67 0.03 0.0 0.0 0.0 0.15 0.76 0.09 0.0 0.0 0.0 0.0 0.0 0.0 0.0 0.0 0.41 0.59 0.0 0.0 0.0 0.0 0.0 0.0 0.0 0.0 0.02 0.76 0.22 0.0 0.0 0.0 0.0 0.0 0.0 0.0 0.0 0.2 0.8 0.0 0.0 0.0 0.0 0.0 0.0 0.0 0.47 0.53 0.0 0.0 0.0 0.0 0.0 0.0 0.0 0.0 0.01 0.7 0.29 0.0 0.0 0.0 0.0 0.0 0.0 0.0 0.0 0.09 0.85 0.06 0.0 0.0 0.0 0.0 0.0 0.0 0.0 0.0 0.41 0.59 0.0 0.0 0.0 0.0 0.0 0.0 0.04 0.76 0.2 0.0 0.0 0.0 0.0 0.0 0.0 0.0 0.0 0.14 0.83 0.03 0.0 0.0 0.0 0.0 0.0 0.0 0.0 0.0 0.48 0.52 0.0 0.0 0.0 0.0 0.0 0.0 0.0 0.0 0.02 0.8 0.18 0.0 0.0 0.0 0.0 0.0 0.0 0.18 0.73 0.09 0.0 0.0 0.0 0.0 0.0 0.0 0.0 0.0 0.52 0.48 0.0 0.0 0.0 0.0 0.0 0.0 0.0 0.0 0.03 0.81 0.16 0.0 0.0 0.0 0.0 0.0 0.0 0.0 0.0 0.23 0.77 0.0 0.0 0.0 0.0 0.07 0.86 0.07 0.0 0.0 0.0 0.0 0.0 0.0 0.0 0.0 0.37 0.62 0.01 0.0 0.0 0.0 0.0 0.0 0.0 0.0 0.04 0.7 0.26 0.0 0.0 0.0 0.0 0.0 0.0 0.0 0.0 0.24 0.7 0.06 0.0 0.0 0.0 0.0 0.0 0.0 0.36 0.63 0.01 0.0 0.0 0.0 0.0 0.0 0.0 0.0 0.03 0.71 0.26 0.0 0.0 0.0 0.0 0.0 0.0 0.0 0.0 0.17 0.79 0.04 0.0 0.0 0.0 0.0 0.0 0.0 0.0 0.0 0.5 0.5 0.0 0.0 0.0 0.0 0.0 0.0 0.0 0.74 0.26 0.0 0.0 0.0 0.0 0.0 0.0 0.0 0.0 0.2 0.75 0.05 0.0 0.0 0.0 0.0 0.0 0.0 0.0 0.0 0.47 0.53 0.0 0.0 0.0 0.0 0.0 0.0 0.0 0.0 0.07 0.74 0.19 0.0 0.0 0.0 0.0 0.0 0.0 0.21 0.73 0.06 0.0 0.0 0.0 0.0 0.0 0.0 0.0 0.01 0.43 0.56 0.0 0.0 0.0 0.0 0.0 0.0 0.0 0.0 0.0 0.81 0.19 0.0 0.0 0.0 0.0 0.0 0.0 0.0 0.0 0.26 0.72 0.02 0.0 0.0 0.0 0.09 0.84 0.07 0.0 0.0 0.0 0.0 0.0 0.0 0.0 0.0 0.36 0.63 0.01 0.0 0.0 0.0 0.0 0.0 0.0 0.0 0.02 0.71 0.27 0.0 0.0 0.0 0.0 0.0 0.0 0.0 0.0 0.16 0.8 0.04 0.0 0.0 0.0 0.0 0.0 0.0 0.4 0.6 0.0 0.0 0.0 0.0 0.0 0.0 0.0 0.0 0.02 0.72 0.26 0.0 0.0 0.0 0.0 0.0 0.0 0.0 0.0 0.16 0.78 0.06 0.0 0.0 0.0 0.0 0.0 0.0 0.0 0.0 0.54 0.46 0.0 0.0 0.0 0.0 0.0 0.0 0.03 0.74 0.23 0.0 0.0 0.0 0.0 0.0 0.0 0.0 0.0 0.19 0.78 0.03 0.0 0.0 0.0 0.0 0.0 0.0 0.0 0.0 0.51 0.48 0.01 0.0 0.0 0.0 0.0 0.0 0.0 0.0 0.06 0.81 0.13 0.0 0.0 0.0 0.0 0.0 0.0 0.14 0.81 0.05 0.0 0.0 0.0 0.0 0.0 0.0 0.0 0.0 0.46 0.54 0.0 0.0 0.0 0.0 0.0 0.0 0.0 0.0 0.09 0.74 0.17 0.0 0.0 0.0 0.0 0.0 0.0 0.0 0.0 0.26 0.73 0.01 0.0 0.0 0.0 0.2 0.8 0.0 0.0 0.0 0.0 0.0 0.0 0.0 0.0 0.0 0.76 0.24 0.0 0.0 0.0 0.0 0.0 0.0 0.0 0.0 0.11 0.89 0.0 0.0 0.0 0.0 0.0 0.0 0.0 0.0 0.0 0.82 0.18 0.0 0.0 0.0 0.0 0.0 0.0 0.0 0.78 0.22 0.0 0.0 0.0 0.0 0.0 0.0 0.0 0.0 0.24 0.76 0.0 0.0 0.0 0.0 0.0 0.0 0.0 0.0 0.0 0.73 0.27 0.0 0.0 0.0 0.0 0.0 0.0 0.0 0.0 0.2 0.79 0.01 0.0 0.0 0.0 0.0 0.0 0.0 0.27 0.72 0.01 0.0 0.0 0.0 0.0 0.0 0.0 0.0 0.02 0.72 0.26 0.0 0.0 0.0 0.0 0.0 0.0 0.0 0.0 0.26 0.71 0.03 0.0 0.0 0.0 0.0 0.0 0.0 0.0 0.02 0.73 0.25 0.0 0.0 0.0 0.0 0.0 0.0 0.01 0.75 0.24 0.0 0.0 0.0 0.0 0.0 0.0 0.0 0.0 0.2 0.79 0.01 0.0 0.0 0.0 0.0 0.0 0.0 0.0 0.01 0.76 0.23 0.0 0.0 0.0 0.0 0.0 0.0 0.0 0.0 0.23 0.77 0.0 0.0 0.0 0.0 0.0 0.0 0.79 0.21 0.0 0.0 0.0 0.0 0.0 0.0 0.0 0.0 0.23 0.76 0.01 0.0 0.0 0.0 0.0 0.0 0.0 0.0 0.0 0.79 0.21 0.0 0.0 0.0 0.0 0.0 0.0 0.0 0.0 0.3 0.7 0.0 0.0 0.0 0.0 0.0 0.0 0.0 0.14 0.86 0.0 0.0 0.0 0.0 0.0 0.0 0.0 0.0 0.01 0.81 0.18 0.0 0.0 0.0 0.0 0.0 0.0 0.0 0.0 0.22 0.77 0.01 0.0 0.0 0.0 0.0 0.0 0.0 0.0 0.01 0.77 0.22 0.0 0.0 0.0 0.0 0.0 0.0 0.02 0.75 0.23 0.0 0.0 0.0 0.0 0.0 0.0 0.0 0.0 0.25 0.75 0.0 0.0 0.0 0.0 0.0 0.0 0.0 0.0 0.01 0.81 0.18 0.0 0.0 0.0 0.0 0.0 0.0 0.0 0.0 0.23 0.75 0.02 0.0 0.0 0.0 0.0 0.0 0.0 0.17 0.83 0.0 0.0 0.0 0.0 0.0 0.0 0.0 0.0 0.02 0.78 0.2 0.0 0.0 0.0 0.0 0.0 0.0 0.0 0.0 0.29 0.71 0.0 0.0 0.0 0.0 0.0 0.0 0.0 0.0 0.0 0.82 0.18 0.0 0.0 0.0 0.0 0.0 0.16 0.83 0.01 0.0 0.0 0.0 0.0 0.0 0.0 0.0 0.0 0.77 0.23 0.0 0.0 0.0 0.0 0.0 0.0 0.0 0.0 0.17 0.82 0.01 0.0 0.0 0.0 0.0 0.0 0.0 0.0 0.03 0.73 0.24 0.0 0.0 0.0 0.0 0.0 0.0 0.0 0.82 0.18 0.0 0.0 0.0 0.0 0.0 0.0 0.0 0.0 0.22 0.77 0.01 0.0 0.0 0.0 0.0 0.0 0.0 0.0 0.01 0.81 0.18 0.0 0.0 0.0 0.0 0.0 0.0 0.0 0.0 0.26 0.72 0.02 0.0 0.0 0.0 0.0 0.0 0.0 0.3 0.7 0.0 0.0 0.0 0.0 0.0 0.0 0.0 0.0 0.01 0.81 0.18 0.0 0.0 0.0 0.0 0.0 0.0 0.0 0.0 0.3 0.7 0.0 0.0 0.0 0.0 0.0 0.0 0.0 0.0 0.0 0.82 0.18 0.0 0.0 0.0 0.0 0.0 0.0 0.0 0.82 0.18 0.0 0.0 0.0 0.0 0.0 0.0 0.0 0.0 0.19 0.79 0.02 0.0 0.0 0.0 0.0 0.0 0.0 0.0 0.01 0.76 0.23 0.0 0.0 0.0 0.0 0.0 0.0 0.0 0.0 0.19 0.79 0.02 0.0 0.0 0.0 0.0 0.0 0.8 0.2 0.0 0.0 0.0 0.0 0.0 0.0 0.0 0.0 0.28 0.71 0.01 0.0 0.0 0.0 0.0 0.0 0.0 0.0 0.02 0.82 0.16 0.0 0.0 0.0 0.0 0.0 0.0 0.0 0.0 0.26 0.74 0.0 0.0 0.0 0.0 0.0 0.0 0.0 0.24 0.74 0.02 0.0 0.0 0.0 0.0 0.0 0.0 0.0 0.01 0.79 0.2 0.0 0.0 0.0 0.0 0.0 0.0 0.0 0.0 0.27 0.73 0.0 0.0 0.0 0.0 0.0 0.0 0.0 0.0 0.0 0.84 0.16 0.0 0.0 0.0 0.0 0.0 0.0 0.01 0.77 0.22 0.0 0.0 0.0 0.0 0.0 0.0 0.0 0.0 0.16 0.81 0.03 0.0 0.0 0.0 0.0 0.0 0.0 0.0 0.01 0.79 0.2 0.0 0.0 0.0 0.0 0.0 0.0 0.0 0.0 0.23 0.76 0.01 0.0 0.0 0.0 0.0 0.0 0.0 0.31 0.68 0.01 0.0 0.0 0.0 0.0 0.0 0.0 0.0 0.02 0.8 0.18 0.0 0.0 0.0 0.0 0.0 0.0 0.0 0.0 0.25 0.75 0.0 0.0 0.0 0.0 0.0 0.0 0.0 0.0 0.02 0.78 0.2 0.0 0.0 0.0 0.2 0.8 0.0 0.0 0.0 0.0 0.0 0.0 0.0 0.0 0.02 0.66 0.32 0.0 0.0 0.0 0.0 0.0 0.0 0.0 0.0 0.2 0.79 0.01 0.0 0.0 0.0 0.0 0.0 0.0 0.0 0.0 0.73 0.27 0.0 0.0 0.0 0.0 0.0 0.0 0.0 0.73 0.27 0.0 0.0 0.0 0.0 0.0 0.0 0.0 0.0 0.19 0.78 0.03 0.0 0.0 0.0 0.0 0.0 0.0 0.0 0.01 0.71 0.28 0.0 0.0 0.0 0.0 0.0 0.0 0.0 0.0 0.23 0.77 0.0 0.0 0.0 0.0 0.0 0.0 0.0 0.23 0.76 0.01 0.0 0.0 0.0 0.0 0.0 0.0 0.0 0.0 0.83 0.17 0.0 0.0 0.0 0.0 0.0 0.0 0.0 0.0 0.22 0.78 0.0 0.0 0.0 0.0 0.0 0.0 0.0 0.0 0.01 0.78 0.21 0.0 0.0 0.0 0.0 0.0 0.0 0.01 0.68 0.31 0.0 0.0 0.0 0.0 0.0 0.0 0.0 0.0 0.22 0.77 0.01 0.0 0.0 0.0 0.0 0.0 0.0 0.0 0.03 0.76 0.21 0.0 0.0 0.0 0.0 0.0 0.0 0.0 0.0 0.23 0.77 0.0 0.0 0.0 0.0 0.0 0.01 0.81 0.18 0.0 0.0 0.0 0.0 0.0 0.0 0.0 0.0 0.23 0.77 0.0 0.0 0.0 0.0 0.0 0.0 0.0 0.0 0.0 0.77 0.23 0.0 0.0 0.0 0.0 0.0 0.0 0.0 0.0 0.26 0.73 0.01 0.0 0.0 0.0 0.0 0.0 0.0 0.25 0.74 0.01 0.0 0.0 0.0 0.0 0.0 0.0 0.0 0.03 0.83 0.14 0.0 0.0 0.0 0.0 0.0 0.0 0.0 0.0 0.22 0.78 0.0 0.0 0.0 0.0 0.0 0.0 0.0 0.0 0.0 0.76 0.24 0.0 0.0 0.0 0.0 0.0 0.0 0.0 0.81 0.19 0.0 0.0 0.0 0.0 0.0 0.0 0.0 0.0 0.25 0.74 0.01 0.0 0.0 0.0 0.0 0.0 0.0 0.0 0.0 0.73 0.27 0.0 0.0 0.0 0.0 0.0 0.0 0.0 0.0 0.16 0.82 0.02 0.0 0.0 0.0 0.0 0.0 0.0 0.18 0.81 0.01 0.0 0.0 0.0 0.0 0.0 0.0 0.0 0.0 0.79 0.21 0.0 0.0 0.0 0.0 0.0 0.0 0.0 0.0 0.19 0.81 0.0 0.0 0.0 0.0 0.0 0.0 0.0 0.0 0.01 0.74 0.25 0.0 0.0 0.0 0.0 0.0 0.25 0.75 0.0 0.0 0.0 0.0 0.0 0.0 0.0 0.0 0.0 0.77 0.23 0.0 0.0 0.0 0.0 0.0 0.0 0.0 0.0 0.28 0.69 0.03 0.0 0.0 0.0 0.0 0.0 0.0 0.0 0.01 0.78 0.21 0.0 0.0 0.0 0.0 0.0 0.0 0.0 0.91 0.09 0.0 0.0 0.0 0.0 0.0 0.0 0.0 0.0 0.21 0.76 0.03 0.0 0.0 0.0 0.0 0.0 0.0 0.0 0.0 0.79 0.21 0.0 0.0 0.0 0.0 0.0 0.0 0.0 0.0 0.15 0.84 0.01 0.0 0.0 0.0 0.0 0.0 0.0 0.27 0.72 0.01 0.0 0.0 0.0 0.0 0.0 0.0 0.0 0.0 0.81 0.19 0.0 0.0 0.0 0.0 0.0 0.0 0.0 0.0 0.24 0.76 0.0 0.0 0.0 0.0 0.0 0.0 0.0 0.0 0.0 0.76 0.24 0.0 0.0 0.0 0.0 0.0 0.0 0.01 0.8 0.19 0.0 0.0 0.0 0.0 0.0 0.0 0.0 0.0 0.24 0.76 0.0 0.0 0.0 0.0 0.0 0.0 0.0 0.0 0.03 0.79 0.18 0.0 0.0 0.0 0.0 0.0 0.0 0.0 0.0 0.22 0.77 0.01 0.0 0.0 0.0 0.0 0.02 0.61 0.37 0.0 0.0 0.0 0.0 0.0 0.0 0.0 0.0 0.26 0.74 0.0 0.0 0.0 0.0 0.0 0.0 0.0 0.0 0.02 0.73 0.25 0.0 0.0 0.0 0.0 0.0 0.0 0.0 0.0 0.21 0.79 0.0 0.0 0.0 0.0 0.0 0.0 0.0 0.15 0.84 0.01 0.0 0.0 0.0 0.0 0.0 0.0 0.0 0.0 0.76 0.24 0.0 0.0 0.0 0.0 0.0 0.0 0.0 0.0 0.16 0.84 0.0 0.0 0.0 0.0 0.0 0.0 0.0 0.0 0.0 0.82 0.18 0.0 0.0 0.0 0.0 0.0 0.0 0.01 0.69 0.3 0.0 0.0 0.0 0.0 0.0 0.0 0.0 0.0 0.27 0.72 0.01 0.0 0.0 0.0 0.0 0.0 0.0 0.0 0.0 0.68 0.32 0.0 0.0 0.0 0.0 0.0 0.0 0.0 0.0 0.24 0.75 0.01 0.0 0.0 0.0 0.0 0.0 0.0 0.2 0.8 0.0 0.0 0.0 0.0 0.0 0.0 0.0 0.0 0.03 0.82 0.15 0.0 0.0 0.0 0.0 0.0 0.0 0.0 0.0 0.23 0.76 0.01 0.0 0.0 0.0 0.0 0.0 0.0 0.0 0.03 0.72 0.25 0.0 0.0 0.0 0.0 0.37 0.63 0.0 0.0 0.0 0.0 0.0 0.0 0.0 0.0 0.04 0.71 0.25 0.0 0.0 0.0 0.0 0.0 0.0 0.0 0.0 0.13 0.79 0.08 0.0 0.0 0.0 0.0 0.0 0.0 0.0 0.0 0.51 0.49 0.0 0.0 0.0 0.0 0.0 0.0 0.02 0.73 0.25 0.0 0.0 0.0 0.0 0.0 0.0 0.0 0.0 0.13 0.83 0.04 0.0 0.0 0.0 0.0 0.0 0.0 0.0 0.0 0.53 0.47 0.0 0.0 0.0 0.0 0.0 0.0 0.0 0.0 0.04 0.84 0.12 0.0 0.0 0.0 0.0 0.0 0.0 0.18 0.74 0.08 0.0 0.0 0.0 0.0 0.0 0.0 0.0 0.0 0.55 0.45 0.0 0.0 0.0 0.0 0.0 0.0 0.0 0.0 0.06 0.82 0.12 0.0 0.0 0.0 0.0 0.0 0.0 0.0 0.0 0.28 0.69 0.03 0.0 0.0 0.0 0.0 0.0 0.0 0.52 0.48 0.0 0.0 0.0 0.0 0.0 0.0 0.0 0.0 0.06 0.75 0.19 0.0 0.0 0.0 0.0 0.0 0.0 0.0 0.0 0.22 0.77 0.01 0.0 0.0 0.0 0.0 0.0 0.0 0.0 0.0 0.67 0.33 0.0 0.0 0.0 0.0 0.4 0.6 0.0 0.0 0.0 0.0 0.0 0.0 0.0 0.0 0.02 0.78 0.2 0.0 0.0 0.0 0.0 0.0 0.0 0.0 0.0 0.16 0.81 0.03 0.0 0.0 0.0 0.0 0.0 0.0 0.0 0.0 0.49 0.51 0.0 0.0 0.0 0.0 0.0 0.0 0.04 0.66 0.3 0.0 0.0 0.0 0.0 0.0 0.0 0.0 0.0 0.1 0.87 0.03 0.0 0.0 0.0 0.0 0.0 0.0 0.0 0.0 0.53 0.47 0.0 0.0 0.0 0.0 0.0 0.0 0.0 0.0 0.04 0.78 0.18 0.0 0.0 0.0 0.0 0.0 0.0 0.16 0.8 0.04 0.0 0.0 0.0 0.0 0.0 0.0 0.0 0.0 0.48 0.51 0.01 0.0 0.0 0.0 0.0 0.0 0.0 0.0 0.04 0.8 0.16 0.0 0.0 0.0 0.0 0.0 0.0 0.0 0.0 0.23 0.74 0.03 0.0 0.0 0.0 0.0 0.0 0.0 0.53 0.47 0.0 0.0 0.0 0.0 0.0 0.0 0.0 0.0 0.04 0.83 0.13 0.0 0.0 0.0 0.0 0.0 0.0 0.0 0.0 0.23 0.75 0.02 0.0 0.0 0.0 0.0 0.0 0.0 0.0 0.01 0.63 0.36 0.0 0.0 0.0 0.0 0.33 0.67 0.0 0.0 0.0 0.0 0.0 0.0 0.0 0.0 0.01 0.75 0.24 0.0 0.0 0.0 0.0 0.0 0.0 0.0 0.0 0.18 0.78 0.04 0.0 0.0 0.0 0.0 0.0 0.0 0.0 0.0 0.59 0.41 0.0 0.0 0.0 0.0 0.0 0.0 0.03 0.69 0.28 0.0 0.0 0.0 0.0 0.0 0.0 0.0 0.0 0.09 0.88 0.03 0.0 0.0 0.0 0.0 0.0 0.0 0.0 0.0 0.56 0.44 0.0 0.0 0.0 0.0 0.0 0.0 0.0 0.0 0.08 0.72 0.2 0.0 0.0 0.0 0.0 0.0 0.0 0.19 0.79 0.02 0.0 0.0 0.0 0.0 0.0 0.0 0.0 0.0 0.48 0.52 0.0 0.0 0.0 0.0 0.0 0.0 0.0 0.0 0.05 0.75 0.2 0.0 0.0 0.0 0.0 0.0 0.0 0.0 0.0 0.25 0.69 0.06 0.0 0.0 0.0 0.0 0.0 0.0 0.45 0.55 0.0 0.0 0.0 0.0 0.0 0.0 0.0 0.0 0.03 0.81 0.16 0.0 0.0 0.0 0.0 0.0 0.0 0.0 0.0 0.22 0.78 0.0 0.0 0.0 0.0 0.0 0.0 0.0 0.0 0.02 0.55 0.43 0.0 0.0 0.0 0.0 0.32 0.65 0.03 0.0 0.0 0.0 0.0 0.0 0.0 0.0 0.01 0.69 0.3 0.0 0.0 0.0 0.0 0.0 0.0 0.0 0.0 0.15 0.81 0.04 0.0 0.0 0.0 0.0 0.0 0.0 0.0 0.01 0.55 0.44 0.0 0.0 0.0 0.0 0.0 0.0 0.01 0.73 0.26 0.0 0.0 0.0 0.0 0.0 0.0 0.0 0.0 0.15 0.8 0.05 0.0 0.0 0.0 0.0 0.0 0.0 0.0 0.0 0.45 0.55 0.0 0.0 0.0 0.0 0.0 0.0 0.0 0.0 0.05 0.86 0.09 0.0 0.0 0.0 0.0 0.0 0.0 0.21 0.78 0.01 0.0 0.0 0.0 0.0 0.0 0.0 0.0 0.0 0.5 0.5 0.0 0.0 0.0 0.0 0.0 0.0 0.0 0.0 0.05 0.82 0.13 0.0 0.0 0.0 0.0 0.0 0.0 0.0 0.0 0.2 0.77 0.03 0.0 0.0 0.0 0.0 0.0 0.0 0.56 0.44 0.0 0.0 0.0 0.0 0.0 0.0 0.0 0.0 0.07 0.76 0.17 0.0 0.0 0.0 0.0 0.0 0.0 0.0 0.0 0.3 0.7 0.0 0.0 0.0 0.0 0.0 0.0 0.0 0.0 0.0 0.61 0.39 0.0 0.0 0.0 0.01 0.81 0.18 0.0 0.0 0.0 0.0 0.0 0.0 0.0 0.0 0.23 0.75 0.02 0.0 0.0 0.0 0.0 0.0 0.0 0.0 0.01 0.76 0.23 0.0 0.0 0.0 0.0 0.0 0.0 0.0 0.0 0.19 0.8 0.01 0.0 0.0 0.0 0.0 0.0 0.0 0.27 0.72 0.01 0.0 0.0 0.0 0.0 0.0 0.0 0.0 0.02 0.79 0.19 0.0 0.0 0.0 0.0 0.0 0.0 0.0 0.0 0.25 0.73 0.02 0.0 0.0 0.0 0.0 0.0 0.0 0.0 0.0 0.8 0.2 0.0 0.0 0.0 0.0 0.0 0.0 0.0 0.75 0.25 0.0 0.0 0.0 0.0 0.0 0.0 0.0 0.0 0.28 0.71 0.01 0.0 0.0 0.0 0.0 0.0 0.0 0.0 0.0 0.68 0.32 0.0 0.0 0.0 0.0 0.0 0.0 0.0 0.0 0.19 0.81 0.0 0.0 0.0 0.0 0.0 0.0 0.0 0.23 0.75 0.02 0.0 0.0 0.0 0.0 0.0 0.0 0.0 0.02 0.8 0.18 0.0 0.0 0.0 0.0 0.0 0.0 0.0 0.0 0.18 0.81 0.01 0.0 0.0 0.0 0.0 0.0 0.0 0.0 0.01 0.76 0.23 0.0 0.0 0.0 0.0 0.0 0.18 0.82 0.0 0.0 0.0 0.0 0.0 0.0 0.0 0.0 0.02 0.71 0.27 0.0 0.0 0.0 0.0 0.0 0.0 0.0 0.0 0.22 0.77 0.01 0.0 0.0 0.0 0.0 0.0 0.0 0.0 0.01 0.79 0.2 0.0 0.0 0.0 0.0 0.0 0.0 0.01 0.77 0.22 0.0 0.0 0.0 0.0 0.0 0.0 0.0 0.0 0.13 0.87 0.0 0.0 0.0 0.0 0.0 0.0 0.0 0.0 0.0 0.76 0.24 0.0 0.0 0.0 0.0 0.0 0.0 0.0 0.0 0.3 0.7 0.0 0.0 0.0 0.0 0.0 0.0 0.0 0.19 0.8 0.01 0.0 0.0 0.0 0.0 0.0 0.0 0.0 0.0 0.83 0.17 0.0 0.0 0.0 0.0 0.0 0.0 0.0 0.0 0.19 0.81 0.0 0.0 0.0 0.0 0.0 0.0 0.0 0.0 0.0 0.75 0.25 0.0 0.0 0.0 0.0 0.0 0.0 0.02 0.75 0.23 0.0 0.0 0.0 0.0 0.0 0.0 0.0 0.0 0.26 0.73 0.01 0.0 0.0 0.0 0.0 0.0 0.0 0.0 0.0 0.77 0.23 0.0 0.0 0.0 0.0 0.0 0.0 0.0 0.0 0.27 0.73 0.0 0.0 0.0 0.0 0.0 0.01 0.76 0.23 0.0 0.0 0.0 0.0 0.0 0.0 0.0 0.0 0.26 0.74 0.0 0.0 0.0 0.0 0.0 0.0 0.0 0.0 0.01 0.74 0.25 0.0 0.0 0.0 0.0 0.0 0.0 0.0 0.0 0.22 0.77 0.01 0.0 0.0 0.0 0.0 0.0 0.0 0.25 0.75 0.0 0.0 0.0 0.0 0.0 0.0 0.0 0.0 0.01 0.81 0.18 0.0 0.0 0.0 0.0 0.0 0.0 0.0 0.0 0.24 0.75 0.01 0.0 0.0 0.0 0.0 0.0 0.0 0.0 0.01 0.8 0.19 0.0 0.0 0.0 0.0 0.0 0.0 0.0 0.8 0.2 0.0 0.0 0.0 0.0 0.0 0.0 0.0 0.0 0.23 0.76 0.01 0.0 0.0 0.0 0.0 0.0 0.0 0.0 0.01 0.78 0.21 0.0 0.0 0.0 0.0 0.0 0.0 0.0 0.0 0.18 0.79 0.03 0.0 0.0 0.0 0.0 0.0 0.0 0.21 0.79 0.0 0.0 0.0 0.0 0.0 0.0 0.0 0.0 0.0 0.8 0.2 0.0 0.0 0.0 0.0 0.0 0.0 0.0 0.0 0.2 0.8 0.0 0.0 0.0 0.0 0.0 0.0 0.0 0.0 0.0 0.8 0.2 0.0 0.0 0.0 0.0 0.0 0.26 0.74 0.0 0.0 0.0 0.0 0.0 0.0 0.0 0.0 0.01 0.78 0.21 0.0 0.0 0.0 0.0 0.0 0.0 0.0 0.0 0.29 0.71 0.0 0.0 0.0 0.0 0.0 0.0 0.0 0.0 0.02 0.74 0.24 0.0 0.0 0.0 0.0 0.0 0.0 0.01 0.79 0.2 0.0 0.0 0.0 0.0 0.0 0.0 0.0 0.0 0.2 0.8 0.0 0.0 0.0 0.0 0.0 0.0 0.0 0.0 0.0 0.76 0.24 0.0 0.0 0.0 0.0 0.0 0.0 0.0 0.0 0.21 0.79 0.0 0.0 0.0 0.0 0.0 0.0 0.0 0.15 0.84 0.01 0.0 0.0 0.0 0.0 0.0 0.0 0.0 0.01 0.73 0.26 0.0 0.0 0.0 0.0 0.0 0.0 0.0 0.0 0.24 0.75 0.01 0.0 0.0 0.0 0.0 0.0 0.0 0.0 0.01 0.77 0.22 0.0 0.0 0.0 0.0 0.0 0.0 0.0 0.78 0.22 0.0 0.0 0.0 0.0 0.0 0.0 0.0 0.0 0.28 0.72 0.0 0.0 0.0 0.0 0.0 0.0 0.0 0.0 0.01 0.69 0.3 0.0 0.0 0.0 0.0 0.0 0.0 0.0 0.0 0.18 0.82 0.0 0.0 0.0 0.0 0.77 0.23 0.0 0.0 0.0 0.0 0.0 0.0 0.0 0.0 0.2 0.77 0.03 0.0 0.0 0.0 0.0 0.0 0.0 0.0 0.03 0.78 0.19 0.0 0.0 0.0 0.0 0.0 0.0 0.0 0.0 0.25 0.74 0.01 0.0 0.0 0.0 0.0 0.0 0.0 0.24 0.75 0.01 0.0 0.0 0.0 0.0 0.0 0.0 0.0 0.01 0.72 0.27 0.0 0.0 0.0 0.0 0.0 0.0 0.0 0.0 0.25 0.74 0.01 0.0 0.0 0.0 0.0 0.0 0.0 0.0 0.02 0.75 0.23 0.0 0.0 0.0 0.0 0.0 0.0 0.01 0.77 0.22 0.0 0.0 0.0 0.0 0.0 0.0 0.0 0.0 0.26 0.73 0.01 0.0 0.0 0.0 0.0 0.0 0.0 0.0 0.01 0.79 0.2 0.0 0.0 0.0 0.0 0.0 0.0 0.0 0.0 0.27 0.72 0.01 0.0 0.0 0.0 0.0 0.0 0.0 0.23 0.76 0.01 0.0 0.0 0.0 0.0 0.0 0.0 0.0 0.03 0.73 0.24 0.0 0.0 0.0 0.0 0.0 0.0 0.0 0.0 0.27 0.72 0.01 0.0 0.0 0.0 0.0 0.0 0.0 0.0 0.01 0.79 0.2 0.0 0.0 0.0 0.0 0.0 0.2 0.8 0.0 0.0 0.0 0.0 0.0 0.0 0.0 0.0 0.01 0.79 0.2 0.0 0.0 0.0 0.0 0.0 0.0 0.0 0.0 0.24 0.75 0.01 0.0 0.0 0.0 0.0 0.0 0.0 0.0 0.0 0.74 0.26 0.0 0.0 0.0 0.0 0.0 0.0 0.01 0.76 0.23 0.0 0.0 0.0 0.0 0.0 0.0 0.0 0.0 0.29 0.71 0.0 0.0 0.0 0.0 0.0 0.0 0.0 0.0 0.01 0.77 0.22 0.0 0.0 0.0 0.0 0.0 0.0 0.0 0.0 0.25 0.75 0.0 0.0 0.0 0.0 0.0 0.0 0.0 0.27 0.71 0.02 0.0 0.0 0.0 0.0 0.0 0.0 0.0 0.0 0.69 0.31 0.0 0.0 0.0 0.0 0.0 0.0 0.0 0.0 0.24 0.73 0.03 0.0 0.0 0.0 0.0 0.0 0.0 0.0 0.01 0.72 0.27 0.0 0.0 0.0 0.0 0.0 0.0 0.02 0.81 0.17 0.0 0.0 0.0 0.0 0.0 0.0 0.0 0.0 0.24 0.75 0.01 0.0 0.0 0.0 0.0 0.0 0.0 0.0 0.0 0.81 0.19 0.0 0.0 0.0 0.0 0.0 0.0 0.0 0.0 0.17 0.82 0.01 0.0 0.0 0.0 0.0 0.01 0.77 0.22 0.0 0.0 0.0 0.0 0.0 0.0 0.0 0.0 0.22 0.78 0.0 0.0 0.0 0.0 0.0 0.0 0.0 0.0 0.01 0.75 0.24 0.0 0.0 0.0 0.0 0.0 0.0 0.0 0.0 0.28 0.7 0.02 0.0 0.0 0.0 0.0 0.0 0.0 0.16 0.81 0.03 0.0 0.0 0.0 0.0 0.0 0.0 0.0 0.02 0.78 0.2 0.0 0.0 0.0 0.0 0.0 0.0 0.0 0.0 0.23 0.75 0.02 0.0 0.0 0.0 0.0 0.0 0.0 0.0 0.0 0.79 0.21 0.0 0.0 0.0 0.0 0.0 0.0 0.01 0.72 0.27 0.0 0.0 0.0 0.0 0.0 0.0 0.0 0.0 0.18 0.82 0.0 0.0 0.0 0.0 0.0 0.0 0.0 0.0 0.01 0.8 0.19 0.0 0.0 0.0 0.0 0.0 0.0 0.0 0.0 0.14 0.86 0.0 0.0 0.0 0.0 0.0 0.0 0.0 0.31 0.67 0.02 0.0 0.0 0.0 0.0 0.0 0.0 0.0 0.0 0.79 0.21 0.0 0.0 0.0 0.0 0.0 0.0 0.0 0.0 0.17 0.82 0.01 0.0 0.0 0.0 0.0 0.0 0.0 0.0 0.01 0.79 0.2 0.0 0.0 0.0 0.0 0.0 0.25 0.75 0.0 0.0 0.0 0.0 0.0 0.0 0.0 0.0 0.0 0.8 0.2 0.0 0.0 0.0 0.0 0.0 0.0 0.0 0.0 0.23 0.75 0.02 0.0 0.0 0.0 0.0 0.0 0.0 0.0 0.01 0.8 0.19 0.0 0.0 0.0 0.0 0.0 0.0 0.03 0.69 0.28 0.0 0.0 0.0 0.0 0.0 0.0 0.0 0.0 0.36 0.63 0.01 0.0 0.0 0.0 0.0 0.0 0.0 0.0 0.01 0.77 0.22 0.0 0.0 0.0 0.0 0.0 0.0 0.0 0.0 0.28 0.71 0.01 0.0 0.0 0.0 0.0 0.0 0.0 0.22 0.78 0.0 0.0 0.0 0.0 0.0 0.0 0.0 0.0 0.01 0.77 0.22 0.0 0.0 0.0 0.0 0.0 0.0 0.0 0.0 0.32 0.66 0.02 0.0 0.0 0.0 0.0 0.0 0.0 0.0 0.01 0.74 0.25 0.0 0.0 0.0 0.0 0.0 0.0 0.0 0.74 0.26 0.0 0.0 0.0 0.0 0.0 0.0 0.0 0.0 0.26 0.7 0.04 0.0 0.0 0.0 0.0 0.0 0.0 0.0 0.0 0.77 0.23 0.0 0.0 0.0 0.0 0.0 0.0 0.0 0.0 0.21 0.78 0.01 0.0 0.0 0.61 0.39 0.0 0.0 0.0 0.0 0.0 0.0 0.0 0.0 0.11 0.84 0.05 0.0 0.0 0.0 0.0 0.0 0.0 0.0 0.0 0.28 0.71 0.01 0.0 0.0 0.0 0.0 0.0 0.0 0.0 0.04 0.75 0.21 0.0 0.0 0.0 0.0 0.0 0.0 0.08 0.79 0.13 0.0 0.0 0.0 0.0 0.0 0.0 0.0 0.0 0.44 0.55 0.01 0.0 0.0 0.0 0.0 0.0 0.0 0.0 0.05 0.73 0.22 0.0 0.0 0.0 0.0 0.0 0.0 0.0 0.0 0.18 0.75 0.07 0.0 0.0 0.0 0.0 0.0 0.0 0.33 0.67 0.0 0.0 0.0 0.0 0.0 0.0 0.0 0.0 0.01 0.75 0.24 0.0 0.0 0.0 0.0 0.0 0.0 0.0 0.0 0.13 0.81 0.06 0.0 0.0 0.0 0.0 0.0 0.0 0.0 0.0 0.4 0.6 0.0 0.0 0.0 0.0 0.0 0.0 0.01 0.73 0.26 0.0 0.0 0.0 0.0 0.0 0.0 0.0 0.0 0.15 0.82 0.03 0.0 0.0 0.0 0.0 0.0 0.0 0.0 0.0 0.43 0.57 0.0 0.0 0.0 0.0 0.0 0.0 0.0 0.0 0.02 0.82 0.16 0.0 0.0 0.0 0.0 0.65 0.35 0.0 0.0 0.0 0.0 0.0 0.0 0.0 0.0 0.07 0.85 0.08 0.0 0.0 0.0 0.0 0.0 0.0 0.0 0.0 0.36 0.64 0.0 0.0 0.0 0.0 0.0 0.0 0.0 0.0 0.02 0.68 0.3 0.0 0.0 0.0 0.0 0.0 0.0 0.09 0.85 0.06 0.0 0.0 0.0 0.0 0.0 0.0 0.0 0.0 0.37 0.62 0.01 0.0 0.0 0.0 0.0 0.0 0.0 0.0 0.0 0.79 0.21 0.0 0.0 0.0 0.0 0.0 0.0 0.0 0.0 0.19 0.79 0.02 0.0 0.0 0.0 0.0 0.0 0.0 0.39 0.61 0.0 0.0 0.0 0.0 0.0 0.0 0.0 0.0 0.02 0.73 0.25 0.0 0.0 0.0 0.0 0.0 0.0 0.0 0.0 0.14 0.82 0.04 0.0 0.0 0.0 0.0 0.0 0.0 0.0 0.0 0.48 0.52 0.0 0.0 0.0 0.0 0.0 0.0 0.02 0.76 0.22 0.0 0.0 0.0 0.0 0.0 0.0 0.0 0.0 0.19 0.76 0.05 0.0 0.0 0.0 0.0 0.0 0.0 0.0 0.0 0.44 0.56 0.0 0.0 0.0 0.0 0.0 0.0 0.0 0.0 0.01 0.88 0.11 0.0 0.0 0.0 0.0 0.64 0.36 0.0 0.0 0.0 0.0 0.0 0.0 0.0 0.0 0.1 0.82 0.08 0.0 0.0 0.0 0.0 0.0 0.0 0.0 0.0 0.42 0.57 0.01 0.0 0.0 0.0 0.0 0.0 0.0 0.0 0.01 0.79 0.2 0.0 0.0 0.0 0.0 0.0 0.0 0.07 0.89 0.04 0.0 0.0 0.0 0.0 0.0 0.0 0.0 0.0 0.39 0.61 0.0 0.0 0.0 0.0 0.0 0.0 0.0 0.0 0.03 0.68 0.29 0.0 0.0 0.0 0.0 0.0 0.0 0.0 0.0 0.12 0.85 0.03 0.0 0.0 0.0 0.0 0.0 0.0 0.31 0.68 0.01 0.0 0.0 0.0 0.0 0.0 0.0 0.0 0.0 0.8 0.2 0.0 0.0 0.0 0.0 0.0 0.0 0.0 0.0 0.13 0.84 0.03 0.0 0.0 0.0 0.0 0.0 0.0 0.0 0.0 0.56 0.44 0.0 0.0 0.0 0.0 0.0 0.0 0.02 0.71 0.27 0.0 0.0 0.0 0.0 0.0 0.0 0.0 0.0 0.2 0.75 0.05 0.0 0.0 0.0 0.0 0.0 0.0 0.0 0.0 0.49 0.51 0.0 0.0 0.0 0.0 0.0 0.0 0.0 0.0 0.07 0.75 0.18 0.0 0.0 0.0 0.0 0.72 0.28 0.0 0.0 0.0 0.0 0.0 0.0 0.0 0.0 0.1 0.85 0.05 0.0 0.0 0.0 0.0 0.0 0.0 0.0 0.0 0.35 0.65 0.0 0.0 0.0 0.0 0.0 0.0 0.0 0.0 0.01 0.7 0.29 0.0 0.0 0.0 0.0 0.0 0.0 0.09 0.84 0.07 0.0 0.0 0.0 0.0 0.0 0.0 0.0 0.0 0.36 0.64 0.0 0.0 0.0 0.0 0.0 0.0 0.0 0.0 0.02 0.75 0.23 0.0 0.0 0.0 0.0 0.0 0.0 0.0 0.0 0.2 0.78 0.02 0.0 0.0 0.0 0.0 0.0 0.0 0.36 0.63 0.01 0.0 0.0 0.0 0.0 0.0 0.0 0.0 0.02 0.67 0.31 0.0 0.0 0.0 0.0 0.0 0.0 0.0 0.0 0.18 0.76 0.06 0.0 0.0 0.0 0.0 0.0 0.0 0.0 0.0 0.45 0.55 0.0 0.0 0.0 0.0 0.0 0.0 0.0 0.74 0.26 0.0 0.0 0.0 0.0 0.0 0.0 0.0 0.0 0.21 0.76 0.03 0.0 0.0 0.0 0.0 0.0 0.0 0.0 0.0 0.6 0.39 0.01 0.0 0.0 0.0 0.0 0.0 0.0 0.0 0.04 0.8 0.16 0.0 0.0 0.0 0.0 0.82 0.18 0.0 0.0 0.0 0.0 0.0 0.0 0.0 0.0 0.21 0.79 0.0 0.0 0.0 0.0 0.0 0.0 0.0 0.0 0.0 0.78 0.22 0.0 0.0 0.0 0.0 0.0 0.0 0.0 0.0 0.2 0.79 0.01 0.0 0.0 0.0 0.0 0.0 0.0 0.18 0.81 0.01 0.0 0.0 0.0 0.0 0.0 0.0 0.0 0.01 0.79 0.2 0.0 0.0 0.0 0.0 0.0 0.0 0.0 0.0 0.21 0.78 0.01 0.0 0.0 0.0 0.0 0.0 0.0 0.0 0.02 0.72 0.26 0.0 0.0 0.0 0.0 0.0 0.0 0.01 0.7 0.29 0.0 0.0 0.0 0.0 0.0 0.0 0.0 0.0 0.21 0.78 0.01 0.0 0.0 0.0 0.0 0.0 0.0 0.0 0.0 0.76 0.24 0.0 0.0 0.0 0.0 0.0 0.0 0.0 0.0 0.28 0.72 0.0 0.0 0.0 0.0 0.0 0.0 0.0 0.23 0.76 0.01 0.0 0.0 0.0 0.0 0.0 0.0 0.0 0.0 0.82 0.18 0.0 0.0 0.0 0.0 0.0 0.0 0.0 0.0 0.22 0.78 0.0 0.0 0.0 0.0 0.0 0.0 0.0 0.0 0.01 0.83 0.16 0.0 0.0 0.0 0.0 0.0 0.21 0.77 0.02 0.0 0.0 0.0 0.0 0.0 0.0 0.0 0.0 0.73 0.27 0.0 0.0 0.0 0.0 0.0 0.0 0.0 0.0 0.25 0.75 0.0 0.0 0.0 0.0 0.0 0.0 0.0 0.0 0.0 0.8 0.2 0.0 0.0 0.0 0.0 0.0 0.0 0.0 0.73 0.27 0.0 0.0 0.0 0.0 0.0 0.0 0.0 0.0 0.18 0.82 0.0 0.0 0.0 0.0 0.0 0.0 0.0 0.0 0.0 0.9 0.1 0.0 0.0 0.0 0.0 0.0 0.0 0.0 0.0 0.17 0.82 0.01 0.0 0.0 0.0 0.0 0.0 0.0 0.28 0.72 0.0 0.0 0.0 0.0 0.0 0.0 0.0 0.0 0.01 0.75 0.24 0.0 0.0 0.0 0.0 0.0 0.0 0.0 0.0 0.29 0.7 0.01 0.0 0.0 0.0 0.0 0.0 0.0 0.0 0.0 0.85 0.15 0.0 0.0 0.0 0.0 0.0 0.0 0.0 0.81 0.19 0.0 0.0 0.0 0.0 0.0 0.0 0.0 0.0 0.21 0.77 0.02 0.0 0.0 0.0 0.0 0.0 0.0 0.0 0.01 0.75 0.24 0.0 0.0 0.0 0.0 0.0 0.0 0.0 0.0 0.2 0.79 0.01 0.0 0.0 0.0 0.0 0.03 0.7 0.27 0.0 0.0 0.0 0.0 0.0 0.0 0.0 0.0 0.27 0.73 0.0 0.0 0.0 0.0 0.0 0.0 0.0 0.0 0.01 0.84 0.15 0.0 0.0 0.0 0.0 0.0 0.0 0.0 0.0 0.22 0.77 0.01 0.0 0.0 0.0 0.0 0.0 0.0 0.21 0.79 0.0 0.0 0.0 0.0 0.0 0.0 0.0 0.0 0.0 0.79 0.21 0.0 0.0 0.0 0.0 0.0 0.0 0.0 0.0 0.22 0.76 0.02 0.0 0.0 0.0 0.0 0.0 0.0 0.0 0.0 0.8 0.2 0.0 0.0 0.0 0.0 0.0 0.0 0.0 0.83 0.17 0.0 0.0 0.0 0.0 0.0 0.0 0.0 0.0 0.18 0.8 0.02 0.0 0.0 0.0 0.0 0.0 0.0 0.0 0.0 0.75 0.25 0.0 0.0 0.0 0.0 0.0 0.0 0.0 0.0 0.22 0.78 0.0 0.0 0.0 0.0 0.0 0.0 0.0 0.19 0.81 0.0 0.0 0.0 0.0 0.0 0.0 0.0 0.0 0.01 0.78 0.21 0.0 0.0 0.0 0.0 0.0 0.0 0.0 0.0 0.32 0.67 0.01 0.0 0.0 0.0 0.0 0.0 0.0 0.0 0.0 0.76 0.24 0.0 0.0 0.0 0.0 0.0 0.24 0.76 0.0 0.0 0.0 0.0 0.0 0.0 0.0 0.0 0.01 0.77 0.22 0.0 0.0 0.0 0.0 0.0 0.0 0.0 0.0 0.2 0.79 0.01 0.0 0.0 0.0 0.0 0.0 0.0 0.0 0.01 0.85 0.14 0.0 0.0 0.0 0.0 0.0 0.0 0.0 0.79 0.21 0.0 0.0 0.0 0.0 0.0 0.0 0.0 0.0 0.26 0.74 0.0 0.0 0.0 0.0 0.0 0.0 0.0 0.0 0.0 0.86 0.14 0.0 0.0 0.0 0.0 0.0 0.0 0.0 0.0 0.21 0.76 0.03 0.0 0.0 0.0 0.0 0.0 0.0 0.19 0.8 0.01 0.0 0.0 0.0 0.0 0.0 0.0 0.0 0.01 0.74 0.25 0.0 0.0 0.0 0.0 0.0 0.0 0.0 0.0 0.23 0.77 0.0 0.0 0.0 0.0 0.0 0.0 0.0 0.0 0.0 0.87 0.13 0.0 0.0 0.0 0.0 0.0 0.0 0.01 0.81 0.18 0.0 0.0 0.0 0.0 0.0 0.0 0.0 0.0 0.2 0.79 0.01 0.0 0.0 0.0 0.0 0.0 0.0 0.0 0.0 0.81 0.19 0.0 0.0 0.0 0.0 0.0 0.0 0.0 0.0 0.27 0.72 0.01 0.0 0.0 0.02 0.77 0.21 0.0 0.0 0.0 0.0 0.0 0.0 0.0 0.0 0.23 0.77 0.0 0.0 0.0 0.0 0.0 0.0 0.0 0.0 0.01 0.77 0.22 0.0 0.0 0.0 0.0 0.0 0.0 0.0 0.0 0.25 0.73 0.02 0.0 0.0 0.0 0.0 0.0 0.0 0.23 0.76 0.01 0.0 0.0 0.0 0.0 0.0 0.0 0.0 0.0 0.71 0.29 0.0 0.0 0.0 0.0 0.0 0.0 0.0 0.0 0.28 0.72 0.0 0.0 0.0 0.0 0.0 0.0 0.0 0.0 0.0 0.77 0.23 0.0 0.0 0.0 0.0 0.0 0.0 0.0 0.78 0.22 0.0 0.0 0.0 0.0 0.0 0.0 0.0 0.0 0.17 0.82 0.01 0.0 0.0 0.0 0.0 0.0 0.0 0.0 0.0 0.83 0.17 0.0 0.0 0.0 0.0 0.0 0.0 0.0 0.0 0.3 0.69 0.01 0.0 0.0 0.0 0.0 0.0 0.0 0.22 0.77 0.01 0.0 0.0 0.0 0.0 0.0 0.0 0.0 0.02 0.78 0.2 0.0 0.0 0.0 0.0 0.0 0.0 0.0 0.0 0.22 0.77 0.01 0.0 0.0 0.0 0.0 0.0 0.0 0.0 0.01 0.78 0.21 0.0 0.0 0.0 0.0 0.0 0.2 0.78 0.02 0.0 0.0 0.0 0.0 0.0 0.0 0.0 0.0 0.7 0.3 0.0 0.0 0.0 0.0 0.0 0.0 0.0 0.0 0.21 0.79 0.0 0.0 0.0 0.0 0.0 0.0 0.0 0.0 0.0 0.81 0.19 0.0 0.0 0.0 0.0 0.0 0.0 0.03 0.81 0.16 0.0 0.0 0.0 0.0 0.0 0.0 0.0 0.0 0.2 0.78 0.02 0.0 0.0 0.0 0.0 0.0 0.0 0.0 0.0 0.75 0.25 0.0 0.0 0.0 0.0 0.0 0.0 0.0 0.0 0.28 0.71 0.01 0.0 0.0 0.0 0.0 0.0 0.0 0.2 0.79 0.01 0.0 0.0 0.0 0.0 0.0 0.0 0.0 0.02 0.72 0.26 0.0 0.0 0.0 0.0 0.0 0.0 0.0 0.0 0.16 0.84 0.0 0.0 0.0 0.0 0.0 0.0 0.0 0.0 0.01 0.84 0.15 0.0 0.0 0.0 0.0 0.0 0.0 0.01 0.8 0.19 0.0 0.0 0.0 0.0 0.0 0.0 0.0 0.0 0.29 0.71 0.0 0.0 0.0 0.0 0.0 0.0 0.0 0.0 0.0 0.78 0.22 0.0 0.0 0.0 0.0 0.0 0.0 0.0 0.0 0.23 0.77 0.0 0.0 0.0 0.0 0.0 0.0 0.79 0.21 0.0 0.0 0.0 0.0 0.0 0.0 0.0 0.0 0.23 0.76 0.01 0.0 0.0 0.0 0.0 0.0 0.0 0.0 0.0 0.76 0.24 0.0 0.0 0.0 0.0 0.0 0.0 0.0 0.0 0.19 0.81 0.0 0.0 0.0 0.0 0.0 0.0 0.0 0.21 0.78 0.01 0.0 0.0 0.0 0.0 0.0 0.0 0.0 0.01 0.76 0.23 0.0 0.0 0.0 0.0 0.0 0.0 0.0 0.0 0.2 0.79 0.01 0.0 0.0 0.0 0.0 0.0 0.0 0.0 0.04 0.73 0.23 0.0 0.0 0.0 0.0 0.0 0.0 0.01 0.78 0.21 0.0 0.0 0.0 0.0 0.0 0.0 0.0 0.0 0.27 0.72 0.01 0.0 0.0 0.0 0.0 0.0 0.0 0.0 0.0 0.83 0.17 0.0 0.0 0.0 0.0 0.0 0.0 0.0 0.0 0.2 0.8 0.0 0.0 0.0 0.0 0.0 0.0 0.0 0.14 0.86 0.0 0.0 0.0 0.0 0.0 0.0 0.0 0.0 0.0 0.83 0.17 0.0 0.0 0.0 0.0 0.0 0.0 0.0 0.0 0.18 0.81 0.01 0.0 0.0 0.0 0.0 0.0 0.0 0.0 0.0 0.8 0.2 0.0 0.0 0.0 0.0 0.0 0.25 0.75 0.0 0.0 0.0 0.0 0.0 0.0 0.0 0.0 0.0 0.8 0.2 0.0 0.0 0.0 0.0 0.0 0.0 0.0 0.0 0.2 0.8 0.0 0.0 0.0 0.0 0.0 0.0 0.0 0.0 0.0 0.68 0.32 0.0 0.0 0.0 0.0 0.0 0.0 0.01 0.8 0.19 0.0 0.0 0.0 0.0 0.0 0.0 0.0 0.0 0.2 0.78 0.02 0.0 0.0 0.0 0.0 0.0 0.0 0.0 0.01 0.75 0.24 0.0 0.0 0.0 0.0 0.0 0.0 0.0 0.0 0.18 0.8 0.02 0.0 0.0 0.0 0.0 0.0 0.0 0.27 0.71 0.02 0.0 0.0 0.0 0.0 0.0 0.0 0.0 0.01 0.73 0.26 0.0 0.0 0.0 0.0 0.0 0.0 0.0 0.0 0.25 0.75 0.0 0.0 0.0 0.0 0.0 0.0 0.0 0.0 0.01 0.72 0.27 0.0 0.0 0.0 0.0 0.0 0.0 0.0 0.8 0.2 0.0 0.0 0.0 0.0 0.0 0.0 0.0 0.0 0.24 0.74 0.02 0.0 0.0 0.0 0.0 0.0 0.0 0.0 0.0 0.86 0.14 0.0 0.0 0.0 0.0 0.0 0.0 0.0 0.0 0.27 0.72 0.01 0.0 0.0 0.0 0.13 0.79 0.08 0.0 0.0 0.0 0.0 0.0 0.0 0.0 0.0 0.29 0.7 0.01 0.0 0.0 0.0 0.0 0.0 0.0 0.0 0.02 0.74 0.24 0.0 0.0 0.0 0.0 0.0 0.0 0.0 0.0 0.16 0.8 0.04 0.0 0.0 0.0 0.0 0.0 0.0 0.35 0.63 0.02 0.0 0.0 0.0 0.0 0.0 0.0 0.0 0.01 0.71 0.28 0.0 0.0 0.0 0.0 0.0 0.0 0.0 0.0 0.13 0.85 0.02 0.0 0.0 0.0 0.0 0.0 0.0 0.0 0.0 0.48 0.52 0.0 0.0 0.0 0.0 0.0 0.0 0.0 0.74 0.26 0.0 0.0 0.0 0.0 0.0 0.0 0.0 0.0 0.12 0.85 0.03 0.0 0.0 0.0 0.0 0.0 0.0 0.0 0.0 0.46 0.54 0.0 0.0 0.0 0.0 0.0 0.0 0.0 0.0 0.03 0.8 0.17 0.0 0.0 0.0 0.0 0.0 0.0 0.18 0.76 0.06 0.0 0.0 0.0 0.0 0.0 0.0 0.0 0.0 0.51 0.48 0.01 0.0 0.0 0.0 0.0 0.0 0.0 0.0 0.04 0.82 0.14 0.0 0.0 0.0 0.0 0.0 0.0 0.0 0.0 0.31 0.69 0.0 0.0 0.0 0.0 0.11 0.79 0.1 0.0 0.0 0.0 0.0 0.0 0.0 0.0 0.0 0.31 0.69 0.0 0.0 0.0 0.0 0.0 0.0 0.0 0.0 0.02 0.73 0.25 0.0 0.0 0.0 0.0 0.0 0.0 0.0 0.0 0.15 0.8 0.05 0.0 0.0 0.0 0.0 0.0 0.0 0.42 0.58 0.0 0.0 0.0 0.0 0.0 0.0 0.0 0.0 0.0 0.8 0.2 0.0 0.0 0.0 0.0 0.0 0.0 0.0 0.0 0.14 0.81 0.05 0.0 0.0 0.0 0.0 0.0 0.0 0.0 0.0 0.51 0.49 0.0 0.0 0.0 0.0 0.0 0.0 0.0 0.72 0.28 0.0 0.0 0.0 0.0 0.0 0.0 0.0 0.0 0.18 0.79 0.03 0.0 0.0 0.0 0.0 0.0 0.0 0.0 0.0 0.55 0.45 0.0 0.0 0.0 0.0 0.0 0.0 0.0 0.0 0.05 0.81 0.14 0.0 0.0 0.0 0.0 0.0 0.0 0.17 0.81 0.02 0.0 0.0 0.0 0.0 0.0 0.0 0.0 0.01 0.47 0.52 0.0 0.0 0.0 0.0 0.0 0.0 0.0 0.0 0.03 0.83 0.14 0.0 0.0 0.0 0.0 0.0 0.0 0.0 0.0 0.32 0.68 0.0 0.0 0.0 0.0 0.14 0.81 0.05 0.0 0.0 0.0 0.0 0.0 0.0 0.0 0.0 0.37 0.63 0.0 0.0 0.0 0.0 0.0 0.0 0.0 0.0 0.01 0.77 0.22 0.0 0.0 0.0 0.0 0.0 0.0 0.0 0.0 0.09 0.89 0.02 0.0 0.0 0.0 0.0 0.0 0.0 0.42 0.57 0.01 0.0 0.0 0.0 0.0 0.0 0.0 0.0 0.01 0.67 0.32 0.0 0.0 0.0 0.0 0.0 0.0 0.0 0.0 0.2 0.74 0.06 0.0 0.0 0.0 0.0 0.0 0.0 0.0 0.0 0.58 0.42 0.0 0.0 0.0 0.0 0.0 0.0 0.03 0.68 0.29 0.0 0.0 0.0 0.0 0.0 0.0 0.0 0.0 0.15 0.8 0.05 0.0 0.0 0.0 0.0 0.0 0.0 0.0 0.0 0.58 0.42 0.0 0.0 0.0 0.0 0.0 0.0 0.0 0.0 0.05 0.82 0.13 0.0 0.0 0.0 0.0 0.0 0.0 0.24 0.75 0.01 0.0 0.0 0.0 0.0 0.0 0.0 0.0 0.0 0.43 0.57 0.0 0.0 0.0 0.0 0.0 0.0 0.0 0.0 0.04 0.76 0.2 0.0 0.0 0.0 0.0 0.0 0.0 0.0 0.0 0.25 0.74 0.01 0.0 0.0 0.0 0.1 0.78 0.12 0.0 0.0 0.0 0.0 0.0 0.0 0.0 0.0 0.36 0.62 0.02 0.0 0.0 0.0 0.0 0.0 0.0 0.0 0.01 0.81 0.18 0.0 0.0 0.0 0.0 0.0 0.0 0.0 0.0 0.14 0.81 0.05 0.0 0.0 0.0 0.0 0.0 0.0 0.31 0.68 0.01 0.0 0.0 0.0 0.0 0.0 0.0 0.0 0.0 0.8 0.2 0.0 0.0 0.0 0.0 0.0 0.0 0.0 0.0 0.15 0.84 0.01 0.0 0.0 0.0 0.0 0.0 0.0 0.0 0.0 0.42 0.58 0.0 0.0 0.0 0.0 0.0 0.0 0.01 0.75 0.24 0.0 0.0 0.0 0.0 0.0 0.0 0.0 0.0 0.15 0.81 0.04 0.0 0.0 0.0 0.0 0.0 0.0 0.0 0.01 0.36 0.62 0.01 0.0 0.0 0.0 0.0 0.0 0.0 0.0 0.08 0.76 0.16 0.0 0.0 0.0 0.0 0.0 0.0 0.2 0.8 0.0 0.0 0.0 0.0 0.0 0.0 0.0 0.0 0.0 0.52 0.48 0.0 0.0 0.0 0.0 0.0 0.0 0.0 0.0 0.05 0.82 0.13 0.0 0.0 0.0 0.0 0.0 0.0 0.0 0.0 0.25 0.74 0.01 0.0 0.0 0.0 0.21 0.78 0.01 0.0 0.0 0.0 0.0 0.0 0.0 0.0 0.0 0.8 0.2 0.0 0.0 0.0 0.0 0.0 0.0 0.0 0.0 0.16 0.83 0.01 0.0 0.0 0.0 0.0 0.0 0.0 0.0 0.02 0.73 0.25 0.0 0.0 0.0 0.0 0.0 0.0 0.0 0.74 0.26 0.0 0.0 0.0 0.0 0.0 0.0 0.0 0.0 0.17 0.82 0.01 0.0 0.0 0.0 0.0 0.0 0.0 0.0 0.02 0.7 0.28 0.0 0.0 0.0 0.0 0.0 0.0 0.0 0.0 0.2 0.8 0.0 0.0 0.0 0.0 0.0 0.0 0.0 0.19 0.81 0.0 0.0 0.0 0.0 0.0 0.0 0.0 0.0 0.01 0.72 0.27 0.0 0.0 0.0 0.0 0.0 0.0 0.0 0.0 0.23 0.77 0.0 0.0 0.0 0.0 0.0 0.0 0.0 0.0 0.02 0.74 0.24 0.0 0.0 0.0 0.0 0.0 0.0 0.01 0.73 0.26 0.0 0.0 0.0 0.0 0.0 0.0 0.0 0.0 0.3 0.7 0.0 0.0 0.0 0.0 0.0 0.0 0.0 0.0 0.02 0.75 0.23 0.0 0.0 0.0 0.0 0.0 0.0 0.0 0.0 0.18 0.81 0.01 0.0 0.0 0.0 0.0 0.0 0.78 0.22 0.0 0.0 0.0 0.0 0.0 0.0 0.0 0.0 0.27 0.73 0.0 0.0 0.0 0.0 0.0 0.0 0.0 0.0 0.0 0.78 0.22 0.0 0.0 0.0 0.0 0.0 0.0 0.0 0.0 0.21 0.79 0.0 0.0 0.0 0.0 0.0 0.0 0.0 0.25 0.73 0.02 0.0 0.0 0.0 0.0 0.0 0.0 0.0 0.0 0.75 0.25 0.0 0.0 0.0 0.0 0.0 0.0 0.0 0.0 0.23 0.77 0.0 0.0 0.0 0.0 0.0 0.0 0.0 0.0 0.01 0.79 0.2 0.0 0.0 0.0 0.0 0.0 0.0 0.0 0.81 0.19 0.0 0.0 0.0 0.0 0.0 0.0 0.0 0.0 0.25 0.75 0.0 0.0 0.0 0.0 0.0 0.0 0.0 0.0 0.0 0.82 0.18 0.0 0.0 0.0 0.0 0.0 0.0 0.0 0.0 0.18 0.82 0.0 0.0 0.0 0.0 0.0 0.0 0.0 0.27 0.73 0.0 0.0 0.0 0.0 0.0 0.0 0.0 0.0 0.0 0.78 0.22 0.0 0.0 0.0 0.0 0.0 0.0 0.0 0.0 0.28 0.71 0.01 0.0 0.0 0.0 0.0 0.0 0.0 0.0 0.0 0.7 0.3 0.0 0.0 0.0 0.0 0.0 0.2 0.8 0.0 0.0 0.0 0.0 0.0 0.0 0.0 0.0 0.0 0.73 0.27 0.0 0.0 0.0 0.0 0.0 0.0 0.0 0.0 0.11 0.89 0.0 0.0 0.0 0.0 0.0 0.0 0.0 0.0 0.01 0.75 0.24 0.0 0.0 0.0 0.0 0.0 0.0 0.01 0.71 0.28 0.0 0.0 0.0 0.0 0.0 0.0 0.0 0.0 0.21 0.78 0.01 0.0 0.0 0.0 0.0 0.0 0.0 0.0 0.02 0.73 0.25 0.0 0.0 0.0 0.0 0.0 0.0 0.0 0.0 0.27 0.71 0.02 0.0 0.0 0.0 0.0 0.0 0.0 0.21 0.78 0.01 0.0 0.0 0.0 0.0 0.0 0.0 0.0 0.01 0.83 0.16 0.0 0.0 0.0 0.0 0.0 0.0 0.0 0.0 0.18 0.82 0.0 0.0 0.0 0.0 0.0 0.0 0.0 0.0 0.01 0.75 0.24 0.0 0.0 0.0 0.0 0.0 0.0 0.0 0.79 0.21 0.0 0.0 0.0 0.0 0.0 0.0 0.0 0.0 0.21 0.78 0.01 0.0 0.0 0.0 0.0 0.0 0.0 0.0 0.0 0.75 0.25 0.0 0.0 0.0 0.0 0.0 0.0 0.0 0.0 0.23 0.77 0.0 0.0 0.0 0.0 0.0 0.02 0.8 0.18 0.0 0.0 0.0 0.0 0.0 0.0 0.0 0.0 0.19 0.8 0.01 0.0 0.0 0.0 0.0 0.0 0.0 0.0 0.02 0.74 0.24 0.0 0.0 0.0 0.0 0.0 0.0 0.0 0.0 0.22 0.77 0.01 0.0 0.0 0.0 0.0 0.0 0.0 0.23 0.76 0.01 0.0 0.0 0.0 0.0 0.0 0.0 0.0 0.0 0.81 0.19 0.0 0.0 0.0 0.0 0.0 0.0 0.0 0.0 0.29 0.71 0.0 0.0 0.0 0.0 0.0 0.0 0.0 0.0 0.0 0.79 0.21 0.0 0.0 0.0 0.0 0.0 0.0 0.03 0.7 0.27 0.0 0.0 0.0 0.0 0.0 0.0 0.0 0.0 0.2 0.79 0.01 0.0 0.0 0.0 0.0 0.0 0.0 0.0 0.02 0.7 0.28 0.0 0.0 0.0 0.0 0.0 0.0 0.0 0.0 0.24 0.75 0.01 0.0 0.0 0.0 0.0 0.0 0.0 0.25 0.75 0.0 0.0 0.0 0.0 0.0 0.0 0.0 0.0 0.02 0.77 0.21 0.0 0.0 0.0 0.0 0.0 0.0 0.0 0.0 0.22 0.78 0.0 0.0 0.0 0.0 0.0 0.0 0.0 0.0 0.02 0.7 0.28 0.0 0.0 0.0 0.23 0.74 0.03 0.0 0.0 0.0 0.0 0.0 0.0 0.0 0.02 0.75 0.23 0.0 0.0 0.0 0.0 0.0 0.0 0.0 0.0 0.23 0.77 0.0 0.0 0.0 0.0 0.0 0.0 0.0 0.0 0.0 0.73 0.27 0.0 0.0 0.0 0.0 0.0 0.0 0.01 0.72 0.27 0.0 0.0 0.0 0.0 0.0 0.0 0.0 0.0 0.3 0.7 0.0 0.0 0.0 0.0 0.0 0.0 0.0 0.0 0.0 0.77 0.23 0.0 0.0 0.0 0.0 0.0 0.0 0.0 0.0 0.2 0.78 0.02 0.0 0.0 0.0 0.0 0.0 0.0 0.22 0.77 0.01 0.0 0.0 0.0 0.0 0.0 0.0 0.0 0.03 0.7 0.27 0.0 0.0 0.0 0.0 0.0 0.0 0.0 0.0 0.23 0.77 0.0 0.0 0.0 0.0 0.0 0.0 0.0 0.0 0.0 0.76 0.24 0.0 0.0 0.0 0.0 0.0 0.0 0.0 0.76 0.24 0.0 0.0 0.0 0.0 0.0 0.0 0.0 0.0 0.18 0.81 0.01 0.0 0.0 0.0 0.0 0.0 0.0 0.0 0.02 0.73 0.25 0.0 0.0 0.0 0.0 0.0 0.0 0.0 0.0 0.24 0.75 0.01 0.0 0.0 0.0 0.0 0.0 0.79 0.21 0.0 0.0 0.0 0.0 0.0 0.0 0.0 0.0 0.2 0.8 0.0 0.0 0.0 0.0 0.0 0.0 0.0 0.0 0.0 0.74 0.26 0.0 0.0 0.0 0.0 0.0 0.0 0.0 0.0 0.25 0.75 0.0 0.0 0.0 0.0 0.0 0.0 0.0 0.25 0.74 0.01 0.0 0.0 0.0 0.0 0.0 0.0 0.0 0.01 0.79 0.2 0.0 0.0 0.0 0.0 0.0 0.0 0.0 0.0 0.2 0.77 0.03 0.0 0.0 0.0 0.0 0.0 0.0 0.0 0.0 0.76 0.24 0.0 0.0 0.0 0.0 0.0 0.0 0.01 0.83 0.16 0.0 0.0 0.0 0.0 0.0 0.0 0.0 0.0 0.27 0.72 0.01 0.0 0.0 0.0 0.0 0.0 0.0 0.0 0.0 0.75 0.25 0.0 0.0 0.0 0.0 0.0 0.0 0.0 0.0 0.27 0.72 0.01 0.0 0.0 0.0 0.0 0.0 0.0 0.18 0.81 0.01 0.0 0.0 0.0 0.0 0.0 0.0 0.0 0.0 0.79 0.21 0.0 0.0 0.0 0.0 0.0 0.0 0.0 0.0 0.22 0.77 0.01 0.0 0.0 0.0 0.0 0.0 0.0 0.0 0.0 0.79 0.21 0.0 0.0 0.0 0.0 0.0 0.17 0.83 0.0 0.0 0.0 0.0 0.0 0.0 0.0 0.0 0.01 0.85 0.14 0.0 0.0 0.0 0.0 0.0 0.0 0.0 0.0 0.21 0.79 0.0 0.0 0.0 0.0 0.0 0.0 0.0 0.0 0.01 0.71 0.28 0.0 0.0 0.0 0.0 0.0 0.0 0.0 0.78 0.22 0.0 0.0 0.0 0.0 0.0 0.0 0.0 0.0 0.27 0.73 0.0 0.0 0.0 0.0 0.0 0.0 0.0 0.0 0.0 0.79 0.21 0.0 0.0 0.0 0.0 0.0 0.0 0.0 0.0 0.28 0.71 0.01 0.0 0.0 0.0 0.0 0.0 0.0 0.2 0.79 0.01 0.0 0.0 0.0 0.0 0.0 0.0 0.0 0.0 0.76 0.24 0.0 0.0 0.0 0.0 0.0 0.0 0.0 0.0 0.32 0.67 0.01 0.0 0.0 0.0 0.0 0.0 0.0 0.0 0.01 0.8 0.19 0.0 0.0 0.0 0.0 0.0 0.0 0.01 0.81 0.18 0.0 0.0 0.0 0.0 0.0 0.0 0.0 0.0 0.25 0.73 0.02 0.0 0.0 0.0 0.0 0.0 0.0 0.0 0.0 0.81 0.19 0.0 0.0 0.0 0.0 0.0 0.0 0.0 0.0 0.19 0.8 0.01 0.0 0.0 0.0 0.0 0.02 0.82 0.16 0.0 0.0 0.0 0.0 0.0 0.0 0.0 0.0 0.14 0.86 0.0 0.0 0.0 0.0 0.0 0.0 0.0 0.0 0.02 0.77 0.21 0.0 0.0 0.0 0.0 0.0 0.0 0.0 0.0 0.28 0.71 0.01 0.0 0.0 0.0 0.0 0.0 0.0 0.3 0.69 0.01 0.0 0.0 0.0 0.0 0.0 0.0 0.0 0.0 0.83 0.17 0.0 0.0 0.0 0.0 0.0 0.0 0.0 0.0 0.22 0.77 0.01 0.0 0.0 0.0 0.0 0.0 0.0 0.0 0.01 0.8 0.19 0.0 0.0 0.0 0.0 0.0 0.0 0.0 0.78 0.22 0.0 0.0 0.0 0.0 0.0 0.0 0.0 0.0 0.23 0.77 0.0 0.0 0.0 0.0 0.0 0.0 0.0 0.0 0.0 0.77 0.23 0.0 0.0 0.0 0.0 0.0 0.0 0.0 0.0 0.23 0.76 0.01 0.0 0.0 0.0 0.0 0.0 0.0 0.3 0.7 0.0 0.0 0.0 0.0 0.0 0.0 0.0 0.0 0.0 0.79 0.21 0.0 0.0 0.0 0.0 0.0 0.0 0.0 0.0 0.22 0.78 0.0 0.0 0.0 0.0 0.0 0.0 0.0 0.0 0.01 0.75 0.24 0.0 0.0 0.0 0.0 0.37 0.62 0.01 0.0 0.0 0.0 0.0 0.0 0.0 0.0 0.01 0.78 0.21 0.0 0.0 0.0 0.0 0.0 0.0 0.0 0.0 0.13 0.84 0.03 0.0 0.0 0.0 0.0 0.0 0.0 0.0 0.0 0.49 0.51 0.0 0.0 0.0 0.0 0.0 0.0 0.04 0.71 0.25 0.0 0.0 0.0 0.0 0.0 0.0 0.0 0.0 0.21 0.77 0.02 0.0 0.0 0.0 0.0 0.0 0.0 0.0 0.0 0.5 0.5 0.0 0.0 0.0 0.0 0.0 0.0 0.0 0.0 0.02 0.78 0.2 0.0 0.0 0.0 0.0 0.0 0.0 0.12 0.83 0.05 0.0 0.0 0.0 0.0 0.0 0.0 0.0 0.01 0.48 0.51 0.0 0.0 0.0 0.0 0.0 0.0 0.0 0.0 0.07 0.8 0.13 0.0 0.0 0.0 0.0 0.0 0.0 0.0 0.0 0.22 0.76 0.02 0.0 0.0 0.0 0.0 0.0 0.0 0.6 0.4 0.0 0.0 0.0 0.0 0.0 0.0 0.0 0.0 0.04 0.79 0.17 0.0 0.0 0.0 0.0 0.0 0.0 0.0 0.0 0.23 0.73 0.04 0.0 0.0 0.0 0.0 0.0 0.0 0.0 0.01 0.64 0.35 0.0 0.0 0.0 0.0 0.3 0.67 0.03 0.0 0.0 0.0 0.0 0.0 0.0 0.0 0.0 0.8 0.2 0.0 0.0 0.0 0.0 0.0 0.0 0.0 0.0 0.18 0.8 0.02 0.0 0.0 0.0 0.0 0.0 0.0 0.0 0.0 0.59 0.41 0.0 0.0 0.0 0.0 0.0 0.0 0.01 0.76 0.23 0.0 0.0 0.0 0.0 0.0 0.0 0.0 0.0 0.2 0.77 0.03 0.0 0.0 0.0 0.0 0.0 0.0 0.0 0.0 0.44 0.56 0.0 0.0 0.0 0.0 0.0 0.0 0.0 0.0 0.05 0.77 0.18 0.0 0.0 0.0 0.0 0.0 0.0 0.14 0.81 0.05 0.0 0.0 0.0 0.0 0.0 0.0 0.0 0.01 0.49 0.5 0.0 0.0 0.0 0.0 0.0 0.0 0.0 0.0 0.04 0.82 0.14 0.0 0.0 0.0 0.0 0.0 0.0 0.0 0.0 0.31 0.69 0.0 0.0 0.0 0.0 0.0 0.0 0.0 0.48 0.52 0.0 0.0 0.0 0.0 0.0 0.0 0.0 0.0 0.03 0.85 0.12 0.0 0.0 0.0 0.0 0.0 0.0 0.0 0.0 0.24 0.75 0.01 0.0 0.0 0.0 0.0 0.0 0.0 0.0 0.0 0.69 0.31 0.0 0.0 0.0 0.0 0.32 0.68 0.0 0.0 0.0 0.0 0.0 0.0 0.0 0.0 0.01 0.76 0.23 0.0 0.0 0.0 0.0 0.0 0.0 0.0 0.0 0.16 0.82 0.02 0.0 0.0 0.0 0.0 0.0 0.0 0.0 0.0 0.53 0.46 0.01 0.0 0.0 0.0 0.0 0.0 0.01 0.74 0.25 0.0 0.0 0.0 0.0 0.0 0.0 0.0 0.0 0.26 0.73 0.01 0.0 0.0 0.0 0.0 0.0 0.0 0.0 0.0 0.5 0.5 0.0 0.0 0.0 0.0 0.0 0.0 0.0 0.0 0.01 0.83 0.16 0.0 0.0 0.0 0.0 0.0 0.0 0.18 0.77 0.05 0.0 0.0 0.0 0.0 0.0 0.0 0.0 0.01 0.49 0.5 0.0 0.0 0.0 0.0 0.0 0.0 0.0 0.0 0.02 0.85 0.13 0.0 0.0 0.0 0.0 0.0 0.0 0.0 0.0 0.2 0.79 0.01 0.0 0.0 0.0 0.0 0.0 0.01 0.62 0.37 0.0 0.0 0.0 0.0 0.0 0.0 0.0 0.0 0.03 0.86 0.11 0.0 0.0 0.0 0.0 0.0 0.0 0.0 0.0 0.29 0.7 0.01 0.0 0.0 0.0 0.0 0.0 0.0 0.0 0.0 0.55 0.45 0.0 0.0 0.0 0.0 0.37 0.63 0.0 0.0 0.0 0.0 0.0 0.0 0.0 0.0 0.01 0.71 0.28 0.0 0.0 0.0 0.0 0.0 0.0 0.0 0.0 0.12 0.84 0.04 0.0 0.0 0.0 0.0 0.0 0.0 0.0 0.01 0.54 0.45 0.0 0.0 0.0 0.0 0.0 0.0 0.01 0.73 0.26 0.0 0.0 0.0 0.0 0.0 0.0 0.0 0.0 0.2 0.77 0.03 0.0 0.0 0.0 0.0 0.0 0.0 0.0 0.0 0.43 0.56 0.01 0.0 0.0 0.0 0.0 0.0 0.0 0.0 0.06 0.76 0.18 0.0 0.0 0.0 0.0 0.0 0.0 0.2 0.79 0.01 0.0 0.0 0.0 0.0 0.0 0.0 0.0 0.0 0.56 0.44 0.0 0.0 0.0 0.0 0.0 0.0 0.0 0.0 0.04 0.85 0.11 0.0 0.0 0.0 0.0 0.0 0.0 0.0 0.0 0.24 0.74 0.02 0.0 0.0 0.0 0.0 0.0 0.01 0.51 0.48 0.0 0.0 0.0 0.0 0.0 0.0 0.0 0.0 0.1 0.8 0.1 0.0 0.0 0.0 0.0 0.0 0.0 0.0 0.0 0.24 0.75 0.01 0.0 0.0 0.0 0.0 0.0 0.0 0.0 0.0 0.62 0.38 0.0 0.0 0.0 0.02 0.67 0.31 0.0 0.0 0.0 0.0 0.0 0.0 0.0 0.0 0.12 0.87 0.01 0.0 0.0 0.0 0.0 0.0 0.0 0.0 0.0 0.82 0.18 0.0 0.0 0.0 0.0 0.0 0.0 0.0 0.0 0.23 0.75 0.02 0.0 0.0 0.0 0.0 0.0 0.0 0.24 0.76 0.0 0.0 0.0 0.0 0.0 0.0 0.0 0.0 0.0 0.83 0.17 0.0 0.0 0.0 0.0 0.0 0.0 0.0 0.0 0.2 0.8 0.0 0.0 0.0 0.0 0.0 0.0 0.0 0.0 0.01 0.79 0.2 0.0 0.0 0.0 0.0 0.0 0.0 0.0 0.78 0.22 0.0 0.0 0.0 0.0 0.0 0.0 0.0 0.0 0.15 0.83 0.02 0.0 0.0 0.0 0.0 0.0 0.0 0.0 0.01 0.7 0.29 0.0 0.0 0.0 0.0 0.0 0.0 0.0 0.0 0.25 0.75 0.0 0.0 0.0 0.0 0.0 0.0 0.0 0.26 0.74 0.0 0.0 0.0 0.0 0.0 0.0 0.0 0.0 0.01 0.75 0.24 0.0 0.0 0.0 0.0 0.0 0.0 0.0 0.0 0.2 0.76 0.04 0.0 0.0 0.0 0.0 0.0 0.0 0.0 0.01 0.71 0.28 0.0 0.0 0.0 0.0 0.0 0.23 0.76 0.01 0.0 0.0 0.0 0.0 0.0 0.0 0.0 0.0 0.76 0.24 0.0 0.0 0.0 0.0 0.0 0.0 0.0 0.0 0.23 0.77 0.0 0.0 0.0 0.0 0.0 0.0 0.0 0.0 0.0 0.81 0.19 0.0 0.0 0.0 0.0 0.0 0.0 0.03 0.76 0.21 0.0 0.0 0.0 0.0 0.0 0.0 0.0 0.0 0.25 0.75 0.0 0.0 0.0 0.0 0.0 0.0 0.0 0.0 0.0 0.74 0.26 0.0 0.0 0.0 0.0 0.0 0.0 0.0 0.0 0.25 0.75 0.0 0.0 0.0 0.0 0.0 0.0 0.0 0.17 0.83 0.0 0.0 0.0 0.0 0.0 0.0 0.0 0.0 0.03 0.76 0.21 0.0 0.0 0.0 0.0 0.0 0.0 0.0 0.0 0.26 0.74 0.0 0.0 0.0 0.0 0.0 0.0 0.0 0.0 0.0 0.75 0.25 0.0 0.0 0.0 0.0 0.0 0.0 0.01 0.73 0.26 0.0 0.0 0.0 0.0 0.0 0.0 0.0 0.0 0.26 0.73 0.01 0.0 0.0 0.0 0.0 0.0 0.0 0.0 0.0 0.72 0.28 0.0 0.0 0.0 0.0 0.0 0.0 0.0 0.0 0.2 0.8 0.0 0.0 0.0 0.0 0.0 0.01 0.83 0.16 0.0 0.0 0.0 0.0 0.0 0.0 0.0 0.0 0.23 0.76 0.01 0.0 0.0 0.0 0.0 0.0 0.0 0.0 0.0 0.73 0.27 0.0 0.0 0.0 0.0 0.0 0.0 0.0 0.0 0.19 0.8 0.01 0.0 0.0 0.0 0.0 0.0 0.0 0.21 0.77 0.02 0.0 0.0 0.0 0.0 0.0 0.0 0.0 0.02 0.73 0.25 0.0 0.0 0.0 0.0 0.0 0.0 0.0 0.0 0.24 0.76 0.0 0.0 0.0 0.0 0.0 0.0 0.0 0.0 0.02 0.66 0.32 0.0 0.0 0.0 0.0 0.0 0.0 0.0 0.76 0.24 0.0 0.0 0.0 0.0 0.0 0.0 0.0 0.0 0.22 0.77 0.01 0.0 0.0 0.0 0.0 0.0 0.0 0.0 0.01 0.79 0.2 0.0 0.0 0.0 0.0 0.0 0.0 0.0 0.0 0.28 0.7 0.02 0.0 0.0 0.0 0.0 0.0 0.0 0.19 0.81 0.0 0.0 0.0 0.0 0.0 0.0 0.0 0.0 0.04 0.72 0.24 0.0 0.0 0.0 0.0 0.0 0.0 0.0 0.0 0.25 0.75 0.0 0.0 0.0 0.0 0.0 0.0 0.0 0.0 0.01 0.77 0.22 0.0 0.0 0.0 0.0 0.0 0.24 0.76 0.0 0.0 0.0 0.0 0.0 0.0 0.0 0.0 0.01 0.71 0.28 0.0 0.0 0.0 0.0 0.0 0.0 0.0 0.0 0.28 0.7 0.02 0.0 0.0 0.0 0.0 0.0 0.0 0.0 0.02 0.77 0.21 0.0 0.0 0.0 0.0 0.0 0.0 0.01 0.72 0.27 0.0 0.0 0.0 0.0 0.0 0.0 0.0 0.0 0.22 0.78 0.0 0.0 0.0 0.0 0.0 0.0 0.0 0.0 0.03 0.78 0.19 0.0 0.0 0.0 0.0 0.0 0.0 0.0 0.0 0.21 0.79 0.0 0.0 0.0 0.0 0.0 0.0 0.0 0.2 0.78 0.02 0.0 0.0 0.0 0.0 0.0 0.0 0.0 0.01 0.85 0.14 0.0 0.0 0.0 0.0 0.0 0.0 0.0 0.0 0.22 0.78 0.0 0.0 0.0 0.0 0.0 0.0 0.0 0.0 0.02 0.77 0.21 0.0 0.0 0.0 0.0 0.0 0.0 0.0 0.77 0.23 0.0 0.0 0.0 0.0 0.0 0.0 0.0 0.0 0.21 0.79 0.0 0.0 0.0 0.0 0.0 0.0 0.0 0.0 0.0 0.78 0.22 0.0 0.0 0.0 0.0 0.0 0.0 0.0 0.0 0.17 0.81 0.02 0.0 0.0 0.02 0.75 0.23 0.0 0.0 0.0 0.0 0.0 0.0 0.0 0.0 0.24 0.75 0.01 0.0 0.0 0.0 0.0 0.0 0.0 0.0 0.01 0.69 0.3 0.0 0.0 0.0 0.0 0.0 0.0 0.0 0.0 0.22 0.75 0.03 0.0 0.0 0.0 0.0 0.0 0.0 0.23 0.76 0.01 0.0 0.0 0.0 0.0 0.0 0.0 0.0 0.03 0.72 0.25 0.0 0.0 0.0 0.0 0.0 0.0 0.0 0.0 0.22 0.78 0.0 0.0 0.0 0.0 0.0 0.0 0.0 0.0 0.01 0.75 0.24 0.0 0.0 0.0 0.0 0.0 0.0 0.0 0.89 0.11 0.0 0.0 0.0 0.0 0.0 0.0 0.0 0.0 0.25 0.75 0.0 0.0 0.0 0.0 0.0 0.0 0.0 0.0 0.0 0.77 0.23 0.0 0.0 0.0 0.0 0.0 0.0 0.0 0.0 0.27 0.71 0.02 0.0 0.0 0.0 0.0 0.0 0.0 0.21 0.78 0.01 0.0 0.0 0.0 0.0 0.0 0.0 0.0 0.0 0.78 0.22 0.0 0.0 0.0 0.0 0.0 0.0 0.0 0.0 0.17 0.82 0.01 0.0 0.0 0.0 0.0 0.0 0.0 0.0 0.01 0.72 0.27 0.0 0.0 0.0 0.0 0.0 0.24 0.75 0.01 0.0 0.0 0.0 0.0 0.0 0.0 0.0 0.01 0.72 0.27 0.0 0.0 0.0 0.0 0.0 0.0 0.0 0.0 0.27 0.73 0.0 0.0 0.0 0.0 0.0 0.0 0.0 0.0 0.02 0.77 0.21 0.0 0.0 0.0 0.0 0.0 0.0 0.01 0.73 0.26 0.0 0.0 0.0 0.0 0.0 0.0 0.0 0.0 0.3 0.69 0.01 0.0 0.0 0.0 0.0 0.0 0.0 0.0 0.02 0.8 0.18 0.0 0.0 0.0 0.0 0.0 0.0 0.0 0.0 0.25 0.75 0.0 0.0 0.0 0.0 0.0 0.0 0.0 0.23 0.76 0.01 0.0 0.0 0.0 0.0 0.0 0.0 0.0 0.0 0.73 0.27 0.0 0.0 0.0 0.0 0.0 0.0 0.0 0.0 0.21 0.76 0.03 0.0 0.0 0.0 0.0 0.0 0.0 0.0 0.01 0.72 0.27 0.0 0.0 0.0 0.0 0.0 0.0 0.01 0.79 0.2 0.0 0.0 0.0 0.0 0.0 0.0 0.0 0.0 0.24 0.76 0.0 0.0 0.0 0.0 0.0 0.0 0.0 0.0 0.0 0.75 0.25 0.0 0.0 0.0 0.0 0.0 0.0 0.0 0.0 0.27 0.72 0.01 0.0 0.0 0.0 0.0 0.01 0.74 0.25 0.0 0.0 0.0 0.0 0.0 0.0 0.0 0.0 0.14 0.85 0.01 0.0 0.0 0.0 0.0 0.0 0.0 0.0 0.02 0.77 0.21 0.0 0.0 0.0 0.0 0.0 0.0 0.0 0.0 0.27 0.73 0.0 0.0 0.0 0.0 0.0 0.0 0.0 0.22 0.78 0.0 0.0 0.0 0.0 0.0 0.0 0.0 0.0 0.0 0.7 0.3 0.0 0.0 0.0 0.0 0.0 0.0 0.0 0.0 0.18 0.82 0.0 0.0 0.0 0.0 0.0 0.0 0.0 0.0 0.0 0.8 0.2 0.0 0.0 0.0 0.0 0.0 0.0 0.0 0.8 0.2 0.0 0.0 0.0 0.0 0.0 0.0 0.0 0.0 0.23 0.76 0.01 0.0 0.0 0.0 0.0 0.0 0.0 0.0 0.01 0.86 0.13 0.0 0.0 0.0 0.0 0.0 0.0 0.0 0.0 0.2 0.79 0.01 0.0 0.0 0.0 0.0 0.0 0.0 0.21 0.79 0.0 0.0 0.0 0.0 0.0 0.0 0.0 0.0 0.0 0.78 0.22 0.0 0.0 0.0 0.0 0.0 0.0 0.0 0.0 0.28 0.72 0.0 0.0 0.0 0.0 0.0 0.0 0.0 0.0 0.0 0.84 0.16 0.0 0.0 0.0 0.0 0.0 0.19 0.81 0.0 0.0 0.0 0.0 0.0 0.0 0.0 0.0 0.0 0.75 0.25 0.0 0.0 0.0 0.0 0.0 0.0 0.0 0.0 0.2 0.79 0.01 0.0 0.0 0.0 0.0 0.0 0.0 0.0 0.02 0.66 0.32 0.0 0.0 0.0 0.0 0.0 0.0 0.0 0.78 0.22 0.0 0.0 0.0 0.0 0.0 0.0 0.0 0.0 0.19 0.81 0.0 0.0 0.0 0.0 0.0 0.0 0.0 0.0 0.0 0.79 0.21 0.0 0.0 0.0 0.0 0.0 0.0 0.0 0.0 0.25 0.75 0.0 0.0 0.0 0.0 0.0 0.0 0.0 0.23 0.77 0.0 0.0 0.0 0.0 0.0 0.0 0.0 0.0 0.03 0.78 0.19 0.0 0.0 0.0 0.0 0.0 0.0 0.0 0.0 0.27 0.73 0.0 0.0 0.0 0.0 0.0 0.0 0.0 0.0 0.0 0.77 0.23 0.0 0.0 0.0 0.0 0.0 0.0 0.01 0.81 0.18 0.0 0.0 0.0 0.0 0.0 0.0 0.0 0.0 0.19 0.8 0.01 0.0 0.0 0.0 0.0 0.0 0.0 0.0 0.0 0.83 0.17 0.0 0.0 0.0 0.0 0.0 0.0 0.0 0.0 0.17 0.8 0.03 0.0 0.0 0.0 0.02 0.76 0.22 0.0 0.0 0.0 0.0 0.0 0.0 0.0 0.0 0.14 0.82 0.04 0.0 0.0 0.0 0.0 0.0 0.0 0.0 0.0 0.48 0.52 0.0 0.0 0.0 0.0 0.0 0.0 0.0 0.0 0.06 0.74 0.2 0.0 0.0 0.0 0.0 0.0 0.0 0.16 0.79 0.05 0.0 0.0 0.0 0.0 0.0 0.0 0.0 0.0 0.51 0.49 0.0 0.0 0.0 0.0 0.0 0.0 0.0 0.0 0.0 0.82 0.18 0.0 0.0 0.0 0.0 0.0 0.0 0.0 0.0 0.23 0.77 0.0 0.0 0.0 0.0 0.0 0.0 0.0 0.48 0.52 0.0 0.0 0.0 0.0 0.0 0.0 0.0 0.0 0.06 0.83 0.11 0.0 0.0 0.0 0.0 0.0 0.0 0.0 0.0 0.22 0.77 0.01 0.0 0.0 0.0 0.0 0.0 0.0 0.0 0.0 0.64 0.36 0.0 0.0 0.0 0.0 0.0 0.0 0.06 0.82 0.12 0.0 0.0 0.0 0.0 0.0 0.0 0.0 0.0 0.3 0.7 0.0 0.0 0.0 0.0 0.0 0.0 0.0 0.0 0.0 0.71 0.29 0.0 0.0 0.0 0.0 0.0 0.0 0.0 0.0 0.08 0.84 0.08 0.0 0.0 0.0 0.03 0.75 0.22 0.0 0.0 0.0 0.0 0.0 0.0 0.0 0.0 0.13 0.83 0.04 0.0 0.0 0.0 0.0 0.0 0.0 0.0 0.0 0.48 0.52 0.0 0.0 0.0 0.0 0.0 0.0 0.0 0.0 0.03 0.85 0.12 0.0 0.0 0.0 0.0 0.0 0.0 0.11 0.87 0.02 0.0 0.0 0.0 0.0 0.0 0.0 0.0 0.0 0.61 0.39 0.0 0.0 0.0 0.0 0.0 0.0 0.0 0.0 0.05 0.81 0.14 0.0 0.0 0.0 0.0 0.0 0.0 0.0 0.0 0.23 0.77 0.0 0.0 0.0 0.0 0.0 0.0 0.0 0.5 0.5 0.0 0.0 0.0 0.0 0.0 0.0 0.0 0.0 0.03 0.83 0.14 0.0 0.0 0.0 0.0 0.0 0.0 0.0 0.0 0.25 0.73 0.02 0.0 0.0 0.0 0.0 0.0 0.0 0.0 0.02 0.65 0.33 0.0 0.0 0.0 0.0 0.0 0.0 0.06 0.78 0.16 0.0 0.0 0.0 0.0 0.0 0.0 0.0 0.0 0.28 0.72 0.0 0.0 0.0 0.0 0.0 0.0 0.0 0.0 0.02 0.69 0.29 0.0 0.0 0.0 0.0 0.0 0.0 0.0 0.0 0.07 0.8 0.13 0.0 0.0 0.0 0.03 0.68 0.29 0.0 0.0 0.0 0.0 0.0 0.0 0.0 0.0 0.12 0.81 0.07 0.0 0.0 0.0 0.0 0.0 0.0 0.0 0.0 0.52 0.48 0.0 0.0 0.0 0.0 0.0 0.0 0.0 0.0 0.07 0.82 0.11 0.0 0.0 0.0 0.0 0.0 0.0 0.17 0.78 0.05 0.0 0.0 0.0 0.0 0.0 0.0 0.0 0.0 0.52 0.48 0.0 0.0 0.0 0.0 0.0 0.0 0.0 0.0 0.07 0.75 0.18 0.0 0.0 0.0 0.0 0.0 0.0 0.0 0.0 0.24 0.74 0.02 0.0 0.0 0.0 0.0 0.0 0.0 0.51 0.48 0.01 0.0 0.0 0.0 0.0 0.0 0.0 0.0 0.04 0.88 0.08 0.0 0.0 0.0 0.0 0.0 0.0 0.0 0.0 0.29 0.71 0.0 0.0 0.0 0.0 0.0 0.0 0.0 0.0 0.0 0.62 0.38 0.0 0.0 0.0 0.0 0.0 0.0 0.02 0.83 0.15 0.0 0.0 0.0 0.0 0.0 0.0 0.0 0.0 0.27 0.73 0.0 0.0 0.0 0.0 0.0 0.0 0.0 0.0 0.02 0.69 0.29 0.0 0.0 0.0 0.0 0.0 0.0 0.0 0.0 0.09 0.85 0.06 0.0 0.0 0.0 0.02 0.75 0.23 0.0 0.0 0.0 0.0 0.0 0.0 0.0 0.0 0.09 0.86 0.05 0.0 0.0 0.0 0.0 0.0 0.0 0.0 0.0 0.54 0.46 0.0 0.0 0.0 0.0 0.0 0.0 0.0 0.0 0.05 0.82 0.13 0.0 0.0 0.0 0.0 0.0 0.0 0.18 0.81 0.01 0.0 0.0 0.0 0.0 0.0 0.0 0.0 0.0 0.53 0.47 0.0 0.0 0.0 0.0 0.0 0.0 0.0 0.0 0.05 0.81 0.14 0.0 0.0 0.0 0.0 0.0 0.0 0.0 0.0 0.28 0.69 0.03 0.0 0.0 0.0 0.0 0.0 0.01 0.5 0.49 0.0 0.0 0.0 0.0 0.0 0.0 0.0 0.0 0.07 0.77 0.16 0.0 0.0 0.0 0.0 0.0 0.0 0.0 0.0 0.28 0.7 0.02 0.0 0.0 0.0 0.0 0.0 0.0 0.0 0.01 0.66 0.33 0.0 0.0 0.0 0.0 0.0 0.0 0.04 0.89 0.07 0.0 0.0 0.0 0.0 0.0 0.0 0.0 0.0 0.27 0.73 0.0 0.0 0.0 0.0 0.0 0.0 0.0 0.0 0.01 0.59 0.4 0.0 0.0 0.0 0.0 0.0 0.0 0.0 0.0 0.09 0.82 0.09 0.0 0.0 0.0 0.28 0.72 0.0 0.0 0.0 0.0 0.0 0.0 0.0 0.0 0.0 0.79 0.21 0.0 0.0 0.0 0.0 0.0 0.0 0.0 0.0 0.21 0.79 0.0 0.0 0.0 0.0 0.0 0.0 0.0 0.0 0.0 0.79 0.21 0.0 0.0 0.0 0.0 0.0 0.0 0.03 0.73 0.24 0.0 0.0 0.0 0.0 0.0 0.0 0.0 0.0 0.25 0.75 0.0 0.0 0.0 0.0 0.0 0.0 0.0 0.0 0.02 0.78 0.2 0.0 0.0 0.0 0.0 0.0 0.0 0.0 0.0 0.21 0.77 0.02 0.0 0.0 0.0 0.0 0.0 0.0 0.18 0.82 0.0 0.0 0.0 0.0 0.0 0.0 0.0 0.0 0.01 0.79 0.2 0.0 0.0 0.0 0.0 0.0 0.0 0.0 0.0 0.34 0.63 0.03 0.0 0.0 0.0 0.0 0.0 0.0 0.0 0.02 0.82 0.16 0.0 0.0 0.0 0.0 0.0 0.0 0.0 0.81 0.19 0.0 0.0 0.0 0.0 0.0 0.0 0.0 0.0 0.22 0.77 0.01 0.0 0.0 0.0 0.0 0.0 0.0 0.0 0.0 0.82 0.18 0.0 0.0 0.0 0.0 0.0 0.0 0.0 0.0 0.26 0.72 0.02 0.0 0.0 0.0 0.0 0.0 0.75 0.25 0.0 0.0 0.0 0.0 0.0 0.0 0.0 0.0 0.31 0.67 0.02 0.0 0.0 0.0 0.0 0.0 0.0 0.0 0.0 0.8 0.2 0.0 0.0 0.0 0.0 0.0 0.0 0.0 0.0 0.19 0.8 0.01 0.0 0.0 0.0 0.0 0.0 0.0 0.22 0.78 0.0 0.0 0.0 0.0 0.0 0.0 0.0 0.0 0.01 0.78 0.21 0.0 0.0 0.0 0.0 0.0 0.0 0.0 0.0 0.2 0.78 0.02 0.0 0.0 0.0 0.0 0.0 0.0 0.0 0.01 0.76 0.23 0.0 0.0 0.0 0.0 0.0 0.0 0.01 0.77 0.22 0.0 0.0 0.0 0.0 0.0 0.0 0.0 0.0 0.19 0.8 0.01 0.0 0.0 0.0 0.0 0.0 0.0 0.0 0.0 0.75 0.25 0.0 0.0 0.0 0.0 0.0 0.0 0.0 0.0 0.31 0.69 0.0 0.0 0.0 0.0 0.0 0.0 0.0 0.22 0.77 0.01 0.0 0.0 0.0 0.0 0.0 0.0 0.0 0.01 0.8 0.19 0.0 0.0 0.0 0.0 0.0 0.0 0.0 0.0 0.21 0.77 0.02 0.0 0.0 0.0 0.0 0.0 0.0 0.0 0.0 0.71 0.29 0.0 0.0 0.0 0.0 0.0 0.22 0.78 0.0 0.0 0.0 0.0 0.0 0.0 0.0 0.0 0.01 0.74 0.25 0.0 0.0 0.0 0.0 0.0 0.0 0.0 0.0 0.22 0.76 0.02 0.0 0.0 0.0 0.0 0.0 0.0 0.0 0.0 0.77 0.23 0.0 0.0 0.0 0.0 0.0 0.0 0.0 0.81 0.19 0.0 0.0 0.0 0.0 0.0 0.0 0.0 0.0 0.22 0.77 0.01 0.0 0.0 0.0 0.0 0.0 0.0 0.0 0.0 0.71 0.29 0.0 0.0 0.0 0.0 0.0 0.0 0.0 0.0 0.21 0.78 0.01 0.0 0.0 0.0 0.0 0.0 0.0 0.19 0.81 0.0 0.0 0.0 0.0 0.0 0.0 0.0 0.0 0.02 0.77 0.21 0.0 0.0 0.0 0.0 0.0 0.0 0.0 0.0 0.32 0.68 0.0 0.0 0.0 0.0 0.0 0.0 0.0 0.0 0.03 0.69 0.28 0.0 0.0 0.0 0.0 0.0 0.0 0.0 0.74 0.26 0.0 0.0 0.0 0.0 0.0 0.0 0.0 0.0 0.25 0.75 0.0 0.0 0.0 0.0 0.0 0.0 0.0 0.0 0.0 0.75 0.25 0.0 0.0 0.0 0.0 0.0 0.0 0.0 0.0 0.17 0.83 0.0 0.0 0.0 0.0 0.0 0.0 0.79 0.21 0.0 0.0 0.0 0.0 0.0 0.0 0.0 0.0 0.29 0.7 0.01 0.0 0.0 0.0 0.0 0.0 0.0 0.0 0.01 0.7 0.29 0.0 0.0 0.0 0.0 0.0 0.0 0.0 0.0 0.17 0.83 0.0 0.0 0.0 0.0 0.0 0.0 0.0 0.21 0.79 0.0 0.0 0.0 0.0 0.0 0.0 0.0 0.0 0.01 0.72 0.27 0.0 0.0 0.0 0.0 0.0 0.0 0.0 0.0 0.29 0.71 0.0 0.0 0.0 0.0 0.0 0.0 0.0 0.0 0.01 0.68 0.31 0.0 0.0 0.0 0.0 0.0 0.0 0.03 0.74 0.23 0.0 0.0 0.0 0.0 0.0 0.0 0.0 0.0 0.26 0.73 0.01 0.0 0.0 0.0 0.0 0.0 0.0 0.0 0.0 0.75 0.25 0.0 0.0 0.0 0.0 0.0 0.0 0.0 0.0 0.2 0.77 0.03 0.0 0.0 0.0 0.0 0.0 0.0 0.17 0.83 0.0 0.0 0.0 0.0 0.0 0.0 0.0 0.0 0.02 0.79 0.19 0.0 0.0 0.0 0.0 0.0 0.0 0.0 0.0 0.2 0.79 0.01 0.0 0.0 0.0 0.0 0.0 0.0 0.0 0.01 0.74 0.25 0.0 0.0 0.0 0.25 0.74 0.01 0.0 0.0 0.0 0.0 0.0 0.0 0.0 0.0 0.71 0.29 0.0 0.0 0.0 0.0 0.0 0.0 0.0 0.0 0.18 0.82 0.0 0.0 0.0 0.0 0.0 0.0 0.0 0.0 0.01 0.7 0.29 0.0 0.0 0.0 0.0 0.0 0.0 0.0 0.78 0.22 0.0 0.0 0.0 0.0 0.0 0.0 0.0 0.0 0.2 0.79 0.01 0.0 0.0 0.0 0.0 0.0 0.0 0.0 0.01 0.78 0.21 0.0 0.0 0.0 0.0 0.0 0.0 0.0 0.0 0.18 0.82 0.0 0.0 0.0 0.0 0.0 0.0 0.0 0.23 0.77 0.0 0.0 0.0 0.0 0.0 0.0 0.0 0.0 0.02 0.7 0.28 0.0 0.0 0.0 0.0 0.0 0.0 0.0 0.0 0.16 0.83 0.01 0.0 0.0 0.0 0.0 0.0 0.0 0.0 0.03 0.74 0.23 0.0 0.0 0.0 0.0 0.0 0.0 0.01 0.71 0.28 0.0 0.0 0.0 0.0 0.0 0.0 0.0 0.0 0.2 0.79 0.01 0.0 0.0 0.0 0.0 0.0 0.0 0.0 0.0 0.68 0.32 0.0 0.0 0.0 0.0 0.0 0.0 0.0 0.0 0.21 0.78 0.01 0.0 0.0 0.0 0.0 0.0 0.78 0.22 0.0 0.0 0.0 0.0 0.0 0.0 0.0 0.0 0.19 0.81 0.0 0.0 0.0 0.0 0.0 0.0 0.0 0.0 0.01 0.74 0.25 0.0 0.0 0.0 0.0 0.0 0.0 0.0 0.0 0.31 0.68 0.01 0.0 0.0 0.0 0.0 0.0 0.0 0.3 0.7 0.0 0.0 0.0 0.0 0.0 0.0 0.0 0.0 0.0 0.75 0.25 0.0 0.0 0.0 0.0 0.0 0.0 0.0 0.0 0.29 0.69 0.02 0.0 0.0 0.0 0.0 0.0 0.0 0.0 0.02 0.82 0.16 0.0 0.0 0.0 0.0 0.0 0.0 0.0 0.78 0.22 0.0 0.0 0.0 0.0 0.0 0.0 0.0 0.0 0.22 0.77 0.01 0.0 0.0 0.0 0.0 0.0 0.0 0.0 0.01 0.73 0.26 0.0 0.0 0.0 0.0 0.0 0.0 0.0 0.0 0.19 0.79 0.02 0.0 0.0 0.0 0.0 0.0 0.0 0.23 0.76 0.01 0.0 0.0 0.0 0.0 0.0 0.0 0.0 0.0 0.78 0.22 0.0 0.0 0.0 0.0 0.0 0.0 0.0 0.0 0.32 0.65 0.03 0.0 0.0 0.0 0.0 0.0 0.0 0.0 0.01 0.77 0.22 0.0 0.0 0.0 0.0 0.0 0.29 0.71 0.0 0.0 0.0 0.0 0.0 0.0 0.0 0.0 0.0 0.76 0.24 0.0 0.0 0.0 0.0 0.0 0.0 0.0 0.0 0.19 0.81 0.0 0.0 0.0 0.0 0.0 0.0 0.0 0.0 0.02 0.75 0.23 0.0 0.0 0.0 0.0 0.0 0.0 0.0 0.67 0.33 0.0 0.0 0.0 0.0 0.0 0.0 0.0 0.0 0.22 0.78 0.0 0.0 0.0 0.0 0.0 0.0 0.0 0.0 0.0 0.73 0.27 0.0 0.0 0.0 0.0 0.0 0.0 0.0 0.0 0.22 0.77 0.01 0.0 0.0 0.0 0.0 0.0 0.0 0.26 0.74 0.0 0.0 0.0 0.0 0.0 0.0 0.0 0.0 0.0 0.79 0.21 0.0 0.0 0.0 0.0 0.0 0.0 0.0 0.0 0.26 0.74 0.0 0.0 0.0 0.0 0.0 0.0 0.0 0.0 0.03 0.75 0.22 0.0 0.0 0.0 0.0 0.0 0.0 0.01 0.76 0.23 0.0 0.0 0.0 0.0 0.0 0.0 0.0 0.0 0.21 0.78 0.01 0.0 0.0 0.0 0.0 0.0 0.0 0.0 0.02 0.73 0.25 0.0 0.0 0.0 0.0 0.0 0.0 0.0 0.0 0.25 0.75 0.0 0.0 0.0 0.0 0.0 0.02 0.71 0.27 0.0 0.0 0.0 0.0 0.0 0.0 0.0 0.0 0.19 0.8 0.01 0.0 0.0 0.0 0.0 0.0 0.0 0.0 0.0 0.76 0.24 0.0 0.0 0.0 0.0 0.0 0.0 0.0 0.0 0.18 0.8 0.02 0.0 0.0 0.0 0.0 0.0 0.0 0.23 0.76 0.01 0.0 0.0 0.0 0.0 0.0 0.0 0.0 0.0 0.76 0.24 0.0 0.0 0.0 0.0 0.0 0.0 0.0 0.0 0.22 0.76 0.02 0.0 0.0 0.0 0.0 0.0 0.0 0.0 0.01 0.81 0.18 0.0 0.0 0.0 0.0 0.0 0.0 0.0 0.78 0.22 0.0 0.0 0.0 0.0 0.0 0.0 0.0 0.0 0.22 0.77 0.01 0.0 0.0 0.0 0.0 0.0 0.0 0.0 0.0 0.78 0.22 0.0 0.0 0.0 0.0 0.0 0.0 0.0 0.0 0.21 0.79 0.0 0.0 0.0 0.0 0.0 0.0 0.0 0.2 0.79 0.01 0.0 0.0 0.0 0.0 0.0 0.0 0.0 0.0 0.83 0.17 0.0 0.0 0.0 0.0 0.0 0.0 0.0 0.0 0.22 0.75 0.03 0.0 0.0 0.0 0.0 0.0 0.0 0.0 0.0 0.79 0.21 0.0 0.0 0.08 0.79 0.13 0.0 0.0 0.0 0.0 0.0 0.0 0.0 0.0 0.29 0.71 0.0 0.0 0.0 0.0 0.0 0.0 0.0 0.0 0.02 0.81 0.17 0.0 0.0 0.0 0.0 0.0 0.0 0.0 0.0 0.17 0.79 0.04 0.0 0.0 0.0 0.0 0.0 0.0 0.31 0.69 0.0 0.0 0.0 0.0 0.0 0.0 0.0 0.0 0.0 0.77 0.23 0.0 0.0 0.0 0.0 0.0 0.0 0.0 0.0 0.18 0.78 0.04 0.0 0.0 0.0 0.0 0.0 0.0 0.0 0.0 0.52 0.48 0.0 0.0 0.0 0.0 0.0 0.0 0.02 0.74 0.24 0.0 0.0 0.0 0.0 0.0 0.0 0.0 0.0 0.2 0.78 0.02 0.0 0.0 0.0 0.0 0.0 0.0 0.0 0.0 0.46 0.54 0.0 0.0 0.0 0.0 0.0 0.0 0.0 0.0 0.07 0.72 0.21 0.0 0.0 0.0 0.0 0.0 0.0 0.15 0.82 0.03 0.0 0.0 0.0 0.0 0.0 0.0 0.0 0.0 0.48 0.52 0.0 0.0 0.0 0.0 0.0 0.0 0.0 0.0 0.02 0.82 0.16 0.0 0.0 0.0 0.0 0.0 0.0 0.0 0.0 0.29 0.71 0.0 0.0 0.0 0.0 0.09 0.81 0.1 0.0 0.0 0.0 0.0 0.0 0.0 0.0 0.0 0.36 0.64 0.0 0.0 0.0 0.0 0.0 0.0 0.0 0.0 0.04 0.76 0.2 0.0 0.0 0.0 0.0 0.0 0.0 0.0 0.0 0.18 0.76 0.06 0.0 0.0 0.0 0.0 0.0 0.0 0.36 0.64 0.0 0.0 0.0 0.0 0.0 0.0 0.0 0.0 0.01 0.75 0.24 0.0 0.0 0.0 0.0 0.0 0.0 0.0 0.0 0.16 0.82 0.02 0.0 0.0 0.0 0.0 0.0 0.0 0.0 0.0 0.6 0.4 0.0 0.0 0.0 0.0 0.0 0.0 0.03 0.72 0.25 0.0 0.0 0.0 0.0 0.0 0.0 0.0 0.0 0.16 0.77 0.07 0.0 0.0 0.0 0.0 0.0 0.0 0.0 0.0 0.42 0.58 0.0 0.0 0.0 0.0 0.0 0.0 0.0 0.0 0.02 0.81 0.17 0.0 0.0 0.0 0.0 0.0 0.0 0.16 0.77 0.07 0.0 0.0 0.0 0.0 0.0 0.0 0.0 0.0 0.61 0.39 0.0 0.0 0.0 0.0 0.0 0.0 0.0 0.0 0.02 0.88 0.1 0.0 0.0 0.0 0.0 0.0 0.0 0.0 0.0 0.34 0.64 0.02 0.0 0.0 0.0 0.1 0.77 0.13 0.0 0.0 0.0 0.0 0.0 0.0 0.0 0.0 0.41 0.59 0.0 0.0 0.0 0.0 0.0 0.0 0.0 0.0 0.0 0.79 0.21 0.0 0.0 0.0 0.0 0.0 0.0 0.0 0.0 0.19 0.75 0.06 0.0 0.0 0.0 0.0 0.0 0.0 0.3 0.7 0.0 0.0 0.0 0.0 0.0 0.0 0.0 0.0 0.04 0.71 0.25 0.0 0.0 0.0 0.0 0.0 0.0 0.0 0.0 0.26 0.71 0.03 0.0 0.0 0.0 0.0 0.0 0.0 0.0 0.0 0.48 0.52 0.0 0.0 0.0 0.0 0.0 0.0 0.02 0.82 0.16 0.0 0.0 0.0 0.0 0.0 0.0 0.0 0.0 0.18 0.81 0.01 0.0 0.0 0.0 0.0 0.0 0.0 0.0 0.0 0.5 0.5 0.0 0.0 0.0 0.0 0.0 0.0 0.0 0.0 0.04 0.86 0.1 0.0 0.0 0.0 0.0 0.0 0.0 0.17 0.79 0.04 0.0 0.0 0.0 0.0 0.0 0.0 0.0 0.01 0.43 0.56 0.0 0.0 0.0 0.0 0.0 0.0 0.0 0.0 0.05 0.76 0.19 0.0 0.0 0.0 0.0 0.0 0.0 0.0 0.0 0.19 0.81 0.0 0.0 0.0 0.0 0.13 0.78 0.09 0.0 0.0 0.0 0.0 0.0 0.0 0.0 0.0 0.33 0.67 0.0 0.0 0.0 0.0 0.0 0.0 0.0 0.0 0.03 0.62 0.35 0.0 0.0 0.0 0.0 0.0 0.0 0.0 0.0 0.14 0.8 0.06 0.0 0.0 0.0 0.0 0.0 0.0 0.25 0.74 0.01 0.0 0.0 0.0 0.0 0.0 0.0 0.0 0.02 0.72 0.26 0.0 0.0 0.0 0.0 0.0 0.0 0.0 0.0 0.1 0.85 0.05 0.0 0.0 0.0 0.0 0.0 0.0 0.0 0.0 0.51 0.49 0.0 0.0 0.0 0.0 0.0 0.0 0.03 0.7 0.27 0.0 0.0 0.0 0.0 0.0 0.0 0.0 0.0 0.17 0.8 0.03 0.0 0.0 0.0 0.0 0.0 0.0 0.0 0.0 0.42 0.58 0.0 0.0 0.0 0.0 0.0 0.0 0.0 0.0 0.03 0.81 0.16 0.0 0.0 0.0 0.0 0.0 0.0 0.23 0.75 0.02 0.0 0.0 0.0 0.0 0.0 0.0 0.0 0.0 0.45 0.55 0.0 0.0 0.0 0.0 0.0 0.0 0.0 0.0 0.04 0.86 0.1 0.0 0.0 0.0 0.0 0.0 0.0 0.0 0.0 0.24 0.75 0.01 0.0 0.0 0.0 0.17 0.82 0.01 0.0 0.0 0.0 0.0 0.0 0.0 0.0 0.0 0.79 0.21 0.0 0.0 0.0 0.0 0.0 0.0 0.0 0.0 0.26 0.73 0.01 0.0 0.0 0.0 0.0 0.0 0.0 0.0 0.02 0.75 0.23 0.0 0.0 0.0 0.0 0.0 0.0 0.0 0.74 0.26 0.0 0.0 0.0 0.0 0.0 0.0 0.0 0.0 0.21 0.79 0.0 0.0 0.0 0.0 0.0 0.0 0.0 0.0 0.02 0.81 0.17 0.0 0.0 0.0 0.0 0.0 0.0 0.0 0.0 0.28 0.72 0.0 0.0 0.0 0.0 0.0 0.0 0.0 0.26 0.73 0.01 0.0 0.0 0.0 0.0 0.0 0.0 0.0 0.02 0.72 0.26 0.0 0.0 0.0 0.0 0.0 0.0 0.0 0.0 0.21 0.78 0.01 0.0 0.0 0.0 0.0 0.0 0.0 0.0 0.0 0.83 0.17 0.0 0.0 0.0 0.0 0.0 0.0 0.01 0.81 0.18 0.0 0.0 0.0 0.0 0.0 0.0 0.0 0.0 0.29 0.69 0.02 0.0 0.0 0.0 0.0 0.0 0.0 0.0 0.01 0.72 0.27 0.0 0.0 0.0 0.0 0.0 0.0 0.0 0.0 0.31 0.68 0.01 0.0 0.0 0.0 0.0 0.0 0.73 0.27 0.0 0.0 0.0 0.0 0.0 0.0 0.0 0.0 0.34 0.66 0.0 0.0 0.0 0.0 0.0 0.0 0.0 0.0 0.0 0.86 0.14 0.0 0.0 0.0 0.0 0.0 0.0 0.0 0.0 0.17 0.83 0.0 0.0 0.0 0.0 0.0 0.0 0.0 0.18 0.77 0.05 0.0 0.0 0.0 0.0 0.0 0.0 0.0 0.0 0.84 0.16 0.0 0.0 0.0 0.0 0.0 0.0 0.0 0.0 0.26 0.74 0.0 0.0 0.0 0.0 0.0 0.0 0.0 0.0 0.03 0.73 0.24 0.0 0.0 0.0 0.0 0.0 0.0 0.02 0.79 0.19 0.0 0.0 0.0 0.0 0.0 0.0 0.0 0.0 0.23 0.75 0.02 0.0 0.0 0.0 0.0 0.0 0.0 0.0 0.0 0.83 0.17 0.0 0.0 0.0 0.0 0.0 0.0 0.0 0.0 0.24 0.76 0.0 0.0 0.0 0.0 0.0 0.0 0.0 0.24 0.76 0.0 0.0 0.0 0.0 0.0 0.0 0.0 0.0 0.01 0.77 0.22 0.0 0.0 0.0 0.0 0.0 0.0 0.0 0.0 0.25 0.73 0.02 0.0 0.0 0.0 0.0 0.0 0.0 0.0 0.01 0.77 0.22 0.0 0.0 0.0 0.0 0.0 0.25 0.74 0.01 0.0 0.0 0.0 0.0 0.0 0.0 0.0 0.01 0.8 0.19 0.0 0.0 0.0 0.0 0.0 0.0 0.0 0.0 0.19 0.81 0.0 0.0 0.0 0.0 0.0 0.0 0.0 0.0 0.0 0.74 0.26 0.0 0.0 0.0 0.0 0.0 0.0 0.0 0.78 0.22 0.0 0.0 0.0 0.0 0.0 0.0 0.0 0.0 0.23 0.76 0.01 0.0 0.0 0.0 0.0 0.0 0.0 0.0 0.02 0.72 0.26 0.0 0.0 0.0 0.0 0.0 0.0 0.0 0.0 0.17 0.82 0.01 0.0 0.0 0.0 0.0 0.0 0.0 0.25 0.74 0.01 0.0 0.0 0.0 0.0 0.0 0.0 0.0 0.01 0.76 0.23 0.0 0.0 0.0 0.0 0.0 0.0 0.0 0.0 0.19 0.78 0.03 0.0 0.0 0.0 0.0 0.0 0.0 0.0 0.01 0.83 0.16 0.0 0.0 0.0 0.0 0.0 0.0 0.01 0.74 0.25 0.0 0.0 0.0 0.0 0.0 0.0 0.0 0.0 0.2 0.78 0.02 0.0 0.0 0.0 0.0 0.0 0.0 0.0 0.01 0.76 0.23 0.0 0.0 0.0 0.0 0.0 0.0 0.0 0.0 0.22 0.77 0.01 0.0 0.0 0.0 0.0 0.01 0.73 0.26 0.0 0.0 0.0 0.0 0.0 0.0 0.0 0.0 0.16 0.83 0.01 0.0 0.0 0.0 0.0 0.0 0.0 0.0 0.01 0.76 0.23 0.0 0.0 0.0 0.0 0.0 0.0 0.0 0.0 0.18 0.81 0.01 0.0 0.0 0.0 0.0 0.0 0.0 0.2 0.79 0.01 0.0 0.0 0.0 0.0 0.0 0.0 0.0 0.0 0.79 0.21 0.0 0.0 0.0 0.0 0.0 0.0 0.0 0.0 0.31 0.68 0.01 0.0 0.0 0.0 0.0 0.0 0.0 0.0 0.02 0.71 0.27 0.0 0.0 0.0 0.0 0.0 0.0 0.01 0.71 0.28 0.0 0.0 0.0 0.0 0.0 0.0 0.0 0.0 0.24 0.75 0.01 0.0 0.0 0.0 0.0 0.0 0.0 0.0 0.02 0.81 0.17 0.0 0.0 0.0 0.0 0.0 0.0 0.0 0.0 0.21 0.77 0.02 0.0 0.0 0.0 0.0 0.0 0.0 0.22 0.76 0.02 0.0 0.0 0.0 0.0 0.0 0.0 0.0 0.0 0.71 0.29 0.0 0.0 0.0 0.0 0.0 0.0 0.0 0.0 0.23 0.77 0.0 0.0 0.0 0.0 0.0 0.0 0.0 0.0 0.01 0.72 0.27 0.0 0.0 0.0 0.25 0.73 0.02 0.0 0.0 0.0 0.0 0.0 0.0 0.0 0.01 0.75 0.24 0.0 0.0 0.0 0.0 0.0 0.0 0.0 0.0 0.32 0.66 0.02 0.0 0.0 0.0 0.0 0.0 0.0 0.0 0.04 0.81 0.15 0.0 0.0 0.0 0.0 0.0 0.0 0.02 0.84 0.14 0.0 0.0 0.0 0.0 0.0 0.0 0.0 0.0 0.22 0.77 0.01 0.0 0.0 0.0 0.0 0.0 0.0 0.0 0.02 0.66 0.32 0.0 0.0 0.0 0.0 0.0 0.0 0.0 0.0 0.21 0.77 0.02 0.0 0.0 0.0 0.0 0.0 0.0 0.19 0.79 0.02 0.0 0.0 0.0 0.0 0.0 0.0 0.0 0.0 0.77 0.23 0.0 0.0 0.0 0.0 0.0 0.0 0.0 0.0 0.19 0.81 0.0 0.0 0.0 0.0 0.0 0.0 0.0 0.0 0.0 0.84 0.16 0.0 0.0 0.0 0.0 0.0 0.0 0.01 0.8 0.19 0.0 0.0 0.0 0.0 0.0 0.0 0.0 0.0 0.22 0.77 0.01 0.0 0.0 0.0 0.0 0.0 0.0 0.0 0.0 0.71 0.29 0.0 0.0 0.0 0.0 0.0 0.0 0.0 0.0 0.2 0.8 0.0 0.0 0.0 0.0 0.0 0.02 0.75 0.23 0.0 0.0 0.0 0.0 0.0 0.0 0.0 0.0 0.2 0.79 0.01 0.0 0.0 0.0 0.0 0.0 0.0 0.0 0.01 0.73 0.26 0.0 0.0 0.0 0.0 0.0 0.0 0.0 0.0 0.19 0.8 0.01 0.0 0.0 0.0 0.0 0.0 0.0 0.18 0.81 0.01 0.0 0.0 0.0 0.0 0.0 0.0 0.0 0.0 0.77 0.23 0.0 0.0 0.0 0.0 0.0 0.0 0.0 0.0 0.28 0.72 0.0 0.0 0.0 0.0 0.0 0.0 0.0 0.0 0.0 0.84 0.16 0.0 0.0 0.0 0.0 0.0 0.0 0.0 0.73 0.27 0.0 0.0 0.0 0.0 0.0 0.0 0.0 0.0 0.25 0.75 0.0 0.0 0.0 0.0 0.0 0.0 0.0 0.0 0.0 0.74 0.26 0.0 0.0 0.0 0.0 0.0 0.0 0.0 0.0 0.19 0.81 0.0 0.0 0.0 0.0 0.0 0.0 0.0 0.18 0.82 0.0 0.0 0.0 0.0 0.0 0.0 0.0 0.0 0.03 0.76 0.21 0.0 0.0 0.0 0.0 0.0 0.0 0.0 0.0 0.27 0.72 0.01 0.0 0.0 0.0 0.0 0.0 0.0 0.0 0.0 0.82 0.18 0.0 0.0 0.0 0.0 0.0 0.24 0.73 0.03 0.0 0.0 0.0 0.0 0.0 0.0 0.0 0.0 0.75 0.25 0.0 0.0 0.0 0.0 0.0 0.0 0.0 0.0 0.19 0.8 0.01 0.0 0.0 0.0 0.0 0.0 0.0 0.0 0.01 0.73 0.26 0.0 0.0 0.0 0.0 0.0 0.0 0.01 0.74 0.25 0.0 0.0 0.0 0.0 0.0 0.0 0.0 0.0 0.25 0.73 0.02 0.0 0.0 0.0 0.0 0.0 0.0 0.0 0.01 0.77 0.22 0.0 0.0 0.0 0.0 0.0 0.0 0.0 0.0 0.17 0.82 0.01 0.0 0.0 0.0 0.0 0.0 0.0 0.24 0.75 0.01 0.0 0.0 0.0 0.0 0.0 0.0 0.0 0.01 0.63 0.36 0.0 0.0 0.0 0.0 0.0 0.0 0.0 0.0 0.24 0.75 0.01 0.0 0.0 0.0 0.0 0.0 0.0 0.0 0.0 0.83 0.17 0.0 0.0 0.0 0.0 0.0 0.0 0.0 0.76 0.24 0.0 0.0 0.0 0.0 0.0 0.0 0.0 0.0 0.24 0.74 0.02 0.0 0.0 0.0 0.0 0.0 0.0 0.0 0.01 0.75 0.24 0.0 0.0 0.0 0.0 0.0 0.0 0.0 0.0 0.11 0.88 0.01 0.0 0.0 0.0 0.0 0.01 0.79 0.2 0.0 0.0 0.0 0.0 0.0 0.0 0.0 0.0 0.2 0.78 0.02 0.0 0.0 0.0 0.0 0.0 0.0 0.0 0.0 0.77 0.23 0.0 0.0 0.0 0.0 0.0 0.0 0.0 0.0 0.29 0.69 0.02 0.0 0.0 0.0 0.0 0.0 0.0 0.23 0.77 0.0 0.0 0.0 0.0 0.0 0.0 0.0 0.0 0.01 0.79 0.2 0.0 0.0 0.0 0.0 0.0 0.0 0.0 0.0 0.18 0.82 0.0 0.0 0.0 0.0 0.0 0.0 0.0 0.0 0.03 0.7 0.27 0.0 0.0 0.0 0.0 0.0 0.0 0.01 0.72 0.27 0.0 0.0 0.0 0.0 0.0 0.0 0.0 0.0 0.2 0.8 0.0 0.0 0.0 0.0 0.0 0.0 0.0 0.0 0.0 0.81 0.19 0.0 0.0 0.0 0.0 0.0 0.0 0.0 0.0 0.16 0.82 0.02 0.0 0.0 0.0 0.0 0.0 0.0 0.19 0.8 0.01 0.0 0.0 0.0 0.0 0.0 0.0 0.0 0.02 0.72 0.26 0.0 0.0 0.0 0.0 0.0 0.0 0.0 0.0 0.24 0.75 0.01 0.0 0.0 0.0 0.0 0.0 0.0 0.0 0.02 0.76 0.22 0.0 0.0 0.0 0.0 0.38 0.62 0.0 0.0 0.0 0.0 0.0 0.0 0.0 0.0 0.03 0.73 0.24 0.0 0.0 0.0 0.0 0.0 0.0 0.0 0.0 0.11 0.86 0.03 0.0 0.0 0.0 0.0 0.0 0.0 0.0 0.0 0.51 0.49 0.0 0.0 0.0 0.0 0.0 0.0 0.0 0.72 0.28 0.0 0.0 0.0 0.0 0.0 0.0 0.0 0.0 0.12 0.84 0.04 0.0 0.0 0.0 0.0 0.0 0.0 0.0 0.0 0.45 0.54 0.01 0.0 0.0 0.0 0.0 0.0 0.0 0.0 0.02 0.83 0.15 0.0 0.0 0.0 0.0 0.0 0.0 0.13 0.85 0.02 0.0 0.0 0.0 0.0 0.0 0.0 0.0 0.0 0.59 0.41 0.0 0.0 0.0 0.0 0.0 0.0 0.0 0.0 0.02 0.83 0.15 0.0 0.0 0.0 0.0 0.0 0.0 0.0 0.0 0.24 0.74 0.02 0.0 0.0 0.0 0.0 0.0 0.0 0.58 0.42 0.0 0.0 0.0 0.0 0.0 0.0 0.0 0.0 0.05 0.79 0.16 0.0 0.0 0.0 0.0 0.0 0.0 0.0 0.0 0.29 0.71 0.0 0.0 0.0 0.0 0.0 0.0 0.0 0.0 0.02 0.65 0.33 0.0 0.0 0.0 0.0 0.33 0.64 0.03 0.0 0.0 0.0 0.0 0.0 0.0 0.0 0.0 0.79 0.21 0.0 0.0 0.0 0.0 0.0 0.0 0.0 0.0 0.16 0.83 0.01 0.0 0.0 0.0 0.0 0.0 0.0 0.0 0.0 0.52 0.48 0.0 0.0 0.0 0.0 0.0 0.0 0.06 0.72 0.22 0.0 0.0 0.0 0.0 0.0 0.0 0.0 0.0 0.1 0.87 0.03 0.0 0.0 0.0 0.0 0.0 0.0 0.0 0.0 0.49 0.51 0.0 0.0 0.0 0.0 0.0 0.0 0.0 0.0 0.03 0.78 0.19 0.0 0.0 0.0 0.0 0.0 0.0 0.15 0.83 0.02 0.0 0.0 0.0 0.0 0.0 0.0 0.0 0.0 0.51 0.49 0.0 0.0 0.0 0.0 0.0 0.0 0.0 0.0 0.05 0.78 0.17 0.0 0.0 0.0 0.0 0.0 0.0 0.0 0.0 0.21 0.77 0.02 0.0 0.0 0.0 0.0 0.0 0.0 0.6 0.4 0.0 0.0 0.0 0.0 0.0 0.0 0.0 0.0 0.06 0.85 0.09 0.0 0.0 0.0 0.0 0.0 0.0 0.0 0.0 0.31 0.67 0.02 0.0 0.0 0.0 0.0 0.0 0.0 0.0 0.02 0.65 0.33 0.0 0.0 0.0 0.0 0.41 0.59 0.0 0.0 0.0 0.0 0.0 0.0 0.0 0.0 0.02 0.68 0.3 0.0 0.0 0.0 0.0 0.0 0.0 0.0 0.0 0.1 0.86 0.04 0.0 0.0 0.0 0.0 0.0 0.0 0.0 0.0 0.44 0.56 0.0 0.0 0.0 0.0 0.0 0.0 0.03 0.73 0.24 0.0 0.0 0.0 0.0 0.0 0.0 0.0 0.0 0.11 0.84 0.05 0.0 0.0 0.0 0.0 0.0 0.0 0.0 0.0 0.46 0.54 0.0 0.0 0.0 0.0 0.0 0.0 0.0 0.0 0.04 0.82 0.14 0.0 0.0 0.0 0.0 0.0 0.0 0.14 0.82 0.04 0.0 0.0 0.0 0.0 0.0 0.0 0.0 0.0 0.4 0.6 0.0 0.0 0.0 0.0 0.0 0.0 0.0 0.0 0.06 0.77 0.17 0.0 0.0 0.0 0.0 0.0 0.0 0.0 0.0 0.25 0.75 0.0 0.0 0.0 0.0 0.0 0.0 0.0 0.51 0.49 0.0 0.0 0.0 0.0 0.0 0.0 0.0 0.0 0.02 0.86 0.12 0.0 0.0 0.0 0.0 0.0 0.0 0.0 0.0 0.25 0.75 0.0 0.0 0.0 0.0 0.0 0.0 0.0 0.0 0.0 0.6 0.4 0.0 0.0 0.0 0.0 0.35 0.65 0.0 0.0 0.0 0.0 0.0 0.0 0.0 0.0 0.01 0.74 0.25 0.0 0.0 0.0 0.0 0.0 0.0 0.0 0.0 0.18 0.76 0.06 0.0 0.0 0.0 0.0 0.0 0.0 0.0 0.0 0.57 0.43 0.0 0.0 0.0 0.0 0.0 0.0 0.01 0.75 0.24 0.0 0.0 0.0 0.0 0.0 0.0 0.0 0.0 0.16 0.78 0.06 0.0 0.0 0.0 0.0 0.0 0.0 0.0 0.0 0.56 0.44 0.0 0.0 0.0 0.0 0.0 0.0 0.0 0.0 0.07 0.82 0.11 0.0 0.0 0.0 0.0 0.0 0.0 0.14 0.84 0.02 0.0 0.0 0.0 0.0 0.0 0.0 0.0 0.01 0.5 0.48 0.01 0.0 0.0 0.0 0.0 0.0 0.0 0.0 0.04 0.77 0.19 0.0 0.0 0.0 0.0 0.0 0.0 0.0 0.0 0.27 0.72 0.01 0.0 0.0 0.0 0.0 0.0 0.0 0.54 0.46 0.0 0.0 0.0 0.0 0.0 0.0 0.0 0.0 0.04 0.77 0.19 0.0 0.0 0.0 0.0 0.0 0.0 0.0 0.0 0.3 0.69 0.01 0.0 0.0 0.0 0.0 0.0 0.0 0.0 0.02 0.7 0.28 0.0 0.0 0.0 0.0 0.78 0.22 0.0 0.0 0.0 0.0 0.0 0.0 0.0 0.0 0.21 0.77 0.02 0.0 0.0 0.0 0.0 0.0 0.0 0.0 0.0 0.81 0.19 0.0 0.0 0.0 0.0 0.0 0.0 0.0 0.0 0.2 0.8 0.0 0.0 0.0 0.0 0.0 0.0 0.0 0.24 0.75 0.01 0.0 0.0 0.0 0.0 0.0 0.0 0.0 0.02 0.76 0.22 0.0 0.0 0.0 0.0 0.0 0.0 0.0 0.0 0.24 0.76 0.0 0.0 0.0 0.0 0.0 0.0 0.0 0.0 0.0 0.67 0.33 0.0 0.0 0.0 0.0 0.0 0.0 0.01 0.79 0.2 0.0 0.0 0.0 0.0 0.0 0.0 0.0 0.0 0.19 0.81 0.0 0.0 0.0 0.0 0.0 0.0 0.0 0.0 0.0 0.76 0.24 0.0 0.0 0.0 0.0 0.0 0.0 0.0 0.0 0.25 0.74 0.01 0.0 0.0 0.0 0.0 0.0 0.0 0.28 0.71 0.01 0.0 0.0 0.0 0.0 0.0 0.0 0.0 0.03 0.73 0.24 0.0 0.0 0.0 0.0 0.0 0.0 0.0 0.0 0.19 0.81 0.0 0.0 0.0 0.0 0.0 0.0 0.0 0.0 0.01 0.83 0.16 0.0 0.0 0.0 0.0 0.0 0.23 0.76 0.01 0.0 0.0 0.0 0.0 0.0 0.0 0.0 0.0 0.67 0.33 0.0 0.0 0.0 0.0 0.0 0.0 0.0 0.0 0.24 0.75 0.01 0.0 0.0 0.0 0.0 0.0 0.0 0.0 0.01 0.78 0.21 0.0 0.0 0.0 0.0 0.0 0.0 0.04 0.74 