<?xml version="1.0" encoding="UTF-8"?>
<!-- This network was created in BNBENCH -->
<smile version="1.0" id="bnbench" numsamples="100000" discsamples="100000">
    <nodes>
        <cpt id="AgeGroup">
            <state id="Above5Yr" />
            <state id="Btw2And5Yr" />
            <state id="Btw6MonAnd2Yr" />
            <state id="LessThan6Mon" />
            <probabilities>0.3571429 0.2256236 0.2369615 0.1802721</probabilities>
        </cpt>
        <cpt id="PrevUriKidProbs">
            <state id="Reported" />
            <state id="Unknown" />
            <parents>AgeGroup</parents>
            <probabilities>0.6050572 0.3949428 0.5866466 0.4133534 0.3861406 0.6138594 0.3065606 0.6934394</probabilities>
        </cpt>
        <cpt id="Sex">
            <state id="Female" />
            <state id="Male" />
            <parents>AgeGroup</parents>
            <probabilities>0.8236906 0.1763094 0.8411214 0.1588786 0.7321428 0.2678572 0.3333334 0.6666666</probabilities>
        </cpt>
        <cpt id="Diarrhea">
            <state id="No" />
            <state id="Yes" />
            <parents>AgeGroup</parents>
            <probabilities>0.90127049 0.09872951 0.8616716 0.1383284 0.90751269 0.09248731 0.8855875 0.1144125</probabilities>
        </cpt>
        <cpt id="RespSymp">
            <state id="No" />
            <state id="Yes" />
            <parents>AgeGroup</parents>
            <probabilities>0.7577956 0.2422044 0.76136 0.23864 0.6781407 0.3218593 0.7131535 0.2868465</probabilities>
        </cpt>
        <cpt id="OnAbxEDGroup3">
            <state id="Broader" />
            <state id="Narrow" />
            <state id="No" />
            <parents>AgeGroup PrevUriKidProbs</parents>
            <probabilities>0.1333634 0.159944 0.7066926 0.04914968 0.09858177 0.85226856 0.09622498 0.1891562 0.71461881 0.09167166 0.09149233 0.81683601 0.1556267 0.218756 0.6256173 0.0588508 0.1137224 0.8274268 0.1447284 0.1779251 0.6773465 0.05428144 0.07009359 0.87562497</probabilities>
        </cpt>
        <cpt id="CollMethod">
            <state id="Catheter" />
            <state id="CleanCatch" />
            <state id="SupraAsp" />
            <parents>AgeGroup PrevUriKidProbs</parents>
            <probabilities>0.1614931 0.78787742 0.05062947 0.07417507 0.85411537 0.07170957 0.31271831 0.60390662 0.08337506 0.1518014 0.7391398 0.1090588 0.46663869 0.44112309 0.09223823 0.31201159 0.62511058 0.06287783 0.529854 0.3495778 0.1205682 0.62135782 0.29348441 0.08515777</probabilities>
        </cpt>
        <cpt id="GramPosPresence">
            <state id="High" />
            <state id="Low" />
            <parents>AgeGroup Diarrhea OnAbxEDGroup3 PrevUriKidProbs Sex</parents>
            <probabilities>0.3604302 0.6395698 0.449951 0.550049 0.4067219 0.5932781 0.3592 0.6408 0.3788275 0.6211725 0.3933704 0.6066296 0.3889821 0.6110179 0.380304 0.619696 0.3922243 0.6077757 0.4358809 0.5641191 0.3616837 0.6383163 0.5477263 0.4522737 0.4930578 0.5069422 0.4528156 0.5471844 0.4384229 0.5615771 0.391 0.609 0.5029056 0.4970944 0.4636953 0.5363047 0.4494441 0.5505559 0.4062991 0.5937009 0.5879744 0.4120256 0.5321283 0.4678717 0.5269635 0.4730365 0.4901271 0.5098729 0.470003 0.529997 0.4509414 0.5490586 0.4530426 0.5469574 0.4469601 0.5530399 0.4775523 0.5224477 0.4159318 0.5840682 0.4679924 0.5320076 0.4005269 0.5994731 0.5202287 0.4797713 0.6173377 0.3826623 0.4847548 0.5152452 0.4187947 0.5812053 0.5392332 0.4607668 0.4929558 0.5070442 0.4836703 0.5163297 0.4414944 0.5585056 0.5517026 0.4482974 0.5057561 0.4942439 0.498661 0.501339 0.4487819 0.5512181 0.6144035 0.3855965 0.5926585 0.4073415 0.5681903 0.4318097 0.5159469 0.4840531 0.5057789 0.4942211 0.4809013 0.5190987 0.4892412 0.5107588 0.4388136 0.5611864 0.4962111 0.5037889 0.4628796 0.5371204 0.478045 0.521955 0.4238612 0.5761388 0.4963896 0.5036104 0.4167295 0.5832705 0.2975767 0.7024233 0.495051 0.504949 0.5793297 0.4206703 0.5336686 0.4663314 0.5223956 0.4776044 0.474014 0.525986 0.5931645 0.4068355 0.5464651 0.4535349 0.5358434 0.4641566 0.4872179 0.5127821 0.6639118 0.3360882 0.6168588 0.3831412 0.5936143 0.4063857 0.5625246 0.4374754 0.5850794 0.4149206 0.5446486 0.4553514 0.5233567 0.4766433 0.4770768 0.5229232 0.5996419 0.4003581 0.5667201 0.4332799 0.5248533 0.4751467 0.4919124 0.5080876 0.6073071 0.3926929 0.6957627 0.3042373 0.4661115 0.5338885 0.3360302 0.6639698 0.617298 0.382702 0.5714559 0.4285441 0.5582682 0.4417318 0.5103885 0.4896115 0.6316864 0.3683136 0.5861223 0.4138777 0.5722342 0.4277658 0.5253646 0.4746354 0.6963524 0.3036476 0.6643223 0.3356777 0.6378717 0.3621283 0.5751835 0.4248165</probabilities>
        </cpt>
        <cpt id="OtherGramNegPresence">
            <state id="High" />
            <state id="Low" />
            <parents>AgeGroup Diarrhea OnAbxEDGroup3 PrevUriKidProbs Sex</parents>
            <probabilities>0.3381704 0.6618296 0.4536709 0.5463291 0.3892234 0.6107766 0.351 0.649 0.4702411 0.5297589 0.4139651 0.5860349 0.3832704 0.6167296 0.3596635 0.6403365 0.1156134 0.8843866 0.4380048 0.5619952 0.1139824 0.8860176 0.3381595 0.6618405 0.5205047 0.4794953 0.4901604 0.5098396 0.4752535 0.5247465 0.434 0.566 0.5378013 0.4621987 0.5005702 0.4994298 0.4859123 0.5140877 0.4463606 0.5536394 0.5154963 0.4845037 0.5543863 0.4456137 0.4669085 0.5330915 0.4995569 0.5004431 0.4669896 0.5330104 0.4289708 0.5710292 0.4264815 0.5735185 0.3704588 0.6295412 0.3756744 0.6243256 0.4005375 0.5994625 0.4392224 0.5607776 0.3917941 0.6082059 0.2108444 0.7891556 0.4590991 0.5409009 0.1628476 0.8371524 0.3720549 0.6279451 0.5652421 0.4347579 0.5224092 0.4775908 0.5139222 0.4860778 0.4699119 0.5300881 0.5597294 0.4402706 0.5337913 0.4662087 0.5269141 0.4730859 0.4850786 0.5149214 0.5552892 0.4447108 0.5939631 0.4060369 0.4939296 0.5060704 0.5369383 0.4630617 0.4677591 0.5322409 0.4565629 0.5434371 0.4622985 0.5377015 0.4222792 0.5777208 0.4574116 0.5425884 0.4313968 0.5686032 0.4503419 0.5496581 0.3954197 0.6045803 0.3262941 0.6737059 0.4085972 0.5914028 0.1951936 0.8048064 0.3469103 0.6530897 0.5959241 0.4040759 0.5577751 0.4422249 0.5479919 0.4520081 0.506755 0.493245 0.6073721 0.3926279 0.5678168 0.4321832 0.5592214 0.4407786 0.5167583 0.4832417 0.6543811 0.3456189 0.628228 0.371772 0.592119 0.407881 0.5718608 0.4281392 0.5453786 0.4546214 0.4952832 0.5047168 0.4935279 0.5064721 0.4519204 0.5480796 0.5581382 0.4418618 0.4713515 0.5286485 0.5028517 0.4971483 0.4644248 0.5355752 0.591066 0.408934 0.3429345 0.6570655 0.288912 0.711088 0.2577405 0.7422595 0.6291978 0.3708022 0.588204 0.411796 0.5788489 0.4211511 0.5375822 0.4624178 0.6414852 0.3585148 0.5978346 0.4021654 0.5915844 0.4084156 0.5505439 0.4494561 0.6996766 0.3003234 0.635827 0.364173 0.6236012 0.3763988 0.5808783 0.4191217</probabilities>
        </cpt>
        <cpt id="Epithelials">
            <state id="Low" />
            <state id="Moderate" />
            <parents>AgeGroup CollMethod Sex</parents>
            <probabilities>0.642297 0.357703 0.6318324 0.3681676 0.832635 0.167365 0.7803644 0.2196356 0.550497 0.449503 0.50811 0.49189 0.7611845 0.2388155 0.5312842 0.4687158 0.840191 0.159809 0.655288 0.344712 0.5719205 0.4280795 0.5202546 0.4797454 0.8548888 0.1451112 0.636887 0.363113 0.7430115 0.2569885 0.7395702 0.2604298 0.5196664 0.4803336 0.5281926 0.4718074 0.7884668 0.2115332 0.7408762 0.2591238 0.6776774 0.3223226 0.7418468 0.2581532 0.5060858 0.4939142 0.5932538 0.4067462</probabilities>
        </cpt>
        <cpt id="ContaminationRisk">
            <state id="High" />
            <state id="Low" />
            <parents>AgeGroup CollMethod Diarrhea Sex</parents>
            <probabilities>0.3098 0.6902 0.2282772 0.7717228 0.5044 0.4956 0.4072 0.5928 0.5532 0.4468 0.4555 0.5445 0.7403 0.2597 0.6539 0.3461 0.2426 0.7574 0.1714 0.8286 0.4252 0.5748 0.3319 0.6681 0.3954 0.6046 0.3044 0.6956 0.5954 0.4046 0.4983 0.5017 0.6424 0.3576 0.5472 0.4528 0.8106 0.1894 0.7352 0.2648 0.3208 0.6792 0.2378 0.7622 0.5166 0.4834 0.4192 0.5808 0.4738 0.5262 0.3777 0.6223 0.6708 0.3292 0.5774 0.4226 0.7144 0.2856 0.625 0.375 0.8616 0.1384 0.7975 0.2025 0.3954 0.6046 0.3044 0.6956 0.5954 0.4046 0.4983 0.5017 0.5472 0.4528 0.4494 0.5506 0.7352 0.2648 0.6482 0.3518 0.7746 0.2254 0.693 0.307 0.9001 0.0999 0.8469 0.1531 0.4677 0.5323 0.3719 0.6281 0.6652 0.3348 0.5714 0.4286</probabilities>
        </cpt>
        <cpt id="EcoliPresence">
            <state id="High" />
            <state id="Low" />
            <parents>AgeGroup Diarrhea OnAbxEDGroup3 PrevUriKidProbs Sex</parents>
            <probabilities>0.5736133 0.4263867 0.5924248 0.4075752 0.5838765 0.4161235 0.5466 0.4534 0.5971779 0.4028221 0.5006485 0.4993515 0.6638692 0.3361308 0.5595657 0.4404343 0.728392 0.271608 0.659708 0.340292 0.4796598 0.5203402 0.60835 0.39165 0.7308681 0.2691319 0.6855334 0.3144666 0.6747546 0.3252454 0.6309 0.3691 0.7428129 0.2571871 0.6918447 0.3081553 0.6948855 0.3051145 0.6446836 0.3553164 0.7936869 0.2063131 0.7687167 0.2312833 0.761018 0.238982 0.7122233 0.2877767 0.6738429 0.3261571 0.6637066 0.3362934 0.6247172 0.3752828 0.5703917 0.4296083 0.7240974 0.2759026 0.563965 0.436035 0.6385223 0.3614777 0.5662411 0.4337589 0.6750953 0.3249047 0.6964095 0.3035905 0.6496744 0.3503256 0.7639949 0.2360051 0.7712364 0.2287636 0.7322935 0.2677065 0.7164117 0.2835883 0.6703961 0.3296039 0.7893746 0.2106254 0.734624 0.265376 0.7303541 0.2696459 0.6833517 0.3166483 0.8318413 0.1681587 0.8057701 0.1942299 0.7962722 0.2037278 0.7661166 0.2338834 0.726242 0.273758 0.6354084 0.3645916 0.6611504 0.3388496 0.6321532 0.3678468 0.7518438 0.2481562 0.7075785 0.2924215 0.6753245 0.3246755 0.6634553 0.3365447 0.8186596 0.1813404 0.6628587 0.3371413 0.8333904 0.1666096 0.797604 0.202396 0.8055256 0.1944744 0.7618282 0.2381718 0.7524072 0.2475928 0.7088704 0.2911296 0.8194717 0.1805283 0.7778259 0.2221741 0.7661806 0.2338194 0.7237862 0.2762138 0.8772898 0.1227102 0.8391265 0.1608735 0.8256503 0.1743497 0.793644 0.206356 0.7497272 0.2502728 0.7329206 0.2670794 0.6894951 0.3105049 0.6502374 0.3497626 0.7634417 0.2365583 0.7347929 0.2652071 0.6772046 0.3227954 0.6644846 0.3355154 0.8654534 0.1345466 0.840637 0.159363 0.8289211 0.1710789 0.8593235 0.1406765 0.8350009 0.1649991 0.7970604 0.2029396 0.7842902 0.2157098 0.7415151 0.2584849 0.8468071 0.1531929 0.8084936 0.1915064 0.7957538 0.2042462 0.7551429 0.2448571 0.90127468 0.09872532 0.868909 0.131091 0.8609226 0.1390774 0.8277447 0.1722553</probabilities>
        </cpt>
        <cpt id="CauseUTI">
            <state id="EColi" />
            <state id="GramPos" />
            <state id="None" />
            <state id="OtherGramNeg" />
            <parents>AgeGroup EcoliPresence GramPosPresence OtherGramNegPresence PrevUriKidProbs</parents>
            <probabilities>0.3236229 0.2740476 0.04028531 0.3620442 0.1971201 0.1813089 0.4101831 0.211388 0.5117888 0.4550776 0.03313176 1.823437e-06 0.2561848 0.4878992 0.2559135 2.420297e-06 0.4478193 2.557133e-06 0.04169083 0.5104874 0.2959753 4.706639e-06 0.4057596 0.2982604 0.842461 4.012749e-07 0.1575381 4.781488e-07 0.7158274 1.06483e-06 0.2841707 8.455885e-07 1.079089e-05 0.4265516 0.03776935 0.5356683 1.191438e-05 0.2869263 0.410355 0.3027068 4.282411e-06 0.9703338 0.02965879 3.167809e-06 7.785912e-06 0.6874231 0.3125657 3.431719e-06 1.348128e-05 7.215545e-06 0.03932796 0.9606513 1.171504e-05 8.200971e-06 0.445358 0.5546221 8.632362e-06 5.340317e-06 0.9999803 5.741816e-06 6.683154e-06 6.22597e-06 0.9999848 2.291618e-06 0.3302381 0.2620467 0.1079158 0.2997993 0.2008255 0.1623743 0.4374906 0.1993095 0.4590295 0.4801258 0.06084206 2.575497e-06 0.3497327 0.3961811 0.2540833 2.880722e-06 0.4666333 6.961307e-06 0.1144 0.4189598 0.3002697 2.80128e-06 0.4282629 0.2714646 0.9250894 2.566843e-06 0.07490582 2.238939e-06 0.7537693 1.2052e-06 0.2462279 1.600131e-06 1.223664e-05 0.4132202 0.1123293 0.4744383 1.269923e-05 0.2363509 0.4623983 0.3012381 6.644995e-06 0.9257778 0.07421214 3.444469e-06 1.053789e-06 0.6783848 0.3216135 6.918047e-07 7.84341e-06 4.200459e-06 0.1261446 0.8738433 5.631008e-06 4.106382e-06 0.4713388 0.5286515 1.091797e-05 8.910402e-06 0.9999723 7.86217e-06 1.002879e-05 9.449901e-06 0.9999766 3.935659e-06 0.3110199 0.1879165 0.2267863 0.2742772 0.204012 0.1385626 0.4998925 0.1575329 0.5362699 0.3121975 0.1515272 5.377482e-06 0.5745398 0.1312646 0.2941943 1.290686e-06 0.4246929 8.390643e-06 0.2186043 0.3566944 0.3292885 7.941661e-06 0.484843 0.1858606 0.8787592 3.860703e-06 0.1212326 4.320731e-06 0.8036389 5.319516e-07 0.1963602 4.253505e-07 1.359516e-05 0.3171157 0.2405 0.4423706 1.173386e-05 0.1953612 0.554017 0.2506101 1.3314e-06 0.7522445 0.2477531 1.021363e-06 1.356539e-05 0.5086363 0.4913423 7.86883e-06 1.244953e-06 1.031305e-06 0.2421117 0.757886 1.2714e-06 1.047045e-06 0.5610016 0.4389961 8.351282e-07 6.727815e-07 0.9999978 6.781195e-07 1.350244e-05 9.900867e-06 0.9999724 4.237576e-06 0.34991 0.2220898 0.1778057 0.2501945 0.1943385 0.1199552 0.5205683 0.165138 0.3638159 0.5177222 0.1184573 4.568064e-06 0.4361722 0.2671946 0.2966319 1.355736e-06 0.4189623454 1.00916e-05 0.1922215208 0.3888060421 0.2888214 7.125832e-06 0.5080529 0.2031185 0.8430378 5.8e-06 0.15695 6.343827e-06 0.806772 5.89907e-07 0.1932269 5.34179e-07 1.399559e-05 0.3421442 0.217202 0.4406399 1.18077e-05 0.1947715985 0.5398912958 0.265325298 1.163644e-06 0.7982616 0.2017362 9.814372e-07 1.089082e-05 0.5174092 0.4825723 7.632409e-06 1.220663e-06 1.121585e-06 0.2200985 0.7798992 1.182458e-06 1.025606e-06 0.5448 0.4551978 1.339322e-05 1.207691e-05 0.9999625 1.200541e-05 1.079151e-05 1.005746e-05 0.9999743 4.898736e-06</probabilities>
        </cpt>
        <cpt id="Urin_Nitrite">
            <state id="Detected" />
            <state id="NotDetected" />
            <parents>CauseUTI EcoliPresence OtherGramNegPresence</parents>
            <probabilities>0.4868929 0.5131071 0.5669629 0.4330371 0.4999981 0.5000019 0.4999977 0.5000023 0.187306 0.812694 0.06757581 0.93242419 0.2181737 0.7818263 0.003605297 0.996394703 0.1299301 0.8700699 0.4275334 0.5724666 0.03729744 0.96270256 0.001956922 0.998043078 0.5293829 0.4706171 0.5000005 0.4999995 0.5033167 0.4966833 0.5 0.5</probabilities>
        </cpt>
        <cpt id="WCCLevel">
            <state id="Above18" />
            <state id="Below10" />
            <state id="Btw10And18" />
            <state id="NotDone" />
            <parents>AgeGroup CauseUTI</parents>
            <probabilities>0.09460728 0.04136072 0.1073516 0.7566804 0.02781356 0.1189189 0.05321838 0.80004917 0.001638205 0.071496269 0.02336164 0.903503886 0.0624091 0.1626583 0.3524773 0.4224553 0.0900035 0.0191707 0.05232585 0.83849996 0.02595333 0.0264475 0.07888048 0.86871869 0.003235063 0.087425869 0.03625318 0.873085889 0.08413908 0.08351835 0.08540028 0.74694229 0.11410909 0.05008559 0.11295749 0.72284783 0.132815 0.2254063 0.1418216 0.4999571 0.002715934 0.141949712 0.054772285 0.800562069 0.174096 0.2264456 0.2593607 0.3400976 0.206084 0.1032993 0.3672219 0.3233948 0.08561175 0.08482215 0.4010866 0.4284795 0.004187371 0.1799415 0.08913703 0.726734099 0.1776183 0.1753699 0.2771395 0.3698724</probabilities>
        </cpt>
        <cpt id="GramPos">
            <state id="Negative" />
            <state id="Positive" />
            <parents>CauseUTI ContaminationRisk GramPosPresence OnAbxEDGroup3</parents>
            <probabilities>0.7151093 0.2848907 0.7177785 0.2822215 0.6884394 0.3115606 0.92562919 0.07437081 0.97058426 0.02941574 0.992752601 0.007247399 0.8806399 0.1193601 0.91789916 0.08210084 0.96853111 0.03146889 0.9262726 0.0737274 0.96662513 0.03337487 0.991623089 0.008376911 0.6198157 0.3801843 0.5832492 0.4167508 0.7022324 0.2977676 0.7499996 0.2500004 0.6500006 0.3499994 0.1500029 0.8499971 0.7746201 0.2253799 0.7169073 0.2830927 0.6945409 0.3054591 0.7999996 0.2000004 0.7000004 0.2999996 0.2000031 0.7999969 0.7629825 0.2370175 0.680646 0.319354 0.2605842 0.7394158 0.96339016 0.03660984 0.96636355 0.03363645 0.98398277 0.01601723 0.90564403 0.09435597 0.91235615 0.08764385 0.93592819 0.06407181 0.96085357 0.03914643 0.96849857 0.03150143 0.98205597 0.01794403 0.7517737 0.2482263 0.6660658 0.3339342 0.157911 0.842089 0.95069551 0.04930449 0.95723695 0.04276305 0.95407492 0.04592508 0.90196844 0.09803156 0.90692139 0.09307861 0.91494301 0.08505699 0.95192742 0.04807258 0.95824626 0.04175374 0.9623587 0.0376413</probabilities>
        </cpt>
        <cpt id="Urin_LeucEst">
            <state id="High" />
            <state id="Low" />
            <state id="Moderate" />
            <state id="NotDetected" />
            <parents>AgeGroup CauseUTI</parents>
            <probabilities>0.56919429 0.1359422 0.27111249 0.02375102 0.63302311 0.06923664 0.28615571 0.01158454 0.14068449 0.26861588 0.06440406 0.52629557 0.39181655 0.15814968 0.36686416 0.08316961 0.54829651 0.2129674 0.2273797 0.01135639 0.18378619 0.30921968 0.43074148 0.07625265 7.874399e-07 0.3141463 0.05464857 0.6312043 0.45158212 0.16432781 0.34063662 0.04345345 0.42346157 0.18830579 0.35634848 0.03188416 0.2902087 0.1953392 0.4132935 0.1011585 6.657462e-07 0.4010779 1.650888e-06 0.5989197 0.43576989 0.150822 0.36816529 0.04524282 0.41111439 0.1367987 0.42279679 0.02929012 0.3093561 0.1645174 0.3630984 0.1630281 1.109145e-06 0.1248996 3.902557e-06 0.8750954 0.44594181 0.1363049 0.37295591 0.04479738</probabilities>
        </cpt>
        <cpt id="OtherGramNeg">
            <state id="Negative" />
            <state id="Positive" />
            <parents>CauseUTI ContaminationRisk OnAbxEDGroup3 OtherGramNegPresence</parents>
            <probabilities>0.7445958 0.2554042 0.9311116 0.0688884 0.6949275 0.3050725 0.9697681 0.0302319 0.419476 0.580524 0.993978505 0.006021495 0.90031569 0.09968431 0.9400851 0.0599149 0.90977996 0.09022004 0.96434328 0.03565672 0.94518654 0.05481346 0.992985256 0.007014744 0.7471638 0.2528362 0.94868252 0.05131748 0.6457185 0.3542815 0.94769554 0.05230446 0.1627396 0.8372604 0.98220679 0.01779321 0.90069564 0.09930436 0.95092 0.04908 0.8970095 0.1029905 0.94485213 0.05514787 0.8854697 0.1145303 0.95567987 0.04432013 0.7369339 0.2630661 0.94494871 0.05505129 0.6846799 0.3153201 0.96603869 0.03396131 0.1372526 0.8627474 0.98474255 0.01525745 0.891661 0.108339 0.94018372 0.05981628 0.9150147 0.0849853 0.96777008 0.03222992 0.91352749 0.08647251 0.98600672 0.01399328 0.6152284 0.3847716 0.7499996 0.2500004 0.531386 0.468614 0.65 0.35 0.09394415 0.90605585 0.1500015 0.8499985 0.7668806 0.2331194 0.7999995 0.2000005 0.6667082 0.3332918 0.6999996 0.3000004 0.3901411 0.6098589 0.2000026 0.7999974</probabilities>
        </cpt>
        <cpt id="Urin_Leuc">
            <state id="High" />
            <state id="Low" />
            <state id="Moderate" />
            <parents>AgeGroup CauseUTI</parents>
            <probabilities>0.879142417 0.007989881 0.112867702 0.89360504 0.01122585 0.09516911 0.00250801 0.46161365 0.53587834 0.73266576 0.02728675 0.24004749 0.913643045 0.009443569 0.076913385 0.46989999 0.04291263 0.48718739 1.549469e-06 0.7405279 0.2594706 0.75692371 0.04205579 0.2010205 0.891505398 0.006675502 0.1018191 0.74418789 0.03425742 0.2215547 4.925082e-05 0.5956735 0.4042773 0.77046835 0.04419977 0.18533189 0.76377332 0.01073768 0.225489 0.6038221 0.1503863 0.2457916 0.036202859 0.963178577 0.000618564 0.76169843 0.04487326 0.19342831</probabilities>
        </cpt>
        <cpt id="UltraSound">
            <state id="Abnormal" />
            <state id="NotDone" />
            <state id="Unknown" />
            <parents>AgeGroup CauseUTI PrevUriKidProbs</parents>
            <probabilities>0.1427391 0.77427522 0.08298568 0.2025566 0.6421001 0.1553432 0.1926365 0.6916677 0.1156958 0.1959288 0.6755019 0.1285693 0.03201173 0.76797695 0.20001131 0.00293227 0.80680792 0.19025981 0.4299968 0.3898731 0.1801301 0.3167644 0.3603645 0.3228711 0.2781383 0.6038837 0.117978 0.1527549 0.7219464 0.1252987 0.1270508 0.7479923 0.1249569 0.2007742 0.6054348 0.193791 0.09117034 0.58557278 0.32325689 0.06017026 0.63872683 0.30110291 0.28225 0.3683005 0.3494495 0.3310371 0.3372591 0.3317038 0.3128027 0.5740973 0.1131 0.169032 0.7058177 0.1251503 0.3010951 0.4363841 0.2625208 0.3510602 0.3783378 0.270602 0.0580594 0.6163929 0.3255477 0.08133441 0.65458419 0.2640814 0.4083915 0.3026793 0.2889292 0.3225308 0.3487635 0.3287057 0.5099099 0.2580334 0.2320567 0.4119398 0.294475 0.2935851 0.2533597 0.4625814 0.2840589 0.3086839 0.3199892 0.3713269 0.09935785 0.36863942 0.53200273 0.004546584 0.64597661 0.349476806 0.3416125 0.3336982 0.3246893 0.3040551 0.3083892 0.3875557</probabilities>
        </cpt>
        <cpt id="Microscopy_bacts">
            <state id="Few" />
            <state id="Many" />
            <state id="Moderate" />
            <state id="NotSeen" />
            <parents>CauseUTI ContaminationRisk EcoliPresence GramPosPresence OnAbxEDGroup3 OtherGramNegPresence</parents>
            <probabilities>0.1437734 0.1169521 0.1412478 0.5980267 0.1418121 0.1228598 0.1386406 0.5966875 0.190037 0.1674771 0.1492956 0.4931902 0.1703639 0.195461 0.1423706 0.4918045 0.10299781 0.51907563 0.28524362 0.09268295 0.1151722 0.5091041 0.2463768 0.1293469 0.1481301 0.1067348 0.1414314 0.6037037 0.1417698 0.1195007 0.1331836 0.6055459 0.1806697 0.1802896 0.1486417 0.4903991 0.1300907 0.2849952 0.1270294 0.4578847 0.10478469 0.51833547 0.28744548 0.08943435 0.14426649 0.56550966 0.22284438 0.06737947 0.15 0.1000008 0.15 0.5999991 0.1500004 0.1000006 0.15 0.599999 0.2 0.1500006 0.1500004 0.499999 0.2 0.1500004 0.15 0.4999995 0.1000007 0.4999989 0.2999999 0.1000005 0.1000007 0.4999989 0.2999996 0.1000008 0.1500005 0.1000005 0.15 0.599999 0.1500004 0.1000006 0.15 0.599999 0.2 0.1500004 0.1500006 0.4999989 0.2 0.1500004 0.15 0.4999995 0.1000008 0.4999988 0.3 0.1000005 0.1000008 0.4999991 0.2999995 0.1000006 0.1469058 0.1137644 0.1436425 0.5956873 0.1454436 0.1149671 0.1403518 0.5992375 0.1878897 0.1733436 0.1463735 0.4923932 0.1735583 0.2000601 0.1398901 0.4864916 0.10383599 0.51287845 0.29068027 0.09260528 0.09408741 0.5445596 0.2763018 0.08505119 0.1479619 0.1099531 0.1418519 0.6002331 0.1440973 0.1196183 0.133496 0.6027884 0.1802758 0.1830541 0.14473 0.4919401 0.1443914 0.2653517 0.1270708 0.463186 0.1032229 0.4983408 0.2972649 0.1011714 0.09188297 0.50632792 0.27446341 0.1273257 0.1500004 0.1000008 0.15 0.5999988 0.1500004 0.1000006 0.1500004 0.5999986 0.2 0.1500007 0.1500004 0.499999 0.2 0.1500004 0.1500004 0.4999992 0.1000007 0.4999989 0.2999999 0.1000005 0.1000006 0.4999988 0.3 0.1000007 0.1500005 0.1000006 0.15 0.5999989 0.1500005 0.1000006 0.15 0.5999989 0.2 0.1500005 0.1500005 0.499999 0.2 0.1500005 0.1500004 0.4999992 0.1000006 0.4999989 0.3 0.1000006 0.1000006 0.4999989 0.2999995 0.100001 0.1553364 0.09901643 0.1483854 0.59726178 0.16958089 0.09722017 0.14566649 0.58753245 0.1981636 0.1510112 0.1523426 0.4984826 0.1871614 0.1488866 0.147409 0.516543 0.1170937 0.4869216 0.2926045 0.1033802 0.3873995 0.2593496 0.1505819 0.2026691 0.1500005 0.1000006 0.1500004 0.5999985 0.1500005 0.1000006 0.1500004 0.5999985 0.2 0.1500004 0.1500004 0.4999991 0.2 0.1500004 0.1500004 0.4999992 0.1000009 0.4999985 0.3 0.1000007 0.1000017 0.4999982 0.2999994 0.1000006 0.1559376 0.09883501 0.1482291 0.59699829 0.18098262 0.09558262 0.14349251 0.57994225 0.1986852 0.1495383 0.1570677 0.4947088 0.1852782 0.1486351 0.1561481 0.5099386 0.1568343 0.4669875 0.276474 0.09970421 0.06507161 0.1959088 0.1623766 0.57664299 0.1500006 0.1000006 0.15 0.5999988 0.1500008 0.1000005 0.15 0.5999987 0.2 0.1500004 0.1500006 0.4999989 0.2 0.15 0.1500005 0.4999994 0.1000009 0.4999986 0.3 0.1000006 0.1000011 0.4999965 0.3000005 0.1000018 0.154569 0.09860428 0.1475503 0.59927641 0.16677319 0.09609186 0.14352139 0.59361356 0.1948335 0.148781 0.1516523 0.5047332 0.1834542 0.1429461 0.15204 0.5215597 0.1034654 0.462145 0.3020253 0.1323643 0.06491694 0.20715369 0.18479719 0.54313218 0.1500005 0.1000006 0.1500004 0.5999985 0.1500004 0.1000006 0.1500004 0.5999986 0.2 0.15 0.1500005 0.4999994 0.2000001 0.1500001 0.1500001 0.4999998 0.1000006 0.4999983 0.3 0.100001 0.1000006 0.4999982 0.3 0.1000011 0.15489459 0.09845564 0.14752129 0.59912848 0.17588539 0.09376673 0.1403445 0.59000338 0.196052 0.1492234 0.1554172 0.4993075 0.1836139 0.1445626 0.1700554 0.5017681 0.1068679 0.4786614 0.2992719 0.1151988 0.0880345 0.234543 0.2055302 0.4718923 0.1500005 0.1000006 0.15 0.5999989 0.1500008 0.1000005 0.15 0.5999987 0.2 0.1500004 0.1500006 0.4999989 0.2 0.15 0.1500006 0.4999993 0.1000007 0.4999987 0.3 0.1000007 0.1000011 0.4999968 0.3000005 0.1000016 0.14773061 0.09904876 0.14726851 0.60595212 0.1484692 0.1040144 0.1481858 0.5993306 0.1939873 0.1470627 0.1454915 0.5134585 0.1943343 0.1513136 0.1457514 0.5086007 0.1956052 0.3906274 0.279559 0.1342084 0.1861466 0.4193383 0.2816835 0.1128317 0.1468134 0.09926059 0.1462585 0.60766751 0.1367182 0.1680065 0.1364284 0.5588469 0.1913619 0.1455657 0.1435232 0.5195492 0.1904504 0.1488756 0.1428398 0.5178342 0.2297581 0.3980572 0.2621681 0.1100166 0.1651908 0.3705139 0.3371952 0.1271 0.14851511 0.09877486 0.14813141 0.60457862 0.14872809 0.09885555 0.14827889 0.60413746 0.1960454 0.14705 0.1470354 0.5098692 0.1942126 0.1456621 0.1456607 0.5144646 0.1860162 0.3758701 0.285144 0.1529697 0.1854088 0.3832766 0.2750919 0.1562227 0.14777151 0.09823735 0.14729111 0.60670004 0.123852998 0.008187255 0.040884959 0.827074788 0.1937448 0.1453305 0.1453113 0.5156134 0.17937129 0.03587852 0.07175694 0.71299326 0.1837782 0.3727842 0.3228405 0.120597 0.08459321 0.02689056 0.05012887 0.83838737 0.146993 0.009809447 0.04888595 0.794311602 0.1485708 0.01005704 0.04945207 0.79192009 0.2372559 0.04761971 0.09490399 0.6202204 0.24267799 0.04900583 0.09707252 0.61124366 0.25691441 0.08294566 0.16797761 0.49216232 0.27988841 0.08008058 0.1648458 0.47518521 0.146675295 0.009809084 0.048756648 0.794758973 0.1468443 0.01137617 0.04886375 0.79291578 0.234949 0.04715813 0.09398188 0.62391099 0.2388464 0.04815735 0.09554153 0.61745471 0.24801468 0.07809746 0.15939589 0.51449196 0.24418458 0.06599459 0.22010218 0.46971865 0.148400494 0.009877301 0.049369938 0.792352268 0.14828619 0.009863604 0.049312757 0.792537448 0.2424029 0.04848752 0.09696278 0.6121468 0.24115708 0.04823289 0.09646467 0.61414536 0.2837132 0.0942877 0.1880851 0.433914 0.25175959 0.08325534 0.16103309 0.50395198 0.148084501 0.009853395 0.0492395 0.792822604 0.008304211 0.008249702 0.008240712 0.975205376 0.24018491 0.04804428 0.09607639 0.61569442 0.102606705 0.006841561 0.068415493 0.82213624 0.27830862 0.09219875 0.18353531 0.44595733 0.08385518 0.01592862 0.04462425 0.85559196 0.14856031 0.09925095 0.14869211 0.60349664 0.1500004 0.1000006 0.1500004 0.5999986 0.1955094 0.1509952 0.1487629 0.5047325 0.2 0.1500004 0.1500004 0.4999991 0.1001765 0.5005439 0.3001413 0.0991383 0.1000006 0.4999989 0.3 0.1000006 0.1473593 0.09847243 0.1477683 0.60639998 0.1500004 0.1000006 0.1500004 0.5999986 0.1876821 0.1523151 0.1466474 0.5133554 0.2 0.1500004 0.1500004 0.4999991 0.09815065 0.49867306 0.30497158 0.09820471 0.1000006 0.4999989 0.3 0.1000006 0.1484038 0.09900951 0.1483273 0.60425939 0.1500004 0.1000006 0.1500004 0.5999986 0.1944979 0.1523488 0.1492238 0.5039295 0.2 0.1500004 0.1500004 0.4999991 0.09983983 0.50019403 0.30002362 0.09994253 0.1000006 0.4999989 0.3 0.1000006 0.14626901 0.09744853 0.14607281 0.61020965 0.1500004 0.1000006 0.1500004 0.5999986 0.1801267 0.1587314 0.1468398 0.5143021 0.2 0.1500004 0.1500004 0.4999992 0.1012123 0.498303 0.3004896 0.09999509 0.1000005 0.499999 0.3 0.1000006 0.14668189 0.09792348 0.14668949 0.60870515 0.1500004 0.1000006 0.1500004 0.5999986 0.1927464 0.1511056 0.147073 0.509075 0.2 0.1500004 0.1500004 0.4999991 0.1033713 0.5073786 0.2849636 0.1042865 0.1000006 0.4999989 0.3 0.1000006 0.1442156 0.0962721 0.1442851 0.6152272 0.1500004 0.1000006 0.1500004 0.5999986 0.1841755 0.1513927 0.1433558 0.521076 0.2 0.1500004 0.1500004 0.4999991 0.1059083 0.5160942 0.2707531 0.1072444 0.1000007 0.4999988 0.3 0.1000006 0.14649501 0.09771135 0.14643331 0.60936034 0.1500004 0.1000006 0.1500004 0.5999986 0.1924062 0.1526912 0.1480246 0.506878 0.2 0.1500004 0.1500004 0.4999991 0.1043151 0.4999769 0.2912906 0.1044174 0.1000006 0.4999989 0.3 0.1000006 0.142247 0.0948332 0.1421383 0.6207815 0.15 0.1000007 0.15 0.5999992 0.1788318 0.1566258 0.1437995 0.5207429 0.2 0.1500005 0.1500004 0.4999992 0.1115901 0.5000076 0.2775389 0.1108634 0.1000005 0.499999 0.3 0.1000006</probabilities>
        </cpt>
        <cpt id="EColi">
            <state id="Negative" />
            <state id="Positive" />
            <parents>CauseUTI ContaminationRisk EcoliPresence OnAbxEDGroup3</parents>
            <probabilities>0.6631067 0.3368933 0.3947164 0.6052836 0.05438438 0.94561562 0.75 0.25 0.6499992 0.3500008 0.1500007 0.8499993 0.7726262 0.2273738 0.561973 0.438027 0.05386077 0.94613923 0.7999994 0.2000006 0.6999992 0.3000008 0.1999983 0.8000017 0.7508778 0.2491222 0.6711265 0.3288735 0.1043226 0.8956774 0.9501925 0.0498075 0.95376004 0.04623996 0.96305272 0.03694728 0.90136351 0.09863649 0.90856693 0.09143307 0.9115591 0.0884409 0.95093131 0.04906869 0.95432753 0.04567247 0.95245684 0.04754316 0.7009499 0.2990501 0.6506092 0.3493908 0.1412725 0.8587275 0.9603232 0.0396768 0.96513738 0.03486262 0.97492157 0.02507843 0.90497602 0.09502398 0.90581302 0.09418698 0.8547577 0.1452423 0.96011565 0.03988435 0.96755019 0.03244981 0.96515018 0.03484982 0.7535195 0.2464805 0.6688184 0.3311816 0.159467 0.840533 0.95105142 0.04894858 0.95500651 0.04499349 0.95195549 0.04804451 0.9027032 0.0972968 0.90818332 0.09181668 0.91346626 0.08653374 0.95174631 0.04825369 0.95571609 0.04428391 0.95408534 0.04591466</probabilities>
        </cpt>
        <cpt id="CurrPhenotype">
            <state id="Type1" />
            <state id="Type2" />
            <state id="Type3" />
            <parents>AgeGroup CauseUTI PrevUriKidProbs</parents>
            <probabilities>0.350197209 0.645937417 0.003865373 0.586071762 0.406085643 0.007842596 0.46479528 0.52270688 0.01249784 0.3952429 0.53169801 0.07305909 0.2819953 0.2754623 0.4425424 0.319368 0.1761257 0.5045063 0.57774733 0.41139572 0.01085695 0.50494852 0.47621461 0.01883687 0.530852724 0.463197521 0.005949754 0.467135597 0.525737296 0.007127107 0.54362258 0.37143169 0.08494573 0.5705485 0.2752807 0.1541708 0.395903685 0.006265437 0.597830878 0.344976786 0.005103942 0.649919273 0.46426569 0.44515069 0.09058362 0.4894172 0.4905729 0.02000989 0.75189097 0.15500859 0.09310044 0.885839311 0.109667201 0.004493488 0.48547363 0.49614513 0.01838123 0.4406134 0.4604036 0.09898299 0.4883614 0.0489929 0.4626457 0.4602895 0.1202428 0.4194677 0.51720789 0.46297229 0.01981982 0.50994237 0.47002988 0.02002775 0.583722763 0.406942474 0.009334762 0.654680614 0.339903507 0.005415879 0.33120949 0.60455999 0.06423052 0.40841032 0.57752352 0.01406616 0.01791011 0.01358896 0.96850093 0.0448865 0.3040676 0.6510459 0.49620819 0.48306349 0.02072833 0.4469399 0.450502 0.102558</probabilities>
        </cpt>
        <cpt id="CRPLevel">
            <state id="Above70" />
            <state id="Below15" />
            <state id="Btw15And70" />
            <state id="NotDone" />
            <parents>AgeGroup CauseUTI</parents>
            <probabilities>0.1138179 0.03923932 0.08311296 0.76382982 0.02446469 0.11806711 0.05743942 0.80002878 0.03362488 0.01388196 0.0181546 0.93433856 0.223346 0.1580932 0.1982087 0.4203522 0.07219116 0.01811297 0.07029235 0.83940352 0.02592188 0.05123825 0.05364123 0.86919863 0.003445219 0.096969484 0.00364506 0.895940237 0.08352245 0.08290364 0.08585104 0.74772288 0.11280001 0.03669469 0.12604171 0.72446358 0.1456444 0.1370817 0.1373743 0.5798996 0.02847255 0.09133971 0.05826814 0.8219196 0.2726336 0.1844056 0.1884142 0.3545465 0.2926262 0.1239063 0.2698655 0.313602 0.111232 0.2480565 0.1821622 0.4585492 0.004796519 0.158119305 0.00494375 0.832140426 0.2070484 0.1943218 0.1956082 0.4030216</probabilities>
        </cpt>
        <cpt id="EmpricAbxGroup3">
            <state id="Broader" />
            <state id="Narrow" />
            <parents>AgeGroup CurrPhenotype OnAbxEDGroup3</parents>
            <probabilities>0.6647565 0.3352435 0.4964485 0.5035515 0.2630363 0.7369637 0.5599076 0.4400924 0.5768199 0.4231801 0.3634459 0.6365541 0.446002 0.553998 0.4909066 0.5090934 0.4236562 0.5763438 0.5714748 0.4285252 0.5908017 0.4091983 0.279283 0.720717 0.4997703 0.5002297 0.5436645 0.4563355 0.2634409 0.7365591 0.5056585 0.4943415 0.5090809 0.4909191 0.4203055 0.5796945 0.5313753 0.4686247 0.4715602 0.5284398 0.2952684 0.7047316 0.5454545 0.4545455 0.5 0.5 0.4705883 0.5294117 0.4545455 0.5454545 0.5454545 0.4545455 0.4615385 0.5384615 0.5447669 0.4552331 0.4521011 0.5478989 0.3642437 0.6357563 0.4903875 0.5096125 0.5353819 0.4646181 0.3202206 0.6797794 0.5056896 0.4943104 0.4599859 0.5400141 0.4634579 0.5365421</probabilities>
        </cpt>
        <cpt id="UrinSym_PainOrDiscomf">
            <state id="Unknown" />
            <state id="Yes" />
            <parents>AgeGroup CauseUTI CurrPhenotype</parents>
            <probabilities>0.5625626 0.4374374 0.2488196 0.7511804 0.5005915 0.4994085 0.5385523 0.4614477 0.2359359 0.7640641 0.5796836 0.4203164 0.8096207 0.1903793 0.4174542 0.5825458 0.995848123 0.004151877 0.5713221 0.4286779 0.3886091 0.6113909 0.5002233 0.4997767 0.5204116 0.4795884 0.2826277 0.7173723 0.5010851 0.4989149 0.6263095 0.3736905 0.4216979 0.5783021 0.6065788 0.3934212 0.6589779 0.3410221 0.98966775 0.01033225 0.992731548 0.007268452 0.4825139 0.5174861 0.477174 0.522826 0.5405881 0.4594119 0.8919326 0.1080674 0.5471382 0.4528618 0.4633623 0.5366377 0.5613396 0.4386604 0.5588739 0.4411261 0.4527264 0.5472736 0.97104638 0.02895362 0.99282003 0.00717997 0.990904585 0.009095415 0.5658677 0.4341323 0.4789438 0.5210562 0.4997282 0.5002718 0.8829344 0.1170656 0.7630882 0.2369118 0.5026391 0.4973609 0.5268783 0.4731217 0.697898 0.302102 0.5453903 0.4546097 0.990743393 0.009256607 0.994069544 0.005930456 0.993749366 0.006250634 0.5137112 0.4862888 0.5058388 0.4941612 0.5433177 0.4566823</probabilities>
        </cpt>
        <cpt id="NeutLevel">
            <state id="Above15" />
            <state id="Below8" />
            <state id="Btw8And15" />
            <state id="NotDone" />
            <parents>AgeGroup CauseUTI WCCLevel</parents>
            <probabilities>0.696525174 0.042954888 0.25944439 0.001075547 3.626974e-06 0.8608468 0.1363631 0.002786473 0.007729866 0.170272498 0.821148689 0.000848947 2.666399e-06 2.666399e-06 2.666399e-06 0.999992 0.08778057 0.389515699 0.512955399 0.009748332 8.165834e-06 0.6289118 0.3636506 0.007429441 0.079020144 0.352825416 0.559413726 0.008740714 1.206244e-05 1.206244e-05 1.206244e-05 0.9999638 0.09000699 0.39999313 0.49998933 0.01001055 4.423173e-06 0.9815569 0.0147483 0.003690392 0.017916579 0.198909786 0.778748246 0.004425389 6.632096e-06 6.632096e-06 6.632096e-06 0.9999801 0.045484951 0.195916203 0.753695211 0.004903635 1.740106e-06 0.9541145 0.04496446 0.0009193463 0.2753896066 0.0354675009 0.6884249166 0.0007179759 0.0003267336 0.0003267336 0.0003267336 0.9990197992 0.869756937 0.057249012 0.071560733 0.001433318 6.058955e-06 0.7467379 0.2481851 0.005070937 0.037504969 0.166827193 0.791496169 0.004171669 4.596401e-06 4.596401e-06 4.596401e-06 0.9999862 0.09031 0.39986019 0.49982259 0.01000723 1.097494e-05 0.5011081 0.4888927 0.009988154 0.074499122 0.415734056 0.501481047 0.008285774 1.327699e-05 1.327699e-05 1.327699e-05 0.9999602 0.09000936 0.3999924 0.4999877 0.01001053 9.793906e-06 0.9555868 0.03551685 0.008886556 0.01815201 0.204687801 0.772618102 0.004542087 5.850159e-05 5.850159e-05 5.850159e-05 0.9998245 0.092042102 0.399098911 0.498870813 0.009988173 1.094173e-05 0.5028076 0.4872274 0.009954133 0.022536321 0.349809212 0.625147321 0.002507146 4.9476e-05 4.9476e-05 4.9476e-05 0.999851572 0.5359851027 0.0296274102 0.4336455022 0.0007419849 3.630139e-06 0.8605118 0.1366914 0.002793177 0.0066195921 0.2970842044 0.6955595104 0.0007366931 3.031698e-06 3.031698e-06 3.031698e-06 0.9999909 0.091023411 0.399262762 0.499721553 0.009992273 9.627326e-06 0.562367 0.4288616 0.008761711 0.02955475 0.801550097 0.165607499 0.003287654 5.456014e-05 5.456014e-05 5.456014e-05 0.9998363 0.09006443 0.39996822 0.49995742 0.01000992 2.704549e-06 0.9903328 0.00772997 0.001934521 0.03355831 0.538212496 0.419832697 0.008396498 0.0003147663 0.0003147663 0.0003147663 0.9990557011 0.09447503 0.395858399 0.499759499 0.009907073 4.049575e-06 0.8440758 0.1527979 0.003122291 0.042534351 0.70810511 0.244629503 0.004731036 9.460533e-05 9.460533e-05 9.460533e-05 0.9997162 0.3866301123 0.0182421806 0.594670719 0.0004569881 1.907345e-06 0.9403846 0.05841944 0.001194102 0.0015121881 0.8363315319 0.1619878062 0.0001684739 2.07639e-05 2.07639e-05 2.07639e-05 0.9999377083 0.090122611 0.398567506 0.501335008 0.009974875 1.097024e-05 0.50137 0.4886361 0.009982912 0.0084054131 0.7950383122 0.195621003 0.0009352716 7.916123e-05 7.916123e-05 7.916123e-05 0.9997625 0.09000705 0.3999934 0.499989 0.01001056 5.000939e-06 0.9791478 0.01667479 0.004172449 0.033260872 0.542595128 0.415821922 0.008322078 8.53313e-05 8.53313e-05 8.53313e-05 0.999744 0.090298517 0.398544788 0.501182384 0.009974311 1.099302e-05 0.5003042 0.4896806 0.01000425 0.01230465 0.917697669 0.068628488 0.001369194 0.0009871771 0.0009871771 0.0009871771 0.9970384688</probabilities>
        </cpt>
        <cpt id="TemperatureLvl2">
            <state id="Abv385" />
            <state id="Below365" />
            <state id="Btw365and375" />
            <state id="Btw375and385" />
            <parents>AgeGroup CauseUTI CurrPhenotype RespSymp</parents>
            <probabilities>0.397682 0.1522668 0.1207781 0.3292731 0.1895194 0.2098241 0.2635007 0.3371557 0.1146504 0.49744051 0.29775581 0.09015328 0.2716244 0.2762373 0.2608303 0.191308 0.249728 0.2508157 0.2497281 0.2497282 0.2499762 0.2500713 0.2499762 0.2499762 0.1974068 0.1312539 0.3084726 0.3628668 0.2533023 0.1830875 0.2085771 0.3550332 0.09965489 0.3595788 0.3640968 0.1766695 0.1929344 0.364793 0.2101282 0.2321444 0.2102144 0.3691504 0.2102363 0.2103989 0.2499205 0.2502384 0.2499205 0.2499205 0.2184296 0.2126983 0.3033376 0.2655345 0.150162 0.2458035 0.2198293 0.3842051 0.115518 0.4028663 0.3221041 0.1595117 0.1960561 0.3004957 0.3265508 0.1768973 0.1218303 0.5371652 0.1705494 0.1704551 0.1842642 0.4472074 0.1842642 0.1842642 0.1853756 0.1655072 0.4287653 0.2203519 0.2317641 0.2284825 0.2657604 0.2739931 0.2266957 0.2261522 0.320713 0.226439 0.2258317 0.2298086 0.3185572 0.2258025 0.2499866 0.25004 0.2499867 0.2499867 0.2499018 0.2502946 0.2499018 0.2499018 0.4483188 0.1198247 0.180151 0.2517054 0.2988329 0.1734775 0.3494904 0.1781992 0.0829455 0.3099193 0.5241897 0.0829455 0.2071386 0.2300286 0.3556943 0.2071386 0.2499687 0.2499688 0.2500949 0.2499676 0.2494892 0.2515323 0.2494892 0.2494892 0.1062608 0.2030243 0.3211037 0.3696113 0.2578138 0.3251438 0.2159615 0.2010808 0.1562788 0.4283931 0.2590493 0.1562788 0.2440757 0.2483017 0.2635469 0.2440757 0.2694692 0.1943067 0.3451558 0.1910683 0.2064039 0.3808267 0.2063847 0.2063847 0.2001461 0.3140075 0.3346803 0.151166 0.3804903 0.2651581 0.1771481 0.1772035 0.2491624 0.2525127 0.2491625 0.2491624 0.25 0.25 0.25 0.25 0.2355987 0.3581 0.2364975 0.1698037 0.3135341 0.2385296 0.2239681 0.2239681 0.2382482 0.2454379 0.2428768 0.273437 0.2462913 0.2526441 0.2464253 0.2546394 0.2400439 0.2745669 0.2453452 0.2400439 0.2474698 0.2566912 0.2483692 0.2474698 0.2503837 0.2498756 0.2499033 0.2498374 0.2295924 0.3112228 0.2295924 0.2295924 0.2850041 0.1541281 0.267839 0.2930287 0.1960385 0.2101973 0.3185035 0.2752607 0.2211736 0.3348786 0.2227741 0.2211736 0.2497819 0.249785 0.2506513 0.2497819 0.1984585 0.2539228 0.3491482 0.1984704 0.2427795 0.2716616 0.2427795 0.2427795 0.2393704 0.2349787 0.3067416 0.2189094 0.2526 0.2481903 0.249991 0.2492186 0.2089827 0.3164672 0.2655675 0.2089827 0.2428969 0.2429845 0.2712216 0.2428969 0.2259059 0.3149734 0.2330802 0.2260405 0.2499465 0.2501605 0.2499465 0.2499465 0.1696074 0.2332899 0.4012275 0.1958751 0.1814098 0.3932968 0.1912641 0.2340293 0.182023 0.4539309 0.182023 0.182023 0.245141 0.2645771 0.245141 0.245141 0.2273379 0.2273389 0.2273379 0.3179852 0.25 0.25 0.25 0.25 0.2255685 0.243441 0.2238097 0.3071809 0.2594843 0.2456084 0.2477085 0.2471988 0.2381298 0.2853029 0.2384374 0.2381298 0.2499615 0.2499619 0.2501151 0.2499615 0.2490838 0.2503704 0.2513102 0.2492356 0.2499211 0.2502366 0.2499211 0.2499211 0.1351323 0.1767101 0.1606485 0.5275091 0.1759975 0.2050793 0.3651966 0.2537267 0.1201427 0.2319385 0.5277761 0.1201427 0.179397 0.3441029 0.2369322 0.2395679 0.2486804 0.2486804 0.2539587 0.2486804 0.25 0.25 0.25 0.25 0.2085066 0.3586464 0.2205173 0.2123297 0.2433268 0.2681186 0.2455279 0.2430268 0.1366179 0.480046 0.2467183 0.1366179 0.209966 0.3060772 0.2625172 0.2214396 0.227305 0.227305 0.3180851 0.227305 0.25 0.25 0.25 0.25 0.2281287 0.2285404 0.3151562 0.2281748 0.2499856 0.2500432 0.2499856 0.2499856 0.1544039 0.4301988 0.2609934 0.1544039 0.234248 0.2711501 0.2603539 0.234248 0.1684261 0.1684261 0.4947217 0.1684261 0.2240821 0.2240821 0.3277538 0.2240821 0.2451603 0.2455105 0.2452749 0.2640543 0.2496616 0.2507029 0.2495477 0.2500877 0.2462889 0.2545528 0.2528695 0.2462889 0.2491188 0.2497483 0.2495361 0.2515968 0.2283412 0.2283412 0.3149764 0.2283412 0.25 0.25 0.25 0.25</probabilities>
        </cpt>
        <cpt id="UrinSym_haematuria">
            <state id="Unknown" />
            <state id="Yes" />
            <parents>CauseUTI CurrPhenotype</parents>
            <probabilities>0.96751507 0.03248493 0.8063688 0.1936312 0.6148271 0.3851729 0.8910189 0.1089811 0.7020426 0.2979574 0.7390476 0.2609524 0.9998553588 0.0001446412 0.9997225706 0.0002774294 0.9997292393 0.0002707607 0.7367988 0.2632012 0.467146 0.532854 0.5794187 0.4205813</probabilities>
        </cpt>
        <cpt id="UrinSym_smelly">
            <state id="Unknown" />
            <state id="Yes" />
            <parents>AgeGroup CauseUTI CurrPhenotype</parents>
            <probabilities>0.7995696 0.2004304 0.8239251 0.1760749 0.5005915 0.4994085 0.7867973 0.2132027 0.7589308 0.2410692 0.5796836 0.4203164 0.96536545 0.03463455 0.99591041 0.00408959 0.995848123 0.004151877 0.6342394 0.3657606 0.6147734 0.3852266 0.5002233 0.4997767 0.6646523 0.3353477 0.687923 0.312077 0.501086 0.498914 0.7551137 0.2448863 0.5739962 0.4260038 0.6710015 0.3289985 0.8729972 0.1270028 0.99003238 0.00996762 0.993704214 0.006295786 0.5176279 0.4823721 0.5217347 0.4782653 0.5410897 0.4589103 0.6452577 0.3547423 0.5347823 0.4652177 0.612238 0.387762 0.5391252 0.4608748 0.4904509 0.5095491 0.5482757 0.4517243 0.92046755 0.07953245 0.96411034 0.03588966 0.9545316 0.0454684 0.5341741 0.4658259 0.4768783 0.5231217 0.5019889 0.4980111 0.7950582 0.2049418 0.7268544 0.2731456 0.5026391 0.4973609 0.5914316 0.4085684 0.6442271 0.3557729 0.5453903 0.4546097 0.95462749 0.04537251 0.96939918 0.03060082 0.96874933 0.03125067 0.5113449 0.4886551 0.5055529 0.4944471 0.5433177 0.4566823</probabilities>
        </cpt>
        <cpt id="NauseaOrVomit">
            <state id="No" />
            <state id="Yes" />
            <parents>AgeGroup CauseUTI CurrPhenotype</parents>
            <probabilities>0.2315718 0.7684282 0.6258498 0.3741502 0.5005291 0.4994709 0.4477791 0.5522209 0.5924574 0.4075426 0.4964017 0.5035983 0.2816932 0.7183068 0.4950891 0.5049109 0.5022019 0.4977981 0.3579581 0.6420419 0.5031257 0.4968743 0.5000217 0.4999783 0.1925644 0.8074356 0.5035974 0.4964026 0.4989924 0.5010076 0.4696943 0.5303057 0.4579206 0.5420794 0.3905324 0.6094676 0.3708293 0.6291707 0.4985092 0.5014908 0.500973 0.499027 0.4927218 0.5072782 0.5008613 0.4991387 0.4591532 0.5408468 0.2409713 0.7590287 0.489679 0.510321 0.4200207 0.5799793 0.4963396 0.5036604 0.4226435 0.5773565 0.4958774 0.5041226 0.3703838 0.6296162 0.4496855 0.5503145 0.5453237 0.4546763 0.4464541 0.5535459 0.4977805 0.5022195 0.4989571 0.5010429 0.2645832 0.7354168 0.461727 0.538273 0.4974975 0.5025025 0.4131128 0.5868872 0.325895 0.674105 0.4948697 0.5051303 0.4562332 0.5437668 0.4270663 0.5729337 0.4062029 0.5937971 0.4994 0.5006 0.4987664 0.5012336 0.4572414 0.5427586</probabilities>
        </cpt>
        <cpt id="FeverPR">
            <state id="No" />
            <state id="Yes" />
            <parents>AgeGroup CauseUTI CurrPhenotype RespSymp</parents>
            <probabilities>0.1772304 0.8227696 0.3415866 0.6584134 0.6183533 0.3816467 0.5334227 0.4665773 0.5005441 0.4994559 0.5000476 0.4999524 0.2469571 0.7530429 0.366074 0.633926 0.7812139 0.2187861 0.5093639 0.4906361 0.5795712 0.4204288 0.5001589 0.4998411 0.2228156 0.7771844 0.3050773 0.6949227 0.6791897 0.3208103 0.611136 0.388864 0.7465884 0.2534116 0.6256676 0.3743324 0.3678132 0.6321868 0.4620076 0.5379924 0.5714038 0.4285962 0.4573436 0.5426564 0.5000269 0.4999731 0.5001964 0.4998036 0.1868508 0.8131492 0.3146703 0.6853297 0.8341051 0.1658949 0.5033201 0.4966799 0.5000645 0.4999355 0.5000594 0.4999406 0.2123724 0.7876276 0.3995888 0.6004112 0.6268831 0.3731169 0.511745 0.488255 0.6167969 0.3832031 0.5453781 0.4546219 0.2510698 0.7489302 0.3546478 0.6453522 0.4986896 0.5013104 0.5 0.5 0.6414331 0.3585669 0.5454448 0.4545552 0.4871268 0.5128732 0.499153 0.500847 0.5198024 0.4801976 0.5046252 0.4953748 0.500319 0.499681 0.5000446 0.4999554 0.09619281 0.90380719 0.1632897 0.8367103 0.5555567 0.4444433 0.5004363 0.4995637 0.6020283 0.3979717 0.5144411 0.4855589 0.4261192 0.5738808 0.493752 0.506248 0.5789669 0.4210331 0.5142061 0.4857939 0.4595923 0.5404077 0.500107 0.499893 0.2179785 0.7820215 0.2624093 0.7375907 0.5676769 0.4323231 0.5097181 0.4902819 0.5453232 0.4546768 0.5 0.5 0.4404622 0.5595378 0.4903815 0.5096185 0.5235642 0.4764358 0.500077 0.499923 0.5012099 0.4987901 0.5001577 0.4998423 0.1624365 0.8375635 0.2545477 0.7454523 0.397486 0.602514 0.5742353 0.4257647 0.5023378 0.4976622 0.5 0.5 0.4132744 0.5867256 0.4853614 0.5146386 0.5916317 0.4083683 0.530055 0.469945 0.4560952 0.5439048 0.5 0.5 0.4562572 0.5437428 0.4999712 0.5000288 0.6022193 0.3977807 0.5086407 0.4913593 0.6631434 0.3368566 0.4622036 0.5377964 0.4902241 0.5097759 0.4991429 0.5008571 0.4976262 0.5023738 0.5013739 0.4986261 0.5419664 0.4580336 0.5 0.5</probabilities>
        </cpt>
        <cpt id="AbdoPain">
            <state id="Unknown" />
            <state id="Yes" />
            <parents>AgeGroup CauseUTI CurrPhenotype Diarrhea</parents>
            <probabilities>0.3058805 0.6941195 0.4832847 0.5167153 0.3140385 0.6859615 0.4895855 0.5104145 0.4995605 0.5004395 0.4999421 0.5000579 0.4358462 0.5641538 0.5058527 0.4941473 0.4843627 0.5156373 0.5015679 0.4984321 0.4262409 0.5737591 0.4922105 0.5077895 0.4828383 0.5171617 0.4964703 0.5035297 0.3519064 0.6480936 0.4837905 0.5162095 0.2480799 0.7519201 0.4905506 0.5094494 0.5837381 0.4162619 0.5100417 0.4899583 0.4067264 0.5932736 0.4907152 0.5092848 0.5001583 0.4998417 0.5000107 0.4999893 0.6252267 0.3747733 0.5192068 0.4807932 0.6582824 0.3417176 0.5262525 0.4737475 0.5008477 0.4991523 0.5001097 0.4998903 0.4972751 0.5027249 0.5113201 0.4886799 0.5718227 0.4281773 0.5100615 0.4899385 0.4706196 0.5293804 0.4975526 0.5024474 0.6839182 0.3160818 0.5237247 0.4762753 0.5015222 0.4984778 0.5001538 0.4998462 0.4379131 0.5620869 0.4976229 0.5023771 0.5161535 0.4838465 0.5037371 0.4962629 0.5181291 0.4818709 0.5043911 0.4956089 0.5332617 0.4667383 0.508302 0.491698 0.91802494 0.08197506 0.5951044 0.4048956 0.5528764 0.4471236 0.5038159 0.4961841 0.6060982 0.3939018 0.5098513 0.4901487 0.5741991 0.4258009 0.5063911 0.4936089 0.5824684 0.4175316 0.5094662 0.4905338 0.5449576 0.4550424 0.5040033 0.4959967 0.8381374 0.1618626 0.5496247 0.4503753 0.5091453 0.4908547 0.4908522 0.5091478 0.541273 0.458727 0.5048092 0.4951908 0.5611542 0.4388458 0.5075917 0.4924083 0.5201629 0.4798371 0.5037664 0.4962336 0.5017633 0.4982367 0.5002273 0.4997727 0.8597499 0.1402501 0.5617061 0.4382939 0.7910798 0.2089202 0.5374778 0.4625222 0.5024656 0.4975344 0.5001753 0.4998247 0.5958395 0.4041605 0.509504 0.490496 0.6957839 0.3042161 0.5273341 0.4726659 0.5430727 0.4569273 0.5027738 0.4972262 0.5429473 0.4570527 0.5039895 0.4960105 0.6933054 0.3066946 0.5265363 0.4734637 0.6790631 0.3209369 0.5201793 0.4798207 0.5116442 0.4883558 0.5016157 0.4983843 0.5075412 0.4924588 0.5015835 0.4984165 0.5374018 0.4625982 0.5069041 0.4930959</probabilities>
        </cpt>
        <cpt id="Irritable">
            <state id="No" />
            <state id="Yes" />
            <parents>AgeGroup CauseUTI CurrPhenotype TemperatureLvl2</parents>
            <probabilities>0.5 0.5 0.4850337 0.5149663 0.5029382 0.4970618 0.5749623 0.4250377 0.5031744 0.4968256 0.6228384 0.3771616 0.6665198 0.3334802 0.503435 0.496565 0.5 0.5 0.4999529 0.5000471 0.5 0.5 0.5 0.5 0.5 0.5 0.50273 0.49727 0.5425109 0.4574891 0.4564021 0.5435979 0.5000869 0.4999131 0.5095266 0.4904734 0.6458088 0.3541912 0.5466523 0.4533477 0.5 0.5 0.500609 0.499391 0.500013 0.499987 0.5 0.5 0.5 0.5 0.5556608 0.4443392 0.5000206 0.4999794 0.5539559 0.4460441 0.5 0.5 0.5000689 0.4999311 0.5096413 0.4903587 0.5434681 0.4565319 0.5 0.5 0.5999099 0.4000901 0.5454436 0.4545564 0.5 0.5 0.5 0.5 0.5019757 0.4980243 0.45502 0.54498 0.499146 0.500854 0.5000071 0.4999929 0.5017759 0.4982241 0.5017422 0.4982578 0.5006481 0.4993519 0.5 0.5 0.4998039 0.5001961 0.5 0.5 0.5 0.5 0.5323659 0.4676341 0.500044 0.499956 0.5010053 0.4989947 0.4615009 0.5384991 0.5 0.5 0.4976619 0.5023381 0.6416158 0.3583842 0.5 0.5 0.5000005 0.4999995 0.5009483 0.4990517 0.5000545 0.4999455 0.5 0.5 0.4607854 0.5392146 0.5757383 0.4242617 0.537174 0.462826 0.5348172 0.4651828 0.5 0.5 0.4567796 0.5432204 0.5030167 0.4969833 0.5 0.5 0.5465077 0.4534923 0.5051015 0.4948985 0.5461351 0.4538649 0.5 0.5 0.4447906 0.5552094 0.5104248 0.4895752 0.501031 0.498969 0.5004182 0.4995818 0.5 0.5 0.5 0.5 0.5 0.5 0.5 0.5 0.4987019 0.5012981 0.5831172 0.4168828 0.544706 0.455294 0.5 0.5 0.5000128 0.4999872 0.5000499 0.4999501 0.5001283 0.4998717 0.499273 0.500727 0.5 0.5 0.4996594 0.5003406 0.5005262 0.4994738 0.5 0.5 0.5002732 0.4997268 0.5406156 0.4593844 0.5000249 0.4999751 0.5 0.5 0.3665313 0.6334687 0.5377739 0.4622261 0.4021057 0.5978943 0.5090951 0.4909049 0.5 0.5 0.5463892 0.4536108 0.5 0.5 0.5 0.5 0.5 0.5 0.4547066 0.5452934 0.4202297 0.5797703 0.4999925 0.5000075 0.5034905 0.4965095 0.4921206 0.5078794 0.4554617 0.5445383 0.5002375 0.4997625 0.5 0.5 0.5020888 0.4979112 0.5 0.5 0.5 0.5 0.5 0.5 0.4550495 0.5449505 0.4960615 0.5039385 0.4999255 0.5000745 0.412824 0.587176 0.3373276 0.6626724 0.5671873 0.4328127 0.4614742 0.5385258 0.5 0.5 0.6133905 0.3866095 0.5 0.5 0.5 0.5 0.5 0.5 0.4999995 0.5000005 0.5 0.5 0.4546762 0.5453238 0.5000919 0.4999081 0.4999597 0.5000403 0.5020762 0.4979238 0.529076 0.470924 0.5 0.5 0.5001214 0.4998786 0.5 0.5 0.5 0.5 0.5 0.5 0.4991978 0.5008022 0.4988852 0.5011148 0.4999239 0.5000761 0.3856007 0.6143993 0.3598678 0.6401322 0.3846613 0.6153387 0.2806601 0.7193399 0.5 0.5 0.4791782 0.5208218 0.577769 0.422231 0.4613177 0.5386823 0.5 0.5 0.5 0.5 0.4998486 0.5001514 0.5 0.5 0.4984905 0.5015095 0.4954096 0.5045904 0.4999448 0.5000552 0.4982089 0.5017911 0.5 0.5 0.4026951 0.5973049 0.5038093 0.4961907 0.4932614 0.5067386 0.5 0.5 0.5 0.5 0.4552859 0.5447141 0.5 0.5 0.5 0.5 0.5 0.5 0.5 0.5 0.5 0.5 0.5 0.5 0.5629604 0.4370396 0.5458088 0.4541912 0.5 0.5 0.5 0.5 0.5 0.5 0.3571414 0.6428586 0.5 0.5 0.4998535 0.5001465 0.4993339 0.5006661 0.4999778 0.5000222 0.4926648 0.5073352 0.5 0.5 0.5012535 0.4987465 0.5023928 0.4976072 0.4987597 0.5012403 0.5 0.5 0.5 0.5 0.4992613 0.5007387 0.5 0.5</probabilities>
        </cpt>
        <cpt id="Lethargy">
            <state id="No" />
            <state id="Yes" />
            <parents>CauseUTI CurrPhenotype TemperatureLvl2</parents>
            <probabilities>0.3691014 0.6308986 0.4313461 0.5686539 0.3929404 0.6070596 0.3875692 0.6124308 0.4577526 0.5422474 0.6426872 0.3573128 0.774525 0.225475 0.5416079 0.4583921 0.5000005 0.4999995 0.499714 0.500286 0.4999098 0.5000902 0.5 0.5 0.4083415 0.5916585 0.4253905 0.5746095 0.2940685 0.7059315 0.4003828 0.5996172 0.5000442 0.4999558 0.606354 0.393646 0.5877222 0.4122778 0.552199 0.447801 0.5465192 0.4534808 0.5378992 0.4621008 0.457713 0.542287 0.5 0.5 0.4200894 0.5799106 0.3224505 0.6775495 0.4664004 0.5335996 0.3726152 0.6273848 0.5 0.5 0.5502009 0.4497991 0.5469684 0.4530316 0.5434681 0.4565319 0.5441572 0.4558428 0.6126587 0.3873413 0.5392023 0.4607977 0.5 0.5 0.4761153 0.5238847 0.4962303 0.5037697 0.3985193 0.6014807 0.5208439 0.4791561 0.4999809 0.5000191 0.4814207 0.5185793 0.4627213 0.5372787 0.5018851 0.4981149 0.5002732 0.4997268 0.4597099 0.5402901 0.5421734 0.4578266 0.5 0.5</probabilities>
        </cpt>
        <cpt id="PoorIntake">
            <state id="No" />
            <state id="Yes" />
            <parents>AgeGroup CurrPhenotype NauseaOrVomit</parents>
            <probabilities>0.4303721 0.5696279 0.2830782 0.7169218 0.7814158 0.2185842 0.6100233 0.3899767 0.500125 0.499875 0.4998749 0.5001251 0.5505937 0.4494063 0.3631465 0.6368535 0.7024028 0.2975972 0.6832523 0.3167477 0.6097009 0.3902991 0.4674305 0.5325695 0.579135 0.420865 0.3819842 0.6180158 0.5905298 0.4094702 0.6373944 0.3626056 0.4197794 0.5802206 0.4136 0.5864 0.5122637 0.4877363 0.4947537 0.5052463 0.4100544 0.5899456 0.5091038 0.4908962 0.5668489 0.4331511 0.6765151 0.3234849</probabilities>
        </cpt>
    </nodes>
    <extensions>
        <genie version="1.0" app="GeNIe 4.0.1922.0 ACADEMIC" name="Network1">
            <node id="AgeGroup">
                <name>AgeGroup</name>
                <interior color="e5f6f7" />
                <outline color="000080" />
                <font color="000000" name="Arial" size="8" />
                <position>20 100 100 140</position>
            </node>
            <node id="PrevUriKidProbs">
                <name>PrevUriKidProbs</name>
                <interior color="e5f6f7" />
                <outline color="000080" />
                <font color="000000" name="Arial" size="8" />
                <position>20 200 100 240</position>
            </node>
            <node id="Sex">
                <name>Sex</name>
                <interior color="e5f6f7" />
                <outline color="000080" />
                <font color="000000" name="Arial" size="8" />
                <position>120 200 200 240</position>
            </node>
            <node id="Diarrhea">
                <name>Diarrhea</name>
                <interior color="e5f6f7" />
                <outline color="000080" />
                <font color="000000" name="Arial" size="8" />
                <position>220 200 300 240</position>
            </node>
            <node id="RespSymp">
                <name>RespSymp</name>
                <interior color="e5f6f7" />
                <outline color="000080" />
                <font color="000000" name="Arial" size="8" />
                <position>320 200 400 240</position>
            </node>
            <node id="OnAbxEDGroup3">
                <name>OnAbxEDGroup3</name>
                <interior color="e5f6f7" />
                <outline color="000080" />
                <font color="000000" name="Arial" size="8" />
                <position>20 300 100 340</position>
            </node>
            <node id="CollMethod">
                <name>CollMethod</name>
                <interior color="e5f6f7" />
                <outline color="000080" />
                <font color="000000" name="Arial" size="8" />
                <position>120 300 200 340</position>
            </node>
            <node id="GramPosPresence">
                <name>GramPosPresence</name>
                <interior color="e5f6f7" />
                <outline color="000080" />
                <font color="000000" name="Arial" size="8" />
                <position>20 400 100 440</position>
            </node>
            <node id="OtherGramNegPresence">
                <name>OtherGramNegPresence</name>
                <interior color="e5f6f7" />
                <outline color="000080" />
                <font color="000000" name="Arial" size="8" />
                <position>120 400 200 440</position>
            </node>
            <node id="Epithelials">
                <name>Epithelials</name>
                <interior color="e5f6f7" />
                <outline color="000080" />
                <font color="000000" name="Arial" size="8" />
                <position>220 400 300 440</position>
            </node>
            <node id="ContaminationRisk">
                <name>ContaminationRisk</name>
                <interior color="e5f6f7" />
                <outline color="000080" />
                <font color="000000" name="Arial" size="8" />
                <position>320 400 400 440</position>
            </node>
            <node id="EcoliPresence">
                <name>EcoliPresence</name>
                <interior color="e5f6f7" />
                <outline color="000080" />
                <font color="000000" name="Arial" size="8" />
                <position>420 400 500 440</position>
            </node>
            <node id="CauseUTI">
                <name>CauseUTI</name>
                <interior color="e5f6f7" />
                <outline color="000080" />
                <font color="000000" name="Arial" size="8" />
                <position>20 500 100 540</position>
            </node>
            <node id="Urin_Nitrite">
                <name>Urin_Nitrite</name>
                <interior color="e5f6f7" />
                <outline color="000080" />
                <font color="000000" name="Arial" size="8" />
                <position>20 600 100 640</position>
            </node>
            <node id="WCCLevel">
                <name>WCCLevel</name>
                <interior color="e5f6f7" />
                <outline color="000080" />
                <font color="000000" name="Arial" size="8" />
                <position>120 600 200 640</position>
            </node>
            <node id="GramPos">
                <name>GramPos</name>
                <interior color="e5f6f7" />
                <outline color="000080" />
                <font color="000000" name="Arial" size="8" />
                <position>220 600 300 640</position>
            </node>
            <node id="Urin_LeucEst">
                <name>Urin_LeucEst</name>
                <interior color="e5f6f7" />
                <outline color="000080" />
                <font color="000000" name="Arial" size="8" />
                <position>320 600 400 640</position>
            </node>
            <node id="OtherGramNeg">
                <name>OtherGramNeg</name>
                <interior color="e5f6f7" />
                <outline color="000080" />
                <font color="000000" name="Arial" size="8" />
                <position>420 600 500 640</position>
            </node>
            <node id="Urin_Leuc">
                <name>Urin_Leuc</name>
                <interior color="e5f6f7" />
                <outline color="000080" />
                <font color="000000" name="Arial" size="8" />
                <position>520 600 600 640</position>
            </node>
            <node id="UltraSound">
                <name>UltraSound</name>
                <interior color="e5f6f7" />
                <outline color="000080" />
                <font color="000000" name="Arial" size="8" />
                <position>620 600 700 640</position>
            </node>
            <node id="Microscopy_bacts">
                <name>Microscopy_bacts</name>
                <interior color="e5f6f7" />
                <outline color="000080" />
                <font color="000000" name="Arial" size="8" />
                <position>720 600 800 640</position>
            </node>
            <node id="EColi">
                <name>EColi</name>
                <interior color="e5f6f7" />
                <outline color="000080" />
                <font color="000000" name="Arial" size="8" />
                <position>820 600 900 640</position>
            </node>
            <node id="CurrPhenotype">
                <name>CurrPhenotype</name>
                <interior color="e5f6f7" />
                <outline color="000080" />
                <font color="000000" name="Arial" size="8" />
                <position>920 600 1000 640</position>
            </node>
            <node id="CRPLevel">
                <name>CRPLevel</name>
                <interior color="e5f6f7" />
                <outline color="000080" />
                <font color="000000" name="Arial" size="8" />
                <position>1020 600 1100 640</position>
            </node>
            <node id="EmpricAbxGroup3">
                <name>EmpricAbxGroup3</name>
                <interior color="e5f6f7" />
                <outline color="000080" />
                <font color="000000" name="Arial" size="8" />
                <position>20 700 100 740</position>
            </node>
            <node id="UrinSym_PainOrDiscomf">
                <name>UrinSym_PainOrDiscomf</name>
                <interior color="e5f6f7" />
                <outline color="000080" />
                <font color="000000" name="Arial" size="8" />
                <position>120 700 200 740</position>
            </node>
            <node id="NeutLevel">
                <name>NeutLevel</name>
                <interior color="e5f6f7" />
                <outline color="000080" />
                <font color="000000" name="Arial" size="8" />
                <position>220 700 300 740</position>
            </node>
            <node id="TemperatureLvl2">
                <name>TemperatureLvl2</name>
                <interior color="e5f6f7" />
                <outline color="000080" />
                <font color="000000" name="Arial" size="8" />
                <position>320 700 400 740</position>
            </node>
            <node id="UrinSym_haematuria">
                <name>UrinSym_haematuria</name>
                <interior color="e5f6f7" />
                <outline color="000080" />
                <font color="000000" name="Arial" size="8" />
                <position>420 700 500 740</position>
            </node>
            <node id="UrinSym_smelly">
                <name>UrinSym_smelly</name>
                <interior color="e5f6f7" />
                <outline color="000080" />
                <font color="000000" name="Arial" size="8" />
                <position>520 700 600 740</position>
            </node>
            <node id="NauseaOrVomit">
                <name>NauseaOrVomit</name>
                <interior color="e5f6f7" />
                <outline color="000080" />
                <font color="000000" name="Arial" size="8" />
                <position>620 700 700 740</position>
            </node>
            <node id="FeverPR">
                <name>FeverPR</name>
                <interior color="e5f6f7" />
                <outline color="000080" />
                <font color="000000" name="Arial" size="8" />
                <position>720 700 800 740</position>
            </node>
            <node id="AbdoPain">
                <name>AbdoPain</name>
                <interior color="e5f6f7" />
                <outline color="000080" />
                <font color="000000" name="Arial" size="8" />
                <position>820 700 900 740</position>
            </node>
            <node id="Irritable">
                <name>Irritable</name>
                <interior color="e5f6f7" />
                <outline color="000080" />
                <font color="000000" name="Arial" size="8" />
                <position>20 800 100 840</position>
            </node>
            <node id="Lethargy">
                <name>Lethargy</name>
                <interior color="e5f6f7" />
                <outline color="000080" />
                <font color="000000" name="Arial" size="8" />
                <position>120 800 200 840</position>
            </node>
            <node id="PoorIntake">
                <name>PoorIntake</name>
                <interior color="e5f6f7" />
                <outline color="000080" />
                <font color="000000" name="Arial" size="8" />
                <position>220 800 300 840</position>
            </node>
        </genie>
    </extensions>
</smile>
