<?xml version="1.0" encoding="UTF-8"?>
<!-- This network was created in BNBENCH -->
<smile version="1.0" id="bnbench" numsamples="100000" discsamples="100000">
    <nodes>
        <cpt id="sex">
            <state id="female" />
            <state id="male" />
            <probabilities>0.5979971 0.4020029</probabilities>
        </cpt>
        <cpt id="age">
            <state id="age0_30" />
            <state id="age31_50" />
            <state id="age51_65" />
            <state id="age65_100" />
            <probabilities>0.13733906 0.39771102 0.38769671 0.07725322</probabilities>
        </cpt>
        <cpt id="vh_amn">
            <state id="absent" />
            <state id="present" />
            <probabilities>0.8268956 0.1731044</probabilities>
        </cpt>
        <cpt id="gallstones">
            <state id="absent" />
            <state id="present" />
            <probabilities>0.8469242 0.1530758</probabilities>
        </cpt>
        <cpt id="alcoholism">
            <state id="absent" />
            <state id="present" />
            <probabilities>0.8640916 0.1359084</probabilities>
        </cpt>
        <cpt id="surgery">
            <state id="absent" />
            <state id="present" />
            <probabilities>0.5765379 0.4234621</probabilities>
        </cpt>
        <cpt id="hospital">
            <state id="absent" />
            <state id="present" />
            <probabilities>0.4649499 0.5350501</probabilities>
        </cpt>
        <cpt id="hepatotoxic">
            <state id="absent" />
            <state id="present" />
            <probabilities>0.91845494 0.08154506</probabilities>
        </cpt>
        <cpt id="diabetes">
            <state id="absent" />
            <state id="present" />
            <probabilities>0.96423462 0.03576538</probabilities>
        </cpt>
        <cpt id="THepatitis">
            <state id="absent" />
            <state id="present" />
            <parents>alcoholism hepatotoxic</parents>
            <probabilities>0.9673913 0.0326087 0.99808061 0.00191939 0.91111111 0.08888889 0.8 0.2</probabilities>
        </cpt>
        <cpt id="choledocholithotomy">
            <state id="absent" />
            <state id="present" />
            <parents>gallstones</parents>
            <probabilities>0.96283784 0.03716216 0.2897196 0.7102804</probabilities>
        </cpt>
        <cpt id="RHepatitis">
            <state id="absent" />
            <state id="present" />
            <parents>hepatotoxic</parents>
            <probabilities>0.97507788 0.02492212 0.98245614 0.01754386</probabilities>
        </cpt>
        <cpt id="PBC">
            <state id="absent" />
            <state id="present" />
            <parents>age sex</parents>
            <probabilities>0.875 0.125 0.99843994 0.00156006 0.3850575 0.6149425 0.93269231 0.06730769 0.299435 0.700565 0.91489362 0.08510638 0.3428571 0.6571429 0.6315789 0.3684211</probabilities>
        </cpt>
        <cpt id="flatulence">
            <state id="absent" />
            <state id="present" />
            <parents>gallstones</parents>
            <probabilities>0.5692568 0.4307432 0.6074766 0.3925234</probabilities>
        </cpt>
        <cpt id="obesity">
            <state id="absent" />
            <state id="present" />
            <parents>diabetes</parents>
            <probabilities>0.93768546 0.06231454 0.76 0.24</probabilities>
        </cpt>
        <cpt id="fat">
            <state id="absent" />
            <state id="present" />
            <parents>gallstones</parents>
            <probabilities>0.7195946 0.2804054 0.8224299 0.1775701</probabilities>
        </cpt>
        <cpt id="upper_pain">
            <state id="absent" />
            <state id="present" />
            <parents>gallstones</parents>
            <probabilities>0.6131757 0.3868243 0.588785 0.411215</probabilities>
        </cpt>
        <cpt id="Hyperbilirubinemia">
            <state id="absent" />
            <state id="present" />
            <parents>age sex</parents>
            <probabilities>0.78125 0.21875 0.546875 0.453125 0.95402299 0.04597701 0.92307692 0.07692308 0.98870056 0.01129944 0.9787234 0.0212766 0.997151 0.002849 0.9947644 0.0052356</probabilities>
        </cpt>
        <cpt id="amylase">
            <state id="a1400_500" />
            <state id="a299_0" />
            <state id="a499_300" />
            <parents>gallstones</parents>
            <probabilities>0.01013514 0.97297297 0.01689189 0.01869159 0.93457944 0.04672897</probabilities>
        </cpt>
        <cpt id="joints">
            <state id="absent" />
            <state id="present" />
            <parents>PBC</parents>
            <probabilities>0.8997613 0.1002387 0.8714286 0.1285714</probabilities>
        </cpt>
        <cpt id="injections">
            <state id="absent" />
            <state id="present" />
            <parents>choledocholithotomy hospital surgery</parents>
            <probabilities>0.9352518 0.0647482 0.7666667 0.2333333 0.5181818 0.4818182 0.284153 0.715847 0.98901099 0.01098901 0.625 0.375 0.1666667 0.8333333 0.2 0.8</probabilities>
        </cpt>
        <cpt id="ama">
            <state id="absent" />
            <state id="present" />
            <parents>PBC</parents>
            <probabilities>0.98806683 0.01193317 0.4321429 0.5678571</probabilities>
        </cpt>
        <cpt id="transfusion">
            <state id="absent" />
            <state id="present" />
            <parents>choledocholithotomy hospital surgery</parents>
            <probabilities>0.98920863 0.01079137 0.7 0.3 0.8818182 0.1181818 0.7103825 0.2896175 0.98901099 0.01098901 0.875 0.125 0.8333333 0.1666667 0.6666667 0.3333333</probabilities>
        </cpt>
        <cpt id="anorexia">
            <state id="absent" />
            <state id="present" />
            <parents>RHepatitis THepatitis</parents>
            <probabilities>0.719084 0.280916 0.7777778 0.2222222 0.8823529 0.1176471 0.8181818 0.1818182</probabilities>
        </cpt>
        <cpt id="le_cells">
            <state id="absent" />
            <state id="present" />
            <parents>PBC</parents>
            <probabilities>0.95942721 0.04057279 0.8785714 0.1214286</probabilities>
        </cpt>
        <cpt id="nausea">
            <state id="absent" />
            <state id="present" />
            <parents>RHepatitis THepatitis</parents>
            <probabilities>0.7145038 0.2854962 0.6296296 0.3703704 0.6470588 0.3529412 0.6363636 0.3636364</probabilities>
        </cpt>
        <cpt id="Steatosis">
            <state id="absent" />
            <state id="present" />
            <parents>alcoholism obesity</parents>
            <probabilities>0.93650794 0.06349206 0.8108108 0.1891892 0.7619048 0.2380952 0.6363636 0.3636364</probabilities>
        </cpt>
        <cpt id="pain_ruq">
            <state id="absent" />
            <state id="present" />
            <parents>Hyperbilirubinemia Steatosis</parents>
            <probabilities>0.578125 0.421875 0.5223881 0.4776119 0.7142857 0.2857143 0.6065574 0.3934426</probabilities>
        </cpt>
        <cpt id="ChHepatitis">
            <state id="absent" />
            <state id="active" />
            <state id="persistent" />
            <parents>injections transfusion vh_amn</parents>
            <probabilities>0.81547619 0.13095238 0.05357143 0.62 0.24 0.14 0.82608696 0.13043478 0.04347826 0.2307692 0.4615385 0.3076923 0.91715976 0.07692308 0.00591716 0.7948718 0.15384615 0.05128205 0.88 0.06 0.06 0.7853403 0.2094241 0.0052356</probabilities>
        </cpt>
        <cpt id="hepatomegaly">
            <state id="absent" />
            <state id="present" />
            <parents>Hyperbilirubinemia RHepatitis Steatosis THepatitis</parents>
            <probabilities>0.3026316 0.6973684 0.2222222 0.7777778 0.3134328 0.6865672 0.3243243 0.6756757 0.2941177 0.7058823 0.326087 0.673913 0.3472222 0.6527778 0.32 0.68 0.625 0.375 0.4102564 0.5897436 0.4133333 0.5866667 0.4 0.6 0.4444444 0.5555556 0.4081633 0.5918367 0.4098361 0.5901639 0.3902439 0.6097561</probabilities>
        </cpt>
        <cpt id="triglycerides">
            <state id="a17_4" />
            <state id="a1_0" />
            <state id="a3_2" />
            <parents>Steatosis</parents>
            <probabilities>0.02373418 0.94462025 0.03164557 0.1791045 0.6567164 0.1641791</probabilities>
        </cpt>
        <cpt id="pain">
            <state id="absent" />
            <state id="present" />
            <parents>PBC joints</parents>
            <probabilities>0.8169761 0.1830239 0.1904762 0.8095238 0.852459 0.147541 0.6111111 0.3888889</probabilities>
        </cpt>
        <cpt id="hepatalgia">
            <state id="absent" />
            <state id="present" />
            <parents>hepatomegaly</parents>
            <probabilities>0.96929825 0.03070175 0.6857749 0.3142251</probabilities>
        </cpt>
        <cpt id="fibrosis">
            <state id="absent" />
            <state id="present" />
            <parents>ChHepatitis</parents>
            <probabilities>0.999 0.001 0.7 0.3 0.95 0.05</probabilities>
        </cpt>
        <cpt id="hcv_anti">
            <state id="absent" />
            <state id="present" />
            <parents>ChHepatitis vh_amn</parents>
            <probabilities>0.99796748 0.00203252 0.99875156 0.00124844 0.99841521 0.00158479 0.99644128 0.00355872 0.995671 0.004329 0.99236641 0.00763359</probabilities>
        </cpt>
        <cpt id="ESR">
            <state id="a14_0" />
            <state id="a200_50" />
            <state id="a49_15" />
            <parents>ChHepatitis Hyperbilirubinemia PBC Steatosis</parents>
            <probabilities>0.89940828 0.04733728 0.05325444 0.80597015 0.13432836 0.05970149 0.3571429 0.4321429 0.2107143 0.4590747 0.3629893 0.1779359 0.91071429 0.01785714 0.07142857 0.86075949 0.07594937 0.06329114 0.4545455 0.3636364 0.1818182 0.4861111 0.3425926 0.1712963 0.74725275 0.03296703 0.21978022 0.6625 0.175 0.1625 0.4738676 0.3205575 0.2055749 0.5189189 0.2972973 0.1837838 0.7320261 0.1045752 0.1633987 0.554878 0.2682927 0.1768293 0.5147058 0.2941177 0.1911765 0.557377 0.2704918 0.1721312 0.88888888 0.05555556 0.05555556 0.82795698 0.08602151 0.08602151 0.448 0.368 0.184 0.4973262 0.3315508 0.171123 0.86956521 0.05434783 0.07608696 0.81927711 0.06024096 0.12048193 0.4946237 0.3333333 0.172043 0.5138121 0.3093923 0.1767956</probabilities>
        </cpt>
        <cpt id="fatigue">
            <state id="absent" />
            <state id="present" />
            <parents>ChHepatitis RHepatitis THepatitis</parents>
            <probabilities>0.4640151 0.5359849 0.3333333 0.6666667 0.2941177 0.7058823 0.3846154 0.6153846 0.3956044 0.6043956 0.375 0.625 0.3763441 0.6236559 0.3636364 0.6363636 0.4722222 0.5277778 0.4067797 0.5932203 0.4107143 0.5892857 0.3928571 0.6071429</probabilities>
        </cpt>
        <cpt id="cholesterol">
            <state id="a239_0" />
            <state id="a349_240" />
            <state id="a999_350" />
            <parents>ChHepatitis PBC Steatosis</parents>
            <probabilities>0.90182141 0.09773434 0.00044425 0.73134328 0.2238806 0.04477612 0.5107143 0.3642857 0.125 0.5708812 0.3256705 0.1034483 0.9010989 0.06593407 0.03296703 0.62844037 0.27981651 0.09174312 0.5936508 0.3047619 0.1015873 0.62758621 0.28275862 0.08965517 0.96952909 0.02770083 0.00277008 0.6918239 0.23899371 0.06918239 0.5796179 0.3152866 0.1050955 0.60227273 0.30113636 0.09659091</probabilities>
        </cpt>
        <cpt id="hbc_anti">
            <state id="absent" />
            <state id="present" />
            <parents>ChHepatitis vh_amn</parents>
            <probabilities>0.898374 0.101626 0.9125 0.0875 0.92063492 0.07936508 0.99644128 0.00355872 0.8695652 0.1304348 0.99236641 0.00763359</probabilities>
        </cpt>
        <cpt id="ggtp">
            <state id="a29_10" />
            <state id="a640_70" />
            <state id="a69_30" />
            <state id="a9_0" />
            <parents>ChHepatitis Hyperbilirubinemia PBC RHepatitis Steatosis THepatitis</parents>
            <probabilities>0.144 0.08 0.096 0.68 0.03690037 0.07380074 0.00369004 0.88560885 0.13432836 0.07462687 0.02985075 0.76119402 0.09876543 0.0617284 0.01234568 0.82716049 0.05847953 0.11695906 0.00584795 0.81871346 0.0443459 0.06651885 0.00221729 0.88691796 0.10810811 0.06756757 0.01351351 0.81081081 0.09242144 0.07393715 0.00184843 0.83179298 0.1321429 0.2392857 0.225 0.4035714 0.1176471 0.2142857 0.1932773 0.4747899 0.1268657 0.1977612 0.1791045 0.4962687 0.1242604 0.1893491 0.1656805 0.52071 0.1212121 0.2207792 0.1991342 0.4588745 0.1156463 0.2108843 0.1836735 0.4897959 0.1272727 0.1939394 0.169697 0.5090909 0.1209677 0.1854839 0.1612903 0.5322581 0.01779359 0.00177936 0.00177936 0.97864769 0.05405405 0.02702703 0.01351351 0.90540541 0.10185185 0.03703704 0.02777778 0.83333333 0.08571429 0.04285714 0.01428571 0.85714286 0.06153846 0.03076923 0.01538462 0.89230769 0.04338395 0.04338395 0.0021692 0.9110629 0.09230769 0.04615385 0.01538462 0.84615384 0.07532957 0.05649718 0.00188324 0.86629001 0.1225166 0.1986755 0.192053 0.486755 0.1104651 0.1918605 0.1744186 0.5232558 0.1197917 0.1822917 0.1614583 0.5364583 0.1151079 0.1726619 0.1510791 0.5611511 0.1130952 0.1964286 0.1785714 0.5119048 0.1065574 0.1885246 0.1639344 0.5409836 0.1176471 0.1764706 0.1544118 0.5514705 0.1111111 0.1666667 0.1481482 0.574074 0.17582418 0.08791209 0.14285714 0.59340659 0.12121212 0.07070707 0.08080808 0.72727273 0.14529915 0.07692308 0.08547009 0.69230768 0.13095238 0.07142857 0.07142857 0.72619048 0.13186813 0.07692308 0.08791209 0.7032967 0.125 0.078125 0.078125 0.71875 0.13924051 0.07594937 0.07594937 0.70886075 0.13157895 0.10526316 0.09210526 0.67105263 0.1371237 0.1939799 0.1939799 0.4749164 0.1311475 0.1857923 0.1857923 0.4972678 0.1365854 0.1804878 0.1756098 0.507317 0.1292517 0.1768707 0.1632653 0.5306123 0.1340782 0.1899441 0.1899441 0.4860335 0.129771 0.1832061 0.1755725 0.5114504 0.1333333 0.18 0.1666667 0.52 0.125 0.1696429 0.1607143 0.5446428 0.12264151 0.05660377 0.06603774 0.75471698 0.09638554 0.06024096 0.04819277 0.79518073 0.11688312 0.06493506 0.06493506 0.75324676 0.1 0.05714286 0.04285714 0.8 0.1025641 0.06410256 0.05128205 0.78205129 0.09836066 0.06557377 0.04918033 0.78688524 0.11111111 0.06349206 0.04761905 0.77777778 0.1226415 0.1509434 0.1415094 0.5849057 0.126087 0.1826087 0.1782609 0.5130434 0.1225806 0.1741935 0.1677419 0.535484 0.122905 0.178771 0.1731844 0.5251396 0.1212121 0.1666667 0.1590909 0.5530303 0.125 0.1776316 0.1710526 0.5263158 0.1186441 0.1694915 0.1610169 0.5508475 0.1216216 0.1756757 0.1621622 0.5405405 0.1136364 0.1590909 0.1477273 0.5795454 0.19390582 0.00277008 0.05540166 0.74792244 0.10606061 0.03030303 0.03030303 0.83333333 0.13684211 0.04210526 0.04210526 0.77894737 0.12307692 0.04615385 0.03076923 0.8 0.12068966 0.03448276 0.03448276 0.81034482 0.0952381 0.04761905 0.02380952 0.83333333 0.13333333 0.05 0.03333333 0.78333334 0.10204082 0.06122449 0.02040816 0.81632653 0.133829 0.2007435 0.197026 0.4684015 0.125 0.19375 0.18125 0.5 0.1340782 0.1843575 0.1675978 0.5139665 0.1287879 0.1742424 0.1590909 0.5378788 0.1282051 0.1987179 0.1858974 0.4871795 0.1217391 0.1913044 0.173913 0.5130435 0.131783 0.1782946 0.1627907 0.5271317 0.125 0.1730769 0.1538462 0.5480769 0.13186813 0.04395604 0.07692308 0.74725275 0.09722222 0.04166667 0.04166667 0.81944444 0.12222222 0.04444444 0.04444444 0.7888889 0.10606061 0.04545455 0.03030303 0.81818181 0.10606061 0.04545455 0.04545455 0.80303029 0.08333333 0.04166667 0.02083333 0.85416667 0.11290323 0.0483871 0.03225806 0.80645161 0.09259259 0.05555556 0.03703704 0.81481481 0.1261261 0.1846847 0.1846847 0.5045045 0.1188811 0.1748252 0.1678322 0.5384615 0.1257862 0.1698113 0.1572327 0.5471698 0.1157025 0.1652893 0.1487603 0.5702479 0.1214286 0.1785714 0.1714286 0.5285714 0.1111111 0.1759259 0.1574074 0.5555556 0.125 0.1666667 0.15 0.5583333 0.1134021 0.1546392 0.1443299 0.5876288</probabilities>
        </cpt>
        <cpt id="pressure_ruq">
            <state id="absent" />
            <state id="present" />
            <parents>ChHepatitis PBC gallstones</parents>
            <probabilities>0.5467626 0.4532374 0.7142857 0.2857143 0.7070707 0.2929293 0.6707317 0.3292683 0.5308642 0.4691358 0.6 0.4 0.6575342 0.3424658 0.6666667 0.3333333 0.5714286 0.4285714 0.90909091 0.09090909 0.6772487 0.3227513 0.671875 0.328125</probabilities>
        </cpt>
        <cpt id="hbeag">
            <state id="absent" />
            <state id="present" />
            <parents>ChHepatitis vh_amn</parents>
            <probabilities>0.99796748 0.00203252 0.99875156 0.00124844 0.99841521 0.00158479 0.99644128 0.00355872 0.95652174 0.04347826 0.99236641 0.00763359</probabilities>
        </cpt>
        <cpt id="hbsag">
            <state id="absent" />
            <state id="present" />
            <parents>ChHepatitis vh_amn</parents>
            <probabilities>0.95325203 0.04674797 0.8875 0.1125 0.8095238 0.1904762 0.5 0.5 0.95652174 0.04347826 0.5384615 0.4615385</probabilities>
        </cpt>
        <cpt id="Cirrhosis">
            <state id="absent" />
            <state id="compensate" />
            <state id="decompensate" />
            <parents>Steatosis fibrosis</parents>
            <probabilities>0.998 0.001 0.001 0.3 0.21 0.49 0.5 0.15 0.35 0.2 0.24 0.56</probabilities>
        </cpt>
        <cpt id="hbsag_anti">
            <state id="absent" />
            <state id="present" />
            <parents>ChHepatitis hbsag vh_amn</parents>
            <probabilities>0.98507463 0.01492537 0.95774648 0.04225352 0.995671 0.004329 0.98901099 0.01098901 0.99804305 0.00195695 0.92857143 0.07142857 0.91666667 0.08333333 0.9929078 0.0070922 0.99547511 0.00452489 0.98591549 0.01408451 0.90909091 0.09090909 0.98360656 0.01639344</probabilities>
        </cpt>
        <cpt id="ast">
            <state id="a149_40" />
            <state id="a399_150" />
            <state id="a39_0" />
            <state id="a700_400" />
            <parents>ChHepatitis Cirrhosis RHepatitis Steatosis THepatitis</parents>
            <probabilities>0.46774194 0.22580645 0.29569892 0.01075269 0.36900369 0.07380074 0.55350553 0.00369004 0.43219076 0.07451565 0.49180328 0.00149031 0.43941411 0.0665779 0.49267643 0.00133156 0.64327486 0.11695906 0.23391813 0.00584795 0.51094891 0.0729927 0.4136253 0.00243309 0.49928673 0.08559201 0.41369472 0.00142653 0.46065259 0.07677543 0.46065259 0.00191939 0.67741936 0.06451613 0.22580645 0.03225806 0.49180328 0.07451565 0.43219076 0.00149031 0.48780488 0.08130081 0.42973287 0.00116144 0.48192771 0.06884682 0.4475043 0.00172117 0.58519794 0.10327022 0.30981067 0.00172117 0.54862842 0.07481297 0.37406484 0.00249377 0.52539405 0.08756567 0.38528897 0.00175131 0.48832272 0.08492569 0.42462845 0.00212314 0.5 0.13793103 0.34482759 0.01724138 0.4551201 0.08849558 0.4551201 0.00126422 0.45272969 0.09320905 0.45272969 0.00133156 0.47186933 0.0907441 0.43557169 0.00181488 0.52039381 0.11251758 0.36568214 0.00140647 0.47904192 0.0998004 0.41916168 0.00199601 0.49916805 0.09983361 0.39933444 0.00166389 0.45908184 0.0998004 0.43912176 0.00199601 0.46153846 0.23076923 0.25274725 0.05494505 0.4583333 0.1875 0.3229167 0.03125 0.46031746 0.15873016 0.34920635 0.03174603 0.45238095 0.14285714 0.38095238 0.02380952 0.50561797 0.20224719 0.25842697 0.03370787 0.48387097 0.17741935 0.30645161 0.03225806 0.48101266 0.15189873 0.34177215 0.02531646 0.46774194 0.14516129 0.37096774 0.01612903 0.49606299 0.18110236 0.28346457 0.03937008 0.48051948 0.16883117 0.32467532 0.02597403 0.4791667 0.15625 0.3333333 0.03125 0.47945205 0.1369863 0.35616438 0.02739726 0.52777777 0.18055556 0.26388889 0.02777778 0.50909091 0.16363636 0.30909091 0.01818182 0.50000001 0.14705882 0.32352941 0.02941176 0.49090909 0.12727273 0.36363636 0.01818182 0.47058824 0.17647059 0.31617647 0.03676471 0.45882353 0.16470588 0.35294118 0.02352941 0.46601942 0.16504854 0.33980583 0.02912621 0.4691358 0.16049383 0.34567901 0.02469136 0.5 0.175 0.3 0.025 0.48387097 0.16129032 0.33870968 0.01612903 0.48611111 0.15277778 0.33333333 0.02777778 0.47058824 0.1372549 0.37254902 0.01960784 0.36111111 0.11111111 0.5 0.02777778 0.41742287 0.0907441 0.49001815 0.00181488 0.433213 0.08423586 0.48134777 0.00120337 0.41597338 0.08319468 0.49916805 0.00166389 0.48832272 0.10615711 0.40339703 0.00212314 0.45822102 0.08086253 0.45822102 0.00269542 0.45372051 0.0907441 0.45372051 0.00181488 0.44585987 0.08492569 0.4670913 0.00212314 0.47368421 0.09210526 0.42105263 0.01315789 0.46843177 0.0814664 0.44806517 0.00203666 0.46199702 0.08941878 0.44709389 0.00149031 0.46065259 0.07677543 0.46065259 0.00191939 0.52154195 0.09070295 0.38548753 0.00226757 0.51212938 0.08086253 0.40431267 0.00269542 0.48879837 0.0814664 0.42769857 0.00203666 0.48780488 0.0886918 0.42128603 0.00221729 0.44318182 0.10227273 0.44318182 0.01136364 0.4302926 0.10327022 0.46471601 0.00172117 0.44222539 0.09985735 0.45649073 0.00142653 0.4475043 0.10327022 0.4475043 0.00172117 0.4805915 0.11090573 0.40665434 0.00184843 0.46563193 0.11086475 0.42128603 0.00221729 0.46065259 0.09596929 0.44145873 0.00191939 0.45614035 0.14035088 0.38596491 0.01754386</probabilities>
        </cpt>
        <cpt id="encephalopathy">
            <state id="absent" />
            <state id="present" />
            <parents>Cirrhosis PBC</parents>
            <probabilities>0.98484848 0.01515152 0.94642857 0.05357143 0.99678457 0.00321543 0.95108696 0.04891304 0.94827586 0.05172414 0.94674556 0.05325444</probabilities>
        </cpt>
        <cpt id="phosphatase">
            <state id="a239_0" />
            <state id="a4000_700" />
            <state id="a699_240" />
            <parents>ChHepatitis Cirrhosis RHepatitis THepatitis</parents>
            <probabilities>0.4487472 0.2118451 0.3394077 0.77777778 0.07407407 0.14814815 0.76023392 0.00584795 0.23391813 0.79069768 0.02325581 0.18604651 0.5483871 0.06451613 0.38709677 0.67857143 0.05357143 0.26785714 0.66666667 0.02083333 0.3125 0.7027027 0.02702703 0.27027027 0.44827586 0.06896552 0.48275862 0.59722222 0.05555556 0.34722222 0.57575757 0.04545455 0.37878788 0.625 0.04166667 0.33333333 0.74725275 0.03296703 0.21978022 0.73255814 0.04651163 0.22093023 0.72727272 0.02597403 0.24675325 0.75 0.03571429 0.21428571 0.61797753 0.04494382 0.33707865 0.68055555 0.04166667 0.27777778 0.67164179 0.02985075 0.29850746 0.69811321 0.03773585 0.26415094 0.65517242 0.04597701 0.29885057 0.66666666 0.04761905 0.28571429 0.68115942 0.02898551 0.28985507 0.66666666 0.04166667 0.29166667 0.77777778 0.02777778 0.19444444 0.75675676 0.04054054 0.2027027 0.75 0.015625 0.234375 0.77272728 0.02272727 0.20454545 0.64935065 0.03896104 0.31168831 0.7037037 0.03703704 0.25925926 0.69387755 0.02040816 0.28571429 0.725 0.025 0.25 0.61797753 0.04494382 0.33707865 0.63934426 0.04918033 0.31147541 0.64406779 0.03389831 0.3220339 0.65217391 0.04347826 0.30434783</probabilities>
        </cpt>
        <cpt id="irregular_liver">
            <state id="absent" />
            <state id="present" />
            <parents>Cirrhosis</parents>
            <probabilities>0.8934426 0.1065574 0.6451613 0.3548387 0.3965517 0.6034483</probabilities>
        </cpt>
        <cpt id="alcohol">
            <state id="absent" />
            <state id="present" />
            <parents>Cirrhosis</parents>
            <probabilities>0.8885246 0.1114754 0.7741936 0.2258064 0.7931034 0.2068966</probabilities>
        </cpt>
        <cpt id="inr">
            <state id="a109_70" />
            <state id="a200_110" />
            <state id="a69_0" />
            <parents>ChHepatitis Cirrhosis Hyperbilirubinemia THepatitis</parents>
            <probabilities>0.875 0.065 0.06 0.92592592 0.03703704 0.03703704 0.89285714 0.05357143 0.05357143 0.84210526 0.03508772 0.12280702 0.67524116 0.00321543 0.32154341 0.78571429 0.01785714 0.19642857 0.80281691 0.02816901 0.16901408 0.76785715 0.01785714 0.21428571 0.60240964 0.00172117 0.39586919 0.75714286 0.01428571 0.22857143 0.75 0.02173913 0.22826087 0.81034483 0.03448276 0.15517241 0.9010989 0.02197802 0.07692308 0.90384615 0.01923077 0.07692308 0.904 0.024 0.072 0.89010989 0.02197802 0.08791209 0.85294118 0.01960784 0.12745098 0.86666667 0.01333333 0.12 0.86746988 0.02409639 0.10843373 0.85 0.025 0.125 0.8 0.01666667 0.18333333 0.81818182 0.01298701 0.16883117 0.8172043 0.02150538 0.16129032 0.84210526 0.01754386 0.14035088 0.88888889 0.08333333 0.02777778 0.9 0.05 0.05 0.90666667 0.05333333 0.04 0.88135593 0.05084746 0.06779661 0.83333334 0.03333333 0.13333333 0.83673469 0.04081633 0.12244898 0.85714285 0.03571429 0.10714286 0.8245614 0.03508772 0.14035088 0.75308642 0.02469136 0.22222222 0.79032259 0.03225806 0.17741935 0.79710145 0.02898551 0.17391304 0.84848485 0.03030303 0.12121212</probabilities>
        </cpt>
        <cpt id="spleen">
            <state id="absent" />
            <state id="present" />
            <parents>Cirrhosis RHepatitis THepatitis</parents>
            <probabilities>0.8992933 0.1007067 0.8888889 0.1111111 0.8823529 0.1176471 0.8378378 0.1621622 0.7419355 0.2580645 0.7843137 0.2156863 0.7555556 0.2444444 0.6976744 0.3023256 0.5172414 0.4827586 0.6376812 0.3623188 0.6296296 0.3703704 0.6764706 0.3235294</probabilities>
        </cpt>
        <cpt id="edema">
            <state id="absent" />
            <state id="present" />
            <parents>Cirrhosis</parents>
            <probabilities>0.8688525 0.1311475 0.93548387 0.06451613 0.6551724 0.3448276</probabilities>
        </cpt>
        <cpt id="edge">
            <state id="absent" />
            <state id="present" />
            <parents>Cirrhosis</parents>
            <probabilities>0.7655738 0.2344262 0.5483871 0.4516129 0.2413793 0.7586207</probabilities>
        </cpt>
        <cpt id="proteins">
            <state id="a10_6" />
            <state id="a5_2" />
            <parents>Cirrhosis</parents>
            <probabilities>0.98032787 0.01967213 0.99678457 0.00321543 0.99827883 0.00172117</probabilities>
        </cpt>
        <cpt id="spiders">
            <state id="absent" />
            <state id="present" />
            <parents>Cirrhosis</parents>
            <probabilities>0.8163934 0.1836066 0.516129 0.483871 0.3965517 0.6034483</probabilities>
        </cpt>
        <cpt id="palms">
            <state id="absent" />
            <state id="present" />
            <parents>Cirrhosis</parents>
            <probabilities>0.8590164 0.1409836 0.7096774 0.2903226 0.5 0.5</probabilities>
        </cpt>
        <cpt id="platelet">
            <state id="a149_100" />
            <state id="a299_150" />
            <state id="a597_300" />
            <state id="a99_0" />
            <parents>Cirrhosis PBC</parents>
            <probabilities>0.13939394 0.73636364 0.09393939 0.03030303 0.15714286 0.67142857 0.06428571 0.10714286 0.16129032 0.64516129 0.06451613 0.12903226 0.17486339 0.63934426 0.06557377 0.12021858 0.27586207 0.46551724 0.06896552 0.18965517 0.17857143 0.63690476 0.06547619 0.11904762</probabilities>
        </cpt>
        <cpt id="carcinoma">
            <state id="absent" />
            <state id="present" />
            <parents>Cirrhosis PBC</parents>
            <probabilities>0.99 0.01 0.9 0.1 0.8 0.2 0.7272727 0.2727273 0.7 0.3 0.6363636 0.3636364</probabilities>
        </cpt>
        <cpt id="albumin">
            <state id="a29_0" />
            <state id="a49_30" />
            <state id="a70_50" />
            <parents>Cirrhosis</parents>
            <probabilities>0.1180328 0.1426229 0.7393443 0.03215434 0.00321543 0.96463023 0.00172117 0.08605852 0.91222031</probabilities>
        </cpt>
        <cpt id="bilirubin">
            <state id="a19_7" />
            <state id="a1_0" />
            <state id="a6_2" />
            <state id="a88_20" />
            <parents>ChHepatitis Cirrhosis Hyperbilirubinemia PBC gallstones</parents>
            <probabilities>0.02126152 0.84337349 0.13465627 0.00070872 0.01587302 0.95238094 0.01587302 0.01587302 0.16666667 0.41414141 0.38888889 0.03030303 0.24390244 0.30487805 0.36585366 0.08536585 0.00181159 0.45289855 0.54347827 0.00181159 0.07692308 0.76923076 0.07692308 0.07692308 0.12371134 0.44845361 0.40721649 0.02061856 0.22727273 0.33333333 0.36363636 0.07575758 0.03448276 0.8275862 0.10344828 0.03448276 0.04545455 0.45454545 0.45454545 0.04545455 0.14124294 0.49152542 0.33898305 0.02824859 0.22535211 0.33802817 0.36619718 0.07042254 0.00144509 0.63583814 0.36127168 0.00144509 0.01388889 0.55555555 0.41666667 0.01388889 0.11811024 0.48031496 0.37795276 0.02362205 0.23076923 0.33333333 0.35897436 0.07692308 0.13207547 0.41509434 0.43396226 0.01886792 0.19230769 0.76923077 0.01923077 0.01923077 0.15025907 0.44041451 0.38341969 0.02590674 0.23076923 0.33846154 0.35384615 0.07692308 0.05740528 0.49368542 0.44776119 0.00114811 0.13245033 0.59602649 0.26490066 0.00662252 0.12408759 0.4379562 0.41605839 0.02189781 0.23684211 0.34210526 0.34210526 0.07894737 0.02469136 0.81481481 0.14814815 0.01234568 0.00980392 0.78431373 0.19607843 0.00980392 0.15083799 0.48044693 0.32960894 0.03910615 0.1641791 0.44776119 0.34328358 0.04477612 0.01468429 0.67547724 0.30837004 0.00146843 0.00255102 0.66326531 0.33163265 0.00255102 0.12121212 0.49242424 0.35606061 0.03030303 0.15492958 0.43661972 0.36619718 0.04225352 0.01818182 0.81818181 0.14545455 0.01818182 0.09646302 0.48231511 0.41800643 0.00321543 0.136 0.52 0.312 0.032 0.17021277 0.41489362 0.37234043 0.04255319 0.01782531 0.69518717 0.28520499 0.00178253 0.03115265 0.52959502 0.43613707 0.00311526 0.11111111 0.52525253 0.34343434 0.02020202 0.16071429 0.41071429 0.39285714 0.03571429 0.07246377 0.66666667 0.24637681 0.01449275 0.16037736 0.44339623 0.36792453 0.02830189 0.14393939 0.48484848 0.34090909 0.03030303 0.14285714 0.40816327 0.40816327 0.04081633 0.04538578 0.60514372 0.34795764 0.00151286 0.11594203 0.47826087 0.39130435 0.01449275 0.11538462 0.5 0.36538462 0.01923077 0.2173913 0.39130435 0.34782609 0.04347826 0.00284091 0.9375 0.05681818 0.00284091 0.07692308 0.76923076 0.07692308 0.07692308 0.14634146 0.48780488 0.33658537 0.02926829 0.19444444 0.39814815 0.35185185 0.05555556 0.00127877 0.66496164 0.33248082 0.00127877 0.0049505 0.6930693 0.2970297 0.0049505 0.11510791 0.48920863 0.37410072 0.02158273 0.2 0.38 0.36 0.06 0.01694915 0.86440678 0.10169492 0.01694915 0.0621118 0.49689441 0.43478261 0.00621118 0.1328125 0.53125 0.3125 0.0234375 0.20338983 0.37288136 0.37288136 0.05084746 0.00174825 0.6993007 0.2972028 0.00174825 0.00892857 0.53571429 0.44642857 0.00892857 0.10679612 0.52427184 0.34951456 0.01941748 0.20588235 0.35294118 0.38235294 0.05882353 0.07692308 0.64102564 0.26923077 0.01282051 0.16363636 0.47272727 0.34545455 0.01818182 0.13768116 0.48550725 0.35507246 0.02173913 0.20454545 0.36363636 0.36363636 0.06818182 0.04341534 0.5788712 0.37626628 0.00144718 0.11952191 0.51792829 0.35856574 0.00398406 0.11818182 0.48181818 0.38181818 0.01818182 0.22222222 0.37037037 0.33333333 0.07407407</probabilities>
        </cpt>
        <cpt id="alt">
            <state id="a199_100" />
            <state id="a34_0" />
            <state id="a850_200" />
            <state id="a99_35" />
            <parents>ChHepatitis Cirrhosis RHepatitis Steatosis THepatitis</parents>
            <probabilities>0.17473118 0.35215054 0.04569892 0.42741935 0.07380074 0.55350553 0.00369004 0.36900369 0.08941878 0.49180328 0.00149031 0.41728763 0.09198423 0.48620237 0.00131406 0.42049934 0.23391813 0.29239766 0.00584795 0.46783626 0.1425178 0.4275534 0.0023753 0.4275534 0.11577424 0.4341534 0.00144718 0.44862518 0.11516315 0.46065259 0.00191939 0.42226488 0.19354839 0.25806452 0.03225806 0.51612903 0.11764706 0.42647059 0.01470588 0.44117647 0.10588235 0.43529412 0.01176471 0.44705882 0.10327022 0.4475043 0.00172117 0.4475043 0.15517241 0.34482759 0.01724138 0.48275862 0.14962594 0.39900249 0.00249377 0.44887781 0.12477718 0.40998217 0.00178253 0.46345811 0.12738854 0.44585987 0.00212314 0.42462845 0.12068966 0.34482759 0.06896552 0.46551724 0.1 0.45 0.025 0.425 0.09333333 0.45333333 0.02666667 0.42666667 0.10909091 0.43636364 0.01818182 0.43636364 0.12676056 0.38028169 0.02816901 0.46478873 0.12 0.42 0.02 0.44 0.11666667 0.41666667 0.01666667 0.45 0.12 0.46 0.02 0.4 0.2307692 0.2527472 0.1208791 0.3956044 0.1875 0.32291667 0.08333333 0.40625 0.168 0.352 0.064 0.416 0.15294118 0.37647059 0.05882353 0.41176471 0.2247191 0.26966292 0.08988764 0.41573034 0.19047619 0.31746032 0.07936508 0.41269841 0.175 0.35 0.0625 0.4125 0.15873016 0.38095238 0.04761905 0.41269841 0.19685039 0.29133858 0.08661417 0.42519685 0.18181818 0.32467532 0.07792208 0.41558442 0.1666667 0.34375 0.0625 0.4270833 0.16438356 0.35616438 0.05479452 0.42465753 0.20833333 0.27777778 0.08333333 0.43055556 0.19298246 0.31578947 0.07017544 0.42105263 0.17647059 0.33823529 0.05882353 0.42647059 0.16363636 0.36363636 0.05454545 0.41818182 0.17777778 0.31851852 0.08148148 0.42222222 0.1627907 0.34883721 0.06976744 0.41860465 0.16666667 0.34313725 0.06862745 0.42156863 0.1728395 0.345679 0.0617284 0.4197531 0.1875 0.3125 0.075 0.425 0.17741935 0.33870968 0.06451613 0.41935484 0.16438356 0.34246575 0.06849315 0.42465753 0.15686275 0.37254902 0.05882353 0.41176471 0.13888889 0.55555555 0.02777778 0.27777778 0.10909091 0.52727272 0.01818182 0.34545455 0.10714286 0.5 0.01190476 0.38095238 0.09983361 0.51580699 0.00166389 0.38269551 0.16666667 0.4375 0.02083333 0.375 0.1312336 0.49868766 0.00262467 0.36745407 0.12704174 0.47186933 0.00181488 0.39927405 0.1084599 0.4989154 0.0021692 0.3904555 0.13157895 0.44736842 0.02631579 0.39473684 0.12244898 0.46938776 0.02040816 0.3877551 0.11940299 0.46268657 0.01492537 0.40298507 0.11516315 0.47984645 0.00191939 0.40307102 0.15909091 0.40909091 0.02272727 0.40909091 0.13477089 0.45822102 0.00269542 0.40431267 0.1247401 0.4573805 0.002079 0.4158004 0.13043478 0.43478261 0.02173913 0.41304348 0.11363636 0.46590909 0.03409091 0.38636364 0.10344828 0.48275862 0.01724138 0.39655172 0.11111111 0.47222222 0.02777778 0.38888889 0.12068966 0.46551724 0.01724138 0.39655172 0.13207547 0.43396226 0.01886792 0.41509434 0.11363636 0.45454545 0.02272727 0.40909091 0.11538462 0.46153846 0.01923077 0.40384615 0.15517241 0.39655172 0.05172414 0.39655172</probabilities>
        </cpt>
        <cpt id="urea">
            <state id="a165_50" />
            <state id="a39_0" />
            <state id="a49_40" />
            <parents>encephalopathy</parents>
            <probabilities>0.03550296 0.89940828 0.06508876 0.2173913 0.6521739 0.1304348</probabilities>
        </cpt>
        <cpt id="ascites">
            <state id="absent" />
            <state id="present" />
            <parents>proteins</parents>
            <probabilities>0.8719068 0.1280932 0.4166667 0.5833333</probabilities>
        </cpt>
        <cpt id="bleeding">
            <state id="absent" />
            <state id="present" />
            <parents>inr platelet</parents>
            <probabilities>0.8666667 0.1333333 0.8626506 0.1373494 0.893617 0.106383 0.744186 0.255814 0.8 0.2 0.8695652 0.1304348 0.8571429 0.1428571 0.5 0.5 0.75 0.25 0.575 0.425 0.90909091 0.09090909 0.3333333 0.6666667</probabilities>
        </cpt>
        <cpt id="jaundice">
            <state id="absent" />
            <state id="present" />
            <parents>bilirubin</parents>
            <probabilities>0.4328358 0.5671642 0.8057554 0.1942446 0.6532663 0.3467337 0.25 0.75</probabilities>
        </cpt>
        <cpt id="density">
            <state id="absent" />
            <state id="present" />
            <parents>encephalopathy</parents>
            <probabilities>0.6227811 0.3772189 0.2608696 0.7391304</probabilities>
        </cpt>
        <cpt id="itching">
            <state id="absent" />
            <state id="present" />
            <parents>bilirubin</parents>
            <probabilities>0.3134328 0.6865672 0.6666667 0.3333333 0.4522613 0.5477387 0.125 0.875</probabilities>
        </cpt>
        <cpt id="consciousness">
            <state id="absent" />
            <state id="present" />
            <parents>encephalopathy</parents>
            <probabilities>0.98372781 0.01627219 0.6956522 0.3043478</probabilities>
        </cpt>
        <cpt id="skin">
            <state id="absent" />
            <state id="present" />
            <parents>bilirubin</parents>
            <probabilities>0.1044776 0.8955224 0.8177458 0.1822542 0.2964824 0.7035176 0.00621118 0.99378882</probabilities>
        </cpt>
    </nodes>
    <extensions>
        <genie version="1.0" app="GeNIe 4.0.1922.0 ACADEMIC" name="Network1">
            <node id="sex">
                <name>sex</name>
                <interior color="e5f6f7" />
                <outline color="000080" />
                <font color="000000" name="Arial" size="8" />
                <position>20 100 100 140</position>
            </node>
            <node id="age">
                <name>age</name>
                <interior color="e5f6f7" />
                <outline color="000080" />
                <font color="000000" name="Arial" size="8" />
                <position>120 100 200 140</position>
            </node>
            <node id="vh_amn">
                <name>vh_amn</name>
                <interior color="e5f6f7" />
                <outline color="000080" />
                <font color="000000" name="Arial" size="8" />
                <position>220 100 300 140</position>
            </node>
            <node id="gallstones">
                <name>gallstones</name>
                <interior color="e5f6f7" />
                <outline color="000080" />
                <font color="000000" name="Arial" size="8" />
                <position>320 100 400 140</position>
            </node>
            <node id="alcoholism">
                <name>alcoholism</name>
                <interior color="e5f6f7" />
                <outline color="000080" />
                <font color="000000" name="Arial" size="8" />
                <position>420 100 500 140</position>
            </node>
            <node id="surgery">
                <name>surgery</name>
                <interior color="e5f6f7" />
                <outline color="000080" />
                <font color="000000" name="Arial" size="8" />
                <position>520 100 600 140</position>
            </node>
            <node id="hospital">
                <name>hospital</name>
                <interior color="e5f6f7" />
                <outline color="000080" />
                <font color="000000" name="Arial" size="8" />
                <position>620 100 700 140</position>
            </node>
            <node id="hepatotoxic">
                <name>hepatotoxic</name>
                <interior color="e5f6f7" />
                <outline color="000080" />
                <font color="000000" name="Arial" size="8" />
                <position>720 100 800 140</position>
            </node>
            <node id="diabetes">
                <name>diabetes</name>
                <interior color="e5f6f7" />
                <outline color="000080" />
                <font color="000000" name="Arial" size="8" />
                <position>820 100 900 140</position>
            </node>
            <node id="THepatitis">
                <name>THepatitis</name>
                <interior color="e5f6f7" />
                <outline color="000080" />
                <font color="000000" name="Arial" size="8" />
                <position>20 200 100 240</position>
            </node>
            <node id="choledocholithotomy">
                <name>choledocholithotomy</name>
                <interior color="e5f6f7" />
                <outline color="000080" />
                <font color="000000" name="Arial" size="8" />
                <position>120 200 200 240</position>
            </node>
            <node id="RHepatitis">
                <name>RHepatitis</name>
                <interior color="e5f6f7" />
                <outline color="000080" />
                <font color="000000" name="Arial" size="8" />
                <position>220 200 300 240</position>
            </node>
            <node id="PBC">
                <name>PBC</name>
                <interior color="e5f6f7" />
                <outline color="000080" />
                <font color="000000" name="Arial" size="8" />
                <position>320 200 400 240</position>
            </node>
            <node id="flatulence">
                <name>flatulence</name>
                <interior color="e5f6f7" />
                <outline color="000080" />
                <font color="000000" name="Arial" size="8" />
                <position>420 200 500 240</position>
            </node>
            <node id="obesity">
                <name>obesity</name>
                <interior color="e5f6f7" />
                <outline color="000080" />
                <font color="000000" name="Arial" size="8" />
                <position>520 200 600 240</position>
            </node>
            <node id="fat">
                <name>fat</name>
                <interior color="e5f6f7" />
                <outline color="000080" />
                <font color="000000" name="Arial" size="8" />
                <position>620 200 700 240</position>
            </node>
            <node id="upper_pain">
                <name>upper_pain</name>
                <interior color="e5f6f7" />
                <outline color="000080" />
                <font color="000000" name="Arial" size="8" />
                <position>720 200 800 240</position>
            </node>
            <node id="Hyperbilirubinemia">
                <name>Hyperbilirubinemia</name>
                <interior color="e5f6f7" />
                <outline color="000080" />
                <font color="000000" name="Arial" size="8" />
                <position>820 200 900 240</position>
            </node>
            <node id="amylase">
                <name>amylase</name>
                <interior color="e5f6f7" />
                <outline color="000080" />
                <font color="000000" name="Arial" size="8" />
                <position>920 200 1000 240</position>
            </node>
            <node id="joints">
                <name>joints</name>
                <interior color="e5f6f7" />
                <outline color="000080" />
                <font color="000000" name="Arial" size="8" />
                <position>20 300 100 340</position>
            </node>
            <node id="injections">
                <name>injections</name>
                <interior color="e5f6f7" />
                <outline color="000080" />
                <font color="000000" name="Arial" size="8" />
                <position>120 300 200 340</position>
            </node>
            <node id="ama">
                <name>ama</name>
                <interior color="e5f6f7" />
                <outline color="000080" />
                <font color="000000" name="Arial" size="8" />
                <position>220 300 300 340</position>
            </node>
            <node id="transfusion">
                <name>transfusion</name>
                <interior color="e5f6f7" />
                <outline color="000080" />
                <font color="000000" name="Arial" size="8" />
                <position>320 300 400 340</position>
            </node>
            <node id="anorexia">
                <name>anorexia</name>
                <interior color="e5f6f7" />
                <outline color="000080" />
                <font color="000000" name="Arial" size="8" />
                <position>420 300 500 340</position>
            </node>
            <node id="le_cells">
                <name>le_cells</name>
                <interior color="e5f6f7" />
                <outline color="000080" />
                <font color="000000" name="Arial" size="8" />
                <position>520 300 600 340</position>
            </node>
            <node id="nausea">
                <name>nausea</name>
                <interior color="e5f6f7" />
                <outline color="000080" />
                <font color="000000" name="Arial" size="8" />
                <position>620 300 700 340</position>
            </node>
            <node id="Steatosis">
                <name>Steatosis</name>
                <interior color="e5f6f7" />
                <outline color="000080" />
                <font color="000000" name="Arial" size="8" />
                <position>720 300 800 340</position>
            </node>
            <node id="pain_ruq">
                <name>pain_ruq</name>
                <interior color="e5f6f7" />
                <outline color="000080" />
                <font color="000000" name="Arial" size="8" />
                <position>20 400 100 440</position>
            </node>
            <node id="ChHepatitis">
                <name>ChHepatitis</name>
                <interior color="e5f6f7" />
                <outline color="000080" />
                <font color="000000" name="Arial" size="8" />
                <position>120 400 200 440</position>
            </node>
            <node id="hepatomegaly">
                <name>hepatomegaly</name>
                <interior color="e5f6f7" />
                <outline color="000080" />
                <font color="000000" name="Arial" size="8" />
                <position>220 400 300 440</position>
            </node>
            <node id="triglycerides">
                <name>triglycerides</name>
                <interior color="e5f6f7" />
                <outline color="000080" />
                <font color="000000" name="Arial" size="8" />
                <position>320 400 400 440</position>
            </node>
            <node id="pain">
                <name>pain</name>
                <interior color="e5f6f7" />
                <outline color="000080" />
                <font color="000000" name="Arial" size="8" />
                <position>420 400 500 440</position>
            </node>
            <node id="hepatalgia">
                <name>hepatalgia</name>
                <interior color="e5f6f7" />
                <outline color="000080" />
                <font color="000000" name="Arial" size="8" />
                <position>20 500 100 540</position>
            </node>
            <node id="fibrosis">
                <name>fibrosis</name>
                <interior color="e5f6f7" />
                <outline color="000080" />
                <font color="000000" name="Arial" size="8" />
                <position>120 500 200 540</position>
            </node>
            <node id="hcv_anti">
                <name>hcv_anti</name>
                <interior color="e5f6f7" />
                <outline color="000080" />
                <font color="000000" name="Arial" size="8" />
                <position>220 500 300 540</position>
            </node>
            <node id="ESR">
                <name>ESR</name>
                <interior color="e5f6f7" />
                <outline color="000080" />
                <font color="000000" name="Arial" size="8" />
                <position>320 500 400 540</position>
            </node>
            <node id="fatigue">
                <name>fatigue</name>
                <interior color="e5f6f7" />
                <outline color="000080" />
                <font color="000000" name="Arial" size="8" />
                <position>420 500 500 540</position>
            </node>
            <node id="cholesterol">
                <name>cholesterol</name>
                <interior color="e5f6f7" />
                <outline color="000080" />
                <font color="000000" name="Arial" size="8" />
                <position>520 500 600 540</position>
            </node>
            <node id="hbc_anti">
                <name>hbc_anti</name>
                <interior color="e5f6f7" />
                <outline color="000080" />
                <font color="000000" name="Arial" size="8" />
                <position>620 500 700 540</position>
            </node>
            <node id="ggtp">
                <name>ggtp</name>
                <interior color="e5f6f7" />
                <outline color="000080" />
                <font color="000000" name="Arial" size="8" />
                <position>720 500 800 540</position>
            </node>
            <node id="pressure_ruq">
                <name>pressure_ruq</name>
                <interior color="e5f6f7" />
                <outline color="000080" />
                <font color="000000" name="Arial" size="8" />
                <position>820 500 900 540</position>
            </node>
            <node id="hbeag">
                <name>hbeag</name>
                <interior color="e5f6f7" />
                <outline color="000080" />
                <font color="000000" name="Arial" size="8" />
                <position>920 500 1000 540</position>
            </node>
            <node id="hbsag">
                <name>hbsag</name>
                <interior color="e5f6f7" />
                <outline color="000080" />
                <font color="000000" name="Arial" size="8" />
                <position>1020 500 1100 540</position>
            </node>
            <node id="Cirrhosis">
                <name>Cirrhosis</name>
                <interior color="e5f6f7" />
                <outline color="000080" />
                <font color="000000" name="Arial" size="8" />
                <position>20 600 100 640</position>
            </node>
            <node id="hbsag_anti">
                <name>hbsag_anti</name>
                <interior color="e5f6f7" />
                <outline color="000080" />
                <font color="000000" name="Arial" size="8" />
                <position>120 600 200 640</position>
            </node>
            <node id="ast">
                <name>ast</name>
                <interior color="e5f6f7" />
                <outline color="000080" />
                <font color="000000" name="Arial" size="8" />
                <position>20 700 100 740</position>
            </node>
            <node id="encephalopathy">
                <name>encephalopathy</name>
                <interior color="e5f6f7" />
                <outline color="000080" />
                <font color="000000" name="Arial" size="8" />
                <position>120 700 200 740</position>
            </node>
            <node id="phosphatase">
                <name>phosphatase</name>
                <interior color="e5f6f7" />
                <outline color="000080" />
                <font color="000000" name="Arial" size="8" />
                <position>220 700 300 740</position>
            </node>
            <node id="irregular_liver">
                <name>irregular_liver</name>
                <interior color="e5f6f7" />
                <outline color="000080" />
                <font color="000000" name="Arial" size="8" />
                <position>320 700 400 740</position>
            </node>
            <node id="alcohol">
                <name>alcohol</name>
                <interior color="e5f6f7" />
                <outline color="000080" />
                <font color="000000" name="Arial" size="8" />
                <position>420 700 500 740</position>
            </node>
            <node id="inr">
                <name>inr</name>
                <interior color="e5f6f7" />
                <outline color="000080" />
                <font color="000000" name="Arial" size="8" />
                <position>520 700 600 740</position>
            </node>
            <node id="spleen">
                <name>spleen</name>
                <interior color="e5f6f7" />
                <outline color="000080" />
                <font color="000000" name="Arial" size="8" />
                <position>620 700 700 740</position>
            </node>
            <node id="edema">
                <name>edema</name>
                <interior color="e5f6f7" />
                <outline color="000080" />
                <font color="000000" name="Arial" size="8" />
                <position>720 700 800 740</position>
            </node>
            <node id="edge">
                <name>edge</name>
                <interior color="e5f6f7" />
                <outline color="000080" />
                <font color="000000" name="Arial" size="8" />
                <position>820 700 900 740</position>
            </node>
            <node id="proteins">
                <name>proteins</name>
                <interior color="e5f6f7" />
                <outline color="000080" />
                <font color="000000" name="Arial" size="8" />
                <position>920 700 1000 740</position>
            </node>
            <node id="spiders">
                <name>spiders</name>
                <interior color="e5f6f7" />
                <outline color="000080" />
                <font color="000000" name="Arial" size="8" />
                <position>1020 700 1100 740</position>
            </node>
            <node id="palms">
                <name>palms</name>
                <interior color="e5f6f7" />
                <outline color="000080" />
                <font color="000000" name="Arial" size="8" />
                <position>1120 700 1200 740</position>
            </node>
            <node id="platelet">
                <name>platelet</name>
                <interior color="e5f6f7" />
                <outline color="000080" />
                <font color="000000" name="Arial" size="8" />
                <position>1220 700 1300 740</position>
            </node>
            <node id="carcinoma">
                <name>carcinoma</name>
                <interior color="e5f6f7" />
                <outline color="000080" />
                <font color="000000" name="Arial" size="8" />
                <position>1320 700 1400 740</position>
            </node>
            <node id="albumin">
                <name>albumin</name>
                <interior color="e5f6f7" />
                <outline color="000080" />
                <font color="000000" name="Arial" size="8" />
                <position>1420 700 1500 740</position>
            </node>
            <node id="bilirubin">
                <name>bilirubin</name>
                <interior color="e5f6f7" />
                <outline color="000080" />
                <font color="000000" name="Arial" size="8" />
                <position>1520 700 1600 740</position>
            </node>
            <node id="alt">
                <name>alt</name>
                <interior color="e5f6f7" />
                <outline color="000080" />
                <font color="000000" name="Arial" size="8" />
                <position>1620 700 1700 740</position>
            </node>
            <node id="urea">
                <name>urea</name>
                <interior color="e5f6f7" />
                <outline color="000080" />
                <font color="000000" name="Arial" size="8" />
                <position>20 800 100 840</position>
            </node>
            <node id="ascites">
                <name>ascites</name>
                <interior color="e5f6f7" />
                <outline color="000080" />
                <font color="000000" name="Arial" size="8" />
                <position>120 800 200 840</position>
            </node>
            <node id="bleeding">
                <name>bleeding</name>
                <interior color="e5f6f7" />
                <outline color="000080" />
                <font color="000000" name="Arial" size="8" />
                <position>220 800 300 840</position>
            </node>
            <node id="jaundice">
                <name>jaundice</name>
                <interior color="e5f6f7" />
                <outline color="000080" />
                <font color="000000" name="Arial" size="8" />
                <position>320 800 400 840</position>
            </node>
            <node id="density">
                <name>density</name>
                <interior color="e5f6f7" />
                <outline color="000080" />
                <font color="000000" name="Arial" size="8" />
                <position>420 800 500 840</position>
            </node>
            <node id="itching">
                <name>itching</name>
                <interior color="e5f6f7" />
                <outline color="000080" />
                <font color="000000" name="Arial" size="8" />
                <position>520 800 600 840</position>
            </node>
            <node id="consciousness">
                <name>consciousness</name>
                <interior color="e5f6f7" />
                <outline color="000080" />
                <font color="000000" name="Arial" size="8" />
                <position>620 800 700 840</position>
            </node>
            <node id="skin">
                <name>skin</name>
                <interior color="e5f6f7" />
                <outline color="000080" />
                <font color="000000" name="Arial" size="8" />
                <position>720 800 800 840</position>
            </node>
        </genie>
    </extensions>
</smile>
