<?xml version="1.0" encoding="UTF-8"?>
<!-- This network was created in GeNIe Academic, which can be used for academic teaching and research purposes only -->
<smile version="1.0" id="bnbench" numsamples="100000" discsamples="100000">
	<nodes>
		<cpt id="MTH_MaternalAge">
			<state id="S25_" />
			<state id="upto_24" />
			<probabilities>0.673084848648253 0.3269151513517469</probabilities>
		</cpt>
		<cpt id="GEO_Region">
			<state id="Region_1" />
			<state id="Region_2" />
			<state id="Region_3" />
			<state id="Region_4" />
			<probabilities>0.1553536419555747 0.30504531500961 0.3563535379602276 0.1832475050745878</probabilities>
		</cpt>
		<cpt id="CUL_Religion">
			<state id="Hindu" />
			<state id="Muslim" />
			<state id="Other" />
			<parents>GEO_Region</parents>
			<probabilities>0.4630584618436059 0.1886993603411514 0.3482421778152427 0.7631379580292431 0.1033611959897977 0.1335008459809591 0.7678963239983139 0.1640527891568218 0.06805088684486429 0.7863628720363208 0.209664536741214 0.003972591222465108</probabilities>
		</cpt>
		<cpt id="CUL_LanguageGroup">
			<state id="Language_group_1" />
			<state id="Language_group_2" />
			<state id="Language_group_3" />
			<parents>GEO_Region</parents>
			<probabilities>0.04460256855258591 0.9281251549561165 0.02727227649129766 0.244475870602793 0.1841839440389909 0.5713401853582161 0.3308185345712772 0.0352900485305721 0.6338914168981507 0.001429292080040356 0.001114007062384396 0.9974567008575752</probabilities>
		</cpt>
		<cpt id="BF_EarlyBreastfeeding">
			<state id="Immediately" />
			<state id="More_than_3_hours" />
			<state id="Within_3_hours" />
			<parents>CUL_LanguageGroup GEO_Region</parents>
			<probabilities>0.6870483602001112 0.09060589216231239 0.2223457476375764 0.4576490032021485 0.1578865819646731 0.3844644148331784 0.6922926128009932 0.0721076877838403 0.2355996994151665 0.1764705882352941 0.4264705882352941 0.3970588235294117 0.7363964204621344 0.05879524509149192 0.2048083344463737 0.5067525879207514 0.1268252553643655 0.3664221567148831 0.6655436447166921 0.06523736600306279 0.269218989280245 0.2264150943396226 0.3584905660377358 0.4150943396226415 0.6009090909090909 0.08818181818181818 0.3109090909090909 0.3303940418572786 0.1428539857234414 0.52675197241928 0.3146623015670026 0.1580131976060156 0.5273245008269818 0.1856495627436519 0.4475397745232325 0.3668106627331156</probabilities>
		</cpt>
		<cpt id="ECO_WealthQuintile">
			<state id="Average_or_below" />
			<state id="Richer" />
			<state id="Richest" />
			<parents>CUL_LanguageGroup GEO_Region</parents>
			<probabilities>0.3952195664257921 0.3479710950528071 0.2568093385214008 0.440243776469373 0.2896911476087181 0.2700650759219089 0.7215996340706374 0.163132616721665 0.1152677492076976 0.4852941176470588 0.3529411764705883 0.1617647058823529 0.7007880325898224 0.1900360625083478 0.1091759049018298 0.8251868101734421 0.1197641735792144 0.05504901624734353 0.7721286370597243 0.1356814701378254 0.09218989280245023 0.8867924528301887 0.09433962264150944 0.01886792452830189 0.4909090909090909 0.3063636363636363 0.2027272727272727 0.6386218479966408 0.1765342880505646 0.1848438639527945 0.791788156256927 0.1161355227036336 0.09207632103943936 0.712843746707407 0.1527552418080287 0.1344010114845643</probabilities>
		</cpt>
		<cpt id="MTH_Education">
			<state id="Above_primary" />
			<state id="No_education" />
			<state id="Primary" />
			<parents>CUL_LanguageGroup ECO_WealthQuintile</parents>
			<probabilities>0.5452892772851948 0.2789117815908656 0.1757989411239395 0.8466939210806967 0.07145396373977959 0.08185211517952364 0.9406283856988082 0.02394366197183099 0.03542795232936078 0.5271431719679718 0.2845319425059379 0.1883248855260903 0.9039639058975185 0.03792029219035342 0.05811580191212805 0.9778505392912172 0.008474576271186441 0.0136748844375963 0.3337708863182651 0.4957110691789501 0.1705180445027848 0.7014071923162832 0.1654232745141836 0.1331695331695332 0.8819052295605205 0.0597593911122023 0.05833537932727719</probabilities>
		</cpt>
		<cpt id="WSH_ImprovedToilet">
			<state id="No" />
			<state id="Somewhat" />
			<state id="Yes" />
			<parents>ECO_WealthQuintile GEO_Region</parents>
			<probabilities>0.2010915044569765 0.4178279061306167 0.3810805894124067 0.6788790488899672 0.07691374499575397 0.2442072061142788 0.7159044522331546 0.0776571935306786 0.2064383542361668 0.721422673115489 0.02259053910581574 0.2559867877786953 0.0427138789154389 0.1304939952952829 0.8267921257892782 0.1092283628779979 0.0733837330552659 0.8173879040667362 0.1090879399036499 0.07299746876786152 0.8179145913284886 0.1320417697169552 0.03654850233580654 0.8314097279472382 0.01320201173512154 0.06726739312657166 0.9195305951383068 0.007988330091692137 0.04146985273687135 0.9505418171714365 0.01300249214432766 0.02611333838985806 0.9608841694658142 0.02222222222222222 0.01752738654147105 0.9602503912363067</probabilities>
		</cpt>
		<cpt id="HOU_CookingFuel">
			<state id="Agricultural_etc" />
			<state id="Non_agricultural" />
			<parents>CUL_LanguageGroup ECO_WealthQuintile</parents>
			<probabilities>0.06592460292147732 0.9340753970785227 0.04719161038037682 0.9528083896196232 0.04485373781148429 0.9551462621885157 0.07008007052082568 0.9299199294791743 0.007519604683639489 0.9924803953163606 0.0007704160246533128 0.9992295839753467 0.2917931468263735 0.7082068531736265 0.1113692204601296 0.8886307795398705 0.04547016940829855 0.9545298305917015</probabilities>
		</cpt>
		<cpt id="HOU_ModernWallMaterial">
			<state id="Grass_Burnt_Bricks" />
			<state id="Mud_or_stone_etc" />
			<state id="No_walls_etc" />
			<parents>CUL_LanguageGroup ECO_WealthQuintile</parents>
			<probabilities>0.1448300057408943 0.7094469605154047 0.145723033743701 0.1403306078919303 0.794169925346605 0.06549946676146463 0.09620801733477789 0.8634886240520043 0.04030335861321777 0.0964764073557139 0.3794167340042606 0.5241068586400255 0.09474701901385756 0.5831990546782684 0.3220539263078741 0.1005392912172573 0.6856702619414484 0.2137904468412943 0.4233233972343005 0.4530678845224747 0.1236087182432248 0.3741791378155014 0.5355818628545901 0.09023899932990842 0.3242818561257059 0.6120304443898846 0.06368769948440953</probabilities>
		</cpt>
		<cpt id="WSH_WashWithAgent">
			<state id="No" />
			<state id="Yes" />
			<parents>ECO_WealthQuintile WSH_ImprovedToilet</parents>
			<probabilities>0.3631024688660695 0.6368975311339306 0.334384126836957 0.6656158731630429 0.2210771711185673 0.7789228288814327 0.2017137563686892 0.7982862436313108 0.1380239520958084 0.8619760479041916 0.1177170709589662 0.8822829290410338 0.07727272727272727 0.9227272727272727 0.07710464201416208 0.9228953579858379 0.04129882694400774 0.9587011730559922</probabilities>
		</cpt>
		<cpt id="KNW_WatchTV">
			<state id="Frequently" />
			<state id="Moderate_or_None" />
			<parents>ECO_WealthQuintile MTH_Education</parents>
			<probabilities>0.4911616161616162 0.5088383838383839 0.1726269315673289 0.8273730684326711 0.3275878278855495 0.6724121721144505 0.8208245400231846 0.1791754599768154 0.6314814814814815 0.3685185185185185 0.7488183659689399 0.2511816340310601 0.8872915287367193 0.1127084712632807 0.7139001349527665 0.2860998650472334 0.8171500630517023 0.1828499369482976</probabilities>
		</cpt>
		<cpt id="SRV_Near">
			<state id="No" />
			<state id="Yes" />
			<parents>ECO_WealthQuintile MTH_Education</parents>
			<probabilities>0.3670520999468368 0.6329479000531633 0.4815974312663054 0.5184025687336946 0.4232034849102134 0.5767965150897866 0.2102666230716642 0.7897333769283358 0.2806584362139918 0.7193415637860082 0.2518568534773801 0.7481431465226198 0.1284403669724771 0.8715596330275229 0.238191632928475 0.761808367071525 0.2093316519546028 0.7906683480453972</probabilities>
		</cpt>
		<cpt id="WSH_SafeStoolDisposal">
			<state id="Into_garbage" />
			<state id="Other" />
			<state id="Used_toilet_latrine" />
			<parents>ECO_WealthQuintile WSH_ImprovedToilet</parents>
			<probabilities>0.1716145947126939 0.7871094603452042 0.04127594494210182 0.1926197209216077 0.656344165778128 0.1510361133002643 0.1450389995206763 0.5881302017517103 0.2668307987276134 0.1692913385826772 0.7021769337656323 0.1285317276516906 0.1302395209580838 0.5071856287425149 0.3625748502994012 0.1059283609158921 0.5260711856721831 0.3680004534119247 0.1204545454545455 0.5590909090909091 0.3204545454545454 0.09047993705743509 0.4437450826121164 0.4657749803304485 0.08453259160720765 0.4447635747974362 0.4707038335953562</probabilities>
		</cpt>
		<cpt id="WSH_ImprovedWaterSource">
			<state id="No" />
			<state id="Yes" />
			<parents>CUL_LanguageGroup ECO_WealthQuintile GEO_Region WSH_ImprovedToilet</parents>
			<probabilities>0.163594470046083 0.836405529953917 0.1527777777777778 0.8472222222222222 0.1024390243902439 0.8975609756097561 0.1249366018596788 0.8750633981403212 0.1352941176470588 0.8647058823529412 0.126487439400617 0.873512560599383 0.4888047305826855 0.5111952694173144 0.3537953795379538 0.6462046204620462 0.2650362318840579 0.734963768115942 0.7857142857142857 0.2142857142857143 0.4687378431364997 0.5312621568635003 0.8947368421052632 0.1052631578947368 0.04545454545454546 0.9545454545454546 0.05084745762711865 0.9491525423728814 0.02994011976047904 0.9700598802395209 0.08137931034482758 0.9186206896551724 0.1260162601626016 0.8739837398373984 0.08861578266494179 0.9113842173350583 0.28 0.72 0.2997275204359673 0.7002724795640327 0.1871933267909715 0.8128066732090284 0.4687378431364997 0.5312621568635003 1 0 0.8695652173913043 0.1304347826086956 0.3 0.7 0 1 0.02570694087403599 0.974293059125964 0 1 0.1792452830188679 0.8207547169811321 0.1508730625858348 0.8491269374141652 0.1951219512195122 0.8048780487804879 0.09565217391304348 0.9043478260869565 0.1073546856465006 0.8926453143534994 0.4687378431364997 0.5312621568635003 0.4687378431364997 0.5312621568635003 0.3636363636363636 0.6363636363636364 0.3072264836495761 0.6927735163504239 0.4223266536619968 0.5776733463380032 0.2203559288142372 0.7796440711857628 0.5959642637091805 0.4040357362908195 0.4774455144450076 0.5225544855549924 0.4151735722284434 0.5848264277715566 0.4012158054711246 0.5987841945288754 0.2645161290322581 0.7354838709677419 0.2232558139534884 0.7767441860465116 0.8823529411764706 0.1176470588235294 1 0 0.9166666666666666 0.08333333333333333 0.1294117647058824 0.8705882352941177 0.2053388090349076 0.7946611909650924 0.1325403568394223 0.8674596431605778 0.4137931034482759 0.5862068965517241 0.41 0.59 0.2743589743589744 0.7256410256410256 0.5038759689922481 0.4961240310077519 0.17 0.83 0.2897196261682243 0.7102803738317757 1 0 0.4687378431364997 0.5312621568635003 0.5 0.5 0.1132075471698113 0.8867924528301887 0.1129032258064516 0.8870967741935484 0.07765451664025357 0.9223454833597464 0.6666666666666666 0.3333333333333333 0.1666666666666667 0.8333333333333334 0.2233502538071066 0.7766497461928934 0.4166666666666667 0.5833333333333334 0.3333333333333333 0.6666666666666666 0.3660377358490566 0.6339622641509434 0.4687378431364997 0.5312621568635003 0.4687378431364997 0.5312621568635003 1 0 0.1223021582733813 0.8776978417266187 0.3582089552238806 0.6417910447761194 0.08614232209737828 0.9138576779026217 0.5644574613822099 0.4355425386177902 0.2649228705566734 0.7350771294433266 0.3658810325476992 0.6341189674523008 0.7346418113820196 0.2653581886179804 0.3854973659745894 0.6145026340254106 0.6060119320789353 0.3939880679210647 0.8790448103547145 0.1209551896452855 0.6196078431372549 0.3803921568627451 0.7462134350791999 0.2537865649208001 0 1 0.09523809523809523 0.9047619047619048 0.0547945205479452 0.9452054794520548 0.3252314814814815 0.6747685185185185 0.1987179487179487 0.8012820512820513 0.2378625472887768 0.7621374527112232 0.4155251141552511 0.5844748858447488 0.3395784543325527 0.6604215456674473 0.4059717129387114 0.5940282870612886 0.7645833333333333 0.2354166666666667 0.6037735849056604 0.3962264150943396 0.6560424966799469 0.3439575033200531 0.4687378431364997 0.5312621568635003 0.2 0.8 0.02816901408450704 0.971830985915493 0.4069767441860465 0.5930232558139535 0.2171189979123173 0.7828810020876826 0.1493781254006924 0.8506218745993076 0.3454545454545455 0.6545454545454545 0.3508771929824561 0.6491228070175439 0.2313133244121583 0.7686866755878418 0.528169014084507 0.4718309859154929 0.4017857142857143 0.5982142857142857 0.5259634225996082 0.4740365774003919</probabilities>
		</cpt>
		<cpt id="DEL_SmallBaby">
			<state id="Average_or_above" />
			<state id="Small" />
			<state id="Very_small" />
			<parents>ECO_WealthQuintile SRV_Near</parents>
			<probabilities>0.8624704997536243 0.09835576648772011 0.03917373375865556 0.8751908834084141 0.09475452393677941 0.03005459265480644 0.8854242963272994 0.08276655854347599 0.03180914512922465 0.8903231603222618 0.08499805325107071 0.02467878642666747 0.8846396301744064 0.08216011767177979 0.03320025215381383 0.9065538830424936 0.07219928067137338 0.02124683628613294</probabilities>
		</cpt>
		<cpt id="WSH_WaterTreated">
			<state id="No" />
			<state id="Yes" />
			<parents>HOU_CookingFuel MTH_Education WSH_ImprovedWaterSource</parents>
			<probabilities>0.9439395226365412 0.05606047736345876 0.780114722753346 0.2198852772466539 0.979957091237579 0.02004290876242096 0.8670886075949367 0.1329113924050633 0.9663424124513619 0.03365758754863813 0.8296500920810314 0.1703499079189687 0.6842092746730083 0.3157907253269917 0.4025657273346804 0.5974342726653197 0.8637220146274472 0.1362779853725528 0.605295232936078 0.394704767063922 0.7888556633360075 0.2111443366639924 0.4928059552247097 0.5071940447752903</probabilities>
		</cpt>
		<cpt id="FP_ModernMethod">
			<state id="No" />
			<state id="Yes" />
			<parents>KNW_WatchTV MTH_MaternalAge</parents>
			<probabilities>0.5704389109582405 0.4295610890417595 0.6785240935340339 0.3214759064659661 0.7172472147792976 0.2827527852207023 0.8027637012012012 0.1972362987987988</probabilities>
		</cpt>
		<cpt id="SRV_OKAlone">
			<state id="No" />
			<state id="Yes" />
			<parents>ECO_WealthQuintile SRV_Near</parents>
			<probabilities>0.5122798827770429 0.4877201172229571 0.1011586622890738 0.8988413377109261 0.4443863136967668 0.5556136863032333 0.06559046392524484 0.9344095360747552 0.4574490439167893 0.5425509560832108 0.05175169841481284 0.9482483015851871</probabilities>
		</cpt>
		<cpt id="CHI_Weight4Height">
			<state id="Slightly_underwight_or_above" />
			<state id="Underweight" />
			<state id="Very_underweight" />
			<parents>DEL_SmallBaby ECO_WealthQuintile</parents>
			<probabilities>0.5758196332745511 0.2577886493353813 0.1663917173900677 0.6522296996517322 0.2215559454293121 0.1262143549189557 0.6810893357088318 0.1968376177144311 0.1220730465767371 0.5177296865185862 0.2960086792668303 0.1862616342145834 0.5830807384954533 0.2639845687517222 0.1529346927528245 0.6221180148495506 0.2434544744040641 0.1344275107463853 0.4821717990275527 0.3217179902755267 0.1961102106969206 0.5514184397163121 0.2553191489361702 0.1932624113475177 0.5954773869346733 0.2638190954773869 0.1407035175879397</probabilities>
		</cpt>
		<cpt id="FP_BirthsLast5Yrs">
			<state id="S1_child" />
			<state id="S2_children" />
			<state id="S3_or_more_children" />
			<parents>CUL_LanguageGroup ECO_WealthQuintile FP_ModernMethod</parents>
			<probabilities>0.521307708376854 0.4018174221850846 0.07687486943806142 0.4922169424873013 0.4471571358348354 0.06062592167786335 0.642823080591321 0.3147353361945637 0.0424415832141154 0.5168312840153195 0.4422495464624068 0.04091916952227374 0.738575545491972 0.2445450802799506 0.0168793742280774 0.6548490393412626 0.3284537968892955 0.0166971637694419 0.5253816996705516 0.3919373693719225 0.08268093095752595 0.6018239492466296 0.3573354480570975 0.0408406026962728 0.6825829194039417 0.2848902419484057 0.03252683864765262 0.6769882659713168 0.3122555410691004 0.01075619295958279 0.7311677401288155 0.2475497059647158 0.02128255390646878 0.7119062307217767 0.2788402220851326 0.009253547193090685 0.3920604315142048 0.4727374792541248 0.1352020892316704 0.4324674856792881 0.4631624455092409 0.104370068811471 0.5106161532056619 0.4048015542603386 0.08458229253399945 0.5047033738868681 0.4286968518750784 0.06659977423805342 0.6282208588957056 0.3311130587204207 0.04066608238387379 0.6374092685650474 0.3329983249581239 0.02959240647682859</probabilities>
		</cpt>
		<cpt id="CHI_Age">
			<state id="S1_year" />
			<state id="S2_years" />
			<state id="S3_years" />
			<state id="S4_years" />
			<state id="Less_than_1_year" />
			<parents>FP_BirthsLast5Yrs MTH_MaternalAge</parents>
			<probabilities>0.1632657680598468 0.2061589651308865 0.2589775800993673 0.2582193098609084 0.113378376848991 0.2934474304119994 0.1976587664054613 0.1215806932359021 0.05980481707610211 0.3275082928705351 0.1914354473386183 0.1735277463193658 0.2100509626274066 0.258253114382786 0.1667327293318233 0.2059467148093441 0.2116636577493298 0.2132228240056896 0.1459871984244215 0.2231796050112151 0.1286185881157948 0.2058786185881158 0.1667089893346877 0.2868842051802946 0.2119095987811072 0.1295413936867183 0.2401727218582489 0.1743597379392496 0.2199225729600953 0.2360035735556879</probabilities>
		</cpt>
		<cpt id="IMM_VitaminA1">
			<state id="No" />
			<state id="Yes" />
			<parents>CHI_Age KNW_WatchTV MTH_Education</parents>
			<probabilities>0.1720285004858037 0.8279714995141962 0.2769382391590013 0.7230617608409987 0.2127811495894323 0.7872188504105676 0.2559413202933986 0.7440586797066014 0.3680886043090768 0.6319113956909232 0.3224204109279747 0.6775795890720253 0.1924480406155799 0.8075519593844201 0.3083434099153567 0.6916565900846433 0.2499148791283623 0.7500851208716377 0.2735699989465922 0.7264300010534078 0.3991483089018099 0.6008516910981901 0.3582224227385518 0.6417775772614482 0.2283034862774187 0.7716965137225813 0.3511029411764706 0.6488970588235294 0.2915407854984894 0.7084592145015106 0.3233640895110828 0.6766359104889171 0.4510551203331216 0.5489448796668784 0.3957331102279858 0.6042668897720143 0.2574736959305238 0.7425263040694762 0.3946859903381643 0.6053140096618358 0.3121869782971619 0.6878130217028381 0.3363457305063144 0.6636542694936856 0.4868319132455461 0.5131680867544539 0.4134387351778656 0.5865612648221344 0.5429996746556772 0.4570003253443227 0.5831501831501832 0.4168498168498169 0.5776499589153656 0.4223500410846344 0.6181998021760633 0.3818001978239367 0.6581671057583741 0.3418328942416259 0.6655446020678047 0.3344553979321953</probabilities>
		</cpt>
		<cpt id="BF_BreastfedMonths">
			<state id="S3_months_to_2_years" />
			<state id="Less_than_3_months" />
			<state id="More_than_2_years" />
			<parents>CHI_Age CUL_Religion ECO_WealthQuintile</parents>
			<probabilities>0.947688847525981 0.05110904296572049 0.001202109508298433 0.9263320198732226 0.07246873393866712 0.001199246188110331 0.9372507869884575 0.06128016789087094 0.001469045120671563 0.9374526156178924 0.06197877179681577 0.0005686125852918878 0.9263990267639902 0.072992700729927 0.0006082725060827251 0.9168110918544194 0.0805892547660312 0.002599653379549394 0.9474467030242935 0.0518096182449182 0.0007436787307882995 0.9286376274328082 0.06858202038924931 0.002780352177942539 0.9273631840796019 0.07263681592039802 0 0.2218423478795329 0.2518822987092809 0.5262753534111863 0.3516935218678067 0.2226241367971062 0.4256823413350871 0.4258443465491923 0.1942521501992868 0.3799035032515209 0.2861818181818182 0.3009090909090909 0.4129090909090909 0.4130297280202403 0.3358633776091082 0.2511068943706515 0.4708994708994709 0.2936507936507937 0.2354497354497354 0.3121783876500858 0.2629257534917912 0.424895858858123 0.35 0.3018181818181818 0.3481818181818182 0.4408284023668639 0.227810650887574 0.3313609467455622 0.1928724162508909 0.5269779044903777 0.2801496792587313 0.316274477538259 0.43574131973013 0.247984202731611 0.4194428209624002 0.3621663744398987 0.2183908045977012 0.2119453924914676 0.5998293515358362 0.1882252559726962 0.3129629629629629 0.5382716049382716 0.1487654320987654 0.4188034188034188 0.458974358974359 0.1222222222222222 0.2461883408071749 0.525560538116592 0.2282511210762332 0.3129699248120301 0.4765037593984963 0.2105263157894737 0.4336569579288026 0.3818770226537217 0.1844660194174757 0.1860384065800021 0.6420729794723452 0.1718886139476527 0.2962004850444624 0.5275666936135812 0.1762328213419563 0.392567988374507 0.4403155490969483 0.1671164625285447 0.1692570452604611 0.703672075149445 0.1270708795900939 0.2579821200510856 0.6289910600255428 0.1130268199233716 0.3358139534883721 0.5627906976744186 0.1013953488372093 0.2080227970188514 0.6492766330556773 0.1427005699254713 0.2723048327137547 0.5715613382899628 0.1561338289962825 0.3472882968601332 0.5204567078972407 0.1322549952426261 0.7668422733077905 0.2327586206896552 0.0003991060025542784 0.7826323422770123 0.2168237853517041 0.0005438723712835388 0.7622245540398741 0.2371458551941238 0.0006295907660020986 0.7626221498371335 0.2371742671009772 0.0002035830618892508 0.7716378162450066 0.2283621837549933 0 0.7702089009990918 0.2297910990009083 0 0.771006711409396 0.2276510067114094 0.001342281879194631 0.775811209439528 0.2232055063913471 0.0009832841691248771 0.7766776677667767 0.2233223322332233 0</probabilities>
		</cpt>
		<cpt id="BF_BottleFeeding">
			<state id="No" />
			<state id="Yes" />
			<parents>CHI_Age ECO_WealthQuintile GEO_Region MTH_Education</parents>
			<probabilities>0.812821288176595 0.1871787118234049 0.8698441796516957 0.1301558203483043 0.827482447342026 0.1725175526579739 0.7999529301012003 0.2000470698987997 0.887590428491931 0.112409571508069 0.8557863501483679 0.144213649851632 0.8200716845878137 0.1799283154121864 0.8712394705174489 0.1287605294825512 0.8493384549722578 0.1506615450277422 0.6832247557003257 0.3167752442996742 0.7759208731241474 0.2240791268758527 0.7354345749761223 0.2645654250238778 0.740234375 0.259765625 0.725 0.275 0.8571428571428571 0.1428571428571428 0.6931818181818182 0.3068181818181818 0.7753164556962026 0.2246835443037975 0.7344173441734417 0.2655826558265583 0.7594412829798242 0.2405587170201759 0.8151658767772512 0.1848341232227488 0.7842323651452282 0.2157676348547718 0.5166320166320166 0.4833679833679834 0.6455696202531646 0.3544303797468354 0.5795454545454546 0.4204545454545455 0.6767371601208459 0.3232628398791541 0.7272727272727273 0.2727272727272727 0.5 0.5 0.6478764478764478 0.3521235521235521 0.7142857142857143 0.2857142857142857 0.7079646017699115 0.2920353982300885 0.7050528789659224 0.2949471210340776 0.703125 0.296875 0.8 0.2 0.4723523898781631 0.5276476101218369 0.5576923076923077 0.4423076923076923 0.4230769230769231 0.5769230769230769 0.8501404932875429 0.1498595067124571 0.8674897119341564 0.1325102880658436 0.8702970297029703 0.1297029702970297 0.8285576691548279 0.1714423308451722 0.9043455219925808 0.09565447800741918 0.8659852356615559 0.1340147643384441 0.8332712369597616 0.1667287630402385 0.8939271255060729 0.1060728744939271 0.8739957716701903 0.1260042283298097 0.7136770345121431 0.2863229654878569 0.8176638176638177 0.1823361823361823 0.7931671283471837 0.2068328716528162 0.8090724441435342 0.1909275558564658 0.8571428571428571 0.1428571428571428 0.7532467532467533 0.2467532467532468 0.7352697095435685 0.2647302904564315 0.8149253731343283 0.1850746268656716 0.7945619335347432 0.2054380664652568 0.7926136363636364 0.2073863636363636 0.8826086956521739 0.1173913043478261 0.8202764976958525 0.1797235023041475 0.5899705014749262 0.4100294985250738 0.6163522012578616 0.3836477987421384 0.6684210526315789 0.331578947368421 0.7608247422680412 0.2391752577319588 0.5 0.5 0.8 0.2 0.6888361045130641 0.3111638954869358 0.78 0.22 0.6624203821656051 0.3375796178343949 0.747072599531616 0.2529274004683841 0.8275862068965517 0.1724137931034483 0.7037037037037037 0.2962962962962963 0.5256525652565257 0.4743474347434743 0.5 0.5 0.5542168674698795 0.4457831325301205 0.8857227663995251 0.1142772336004749 0.8822674418604651 0.1177325581395349 0.906896551724138 0.09310344827586207 0.8869930761622157 0.1130069238377844 0.9360238477413437 0.06397615225865627 0.9151041666666667 0.08489583333333334 0.8802015301362195 0.1197984698637806 0.9144325600777886 0.08556743992221141 0.9022701038861101 0.09772989611388996 0.8497316636851521 0.150268336314848 0.9119583104772353 0.08804168952276467 0.8847884788478848 0.1152115211521152 0.900604432505037 0.09939556749496306 0.8939393939393939 0.1060606060606061 0.8651685393258427 0.1348314606741573 0.8312289562289562 0.1687710437710438 0.8929503916449086 0.1070496083550914 0.8701298701298701 0.1298701298701299 0.8356643356643356 0.1643356643356643 0.8825757575757576 0.1174242424242424 0.862876254180602 0.137123745819398 0.7328767123287672 0.2671232876712329 0.7994011976047904 0.2005988023952096 0.7878787878787878 0.2121212121212121 0.8817086527929902 0.1182913472070099 1 0 0.9230769230769231 0.07692307692307693 0.7910339840925524 0.2089660159074476 0.8493150684931506 0.1506849315068493 0.7793103448275862 0.2206896551724138 0.8202374222724703 0.1797625777275297 0.8428571428571429 0.1571428571428571 0.8064516129032258 0.1935483870967742 0.6557971014492754 0.3442028985507246 0.728 0.272 0.6582278481012658 0.3417721518987342 0.913946587537092 0.08605341246290801 0.8964169381107492 0.1035830618892508 0.9279661016949152 0.07203389830508475 0.9312084993359894 0.06879150066401063 0.9406451612903226 0.05935483870967742 0.9334582942830365 0.06654170571696345 0.903179190751445 0.09682080924855491 0.9249245307783174 0.07507546922168264 0.9112602535421327 0.08873974645786727 0.9090909090909091 0.09090909090909091 0.9413817166782973 0.05861828332170272 0.9378673383711167 0.06213266162888329 0.9076086956521739 0.09239130434782608 0.890625 0.109375 0.9327731092436975 0.06722689075630252 0.8878384185646756 0.1121615814353245 0.9131403118040089 0.08685968819599109 0.8870588235294118 0.1129411764705882 0.8912815126050421 0.108718487394958 0.8989547038327527 0.1010452961672474 0.9046052631578947 0.09539473684210527 0.869615832363213 0.130384167636787 0.9254498714652957 0.07455012853470437 0.8640350877192983 0.1359649122807018 0.9143167028199566 0.08568329718004339 0.7692307692307693 0.2307692307692308 0.9545454545454546 0.04545454545454546 0.8543726235741445 0.1456273764258555 0.9111111111111111 0.08888888888888889 0.8547486033519553 0.1452513966480447 0.8789182544560541 0.1210817455439459 0.8554216867469879 0.144578313253012 0.8392857142857143 0.1607142857142857 0.7666989351403679 0.2333010648596321 0.8440366972477065 0.1559633027522936 0.7948717948717948 0.2051282051282051 0.8689197725837018 0.1310802274162982 0.9212678936605317 0.0787321063394683 0.9132947976878613 0.08670520231213873 0.8687569988801792 0.1312430011198208 0.9091474797759801 0.09085252022401992 0.8904677323860273 0.1095322676139728 0.8608 0.1392 0.9016822429906542 0.09831775700934579 0.8720491029272899 0.1279508970727101 0.7388688327316486 0.2611311672683514 0.7892068091271278 0.2107931908728722 0.7296181630546955 0.2703818369453044 0.83464005702067 0.16535994297933 0.9047619047619048 0.09523809523809523 0.8571428571428571 0.1428571428571428 0.8175795053003534 0.1824204946996466 0.8642384105960265 0.1357615894039735 0.875 0.125 0.824 0.176 0.8711340206185567 0.1288659793814433 0.8103448275862069 0.1896551724137931 0.6505652620760535 0.3494347379239466 0.6863468634686347 0.3136531365313653 0.6198830409356725 0.3801169590643275 0.7906976744186046 0.2093023255813954 1 0 1 0 0.7845977887914601 0.2154022112085398 0.7654320987654321 0.2345679012345679 0.85 0.15 0.7699221090473337 0.2300778909526663 0.9454545454545454 0.05454545454545454 0.8490566037735849 0.1509433962264151 0.5827464788732394 0.4172535211267606 0.5533980582524272 0.4466019417475728 0.6153846153846154 0.3846153846153846</probabilities>
		</cpt>
		<cpt id="IMM_Diptheria">
			<state id="No" />
			<state id="Yes" />
			<parents>CHI_Age KNW_WatchTV MTH_Education</parents>
			<probabilities>0.1433660801036381 0.8566339198963618 0.2319316688567674 0.7680683311432326 0.1910032131381649 0.8089967868618351 0.2090953545232274 0.7909046454767726 0.3344293501773817 0.6655706498226184 0.2713930909911944 0.7286069090088056 0.1369189274948437 0.8630810725051563 0.2469770253929867 0.7530229746070133 0.1835205992509363 0.8164794007490637 0.208469398504161 0.7915306014958391 0.3387109982802392 0.6612890017197609 0.2749830814346944 0.7250169185653057 0.1459679983045459 0.854032001695454 0.251313025210084 0.748686974789916 0.2030211480362538 0.7969788519637462 0.2158235231731891 0.7841764768268109 0.3576116874867669 0.6423883125132331 0.2911524785609705 0.7088475214390295 0.1540388576518399 0.8459611423481601 0.2485507246376812 0.7514492753623189 0.2014468558708959 0.7985531441291041 0.2206001622060016 0.7793998377939984 0.3621223857474826 0.6378776142525174 0.2792490118577075 0.7207509881422924 0.4850341611538879 0.5149658388461121 0.5644688644688645 0.4355311355311355 0.5505341002465078 0.4494658997534922 0.5723046488625123 0.4276953511374876 0.6519570944674444 0.3480429055325555 0.6340466458283242 0.3659533541716759</probabilities>
		</cpt>
		<cpt id="IMM_Measles">
			<state id="No" />
			<state id="Yes" />
			<parents>CHI_Age IMM_Diptheria IMM_VitaminA1 KNW_WatchTV MTH_Education</parents>
			<probabilities>0.6943589743589743 0.3056410256410256 0.7725118483412322 0.2274881516587678 0.7364016736401674 0.2635983263598327 0.7567804024496938 0.2432195975503062 0.8155038759689922 0.1844961240310078 0.8249336870026526 0.1750663129973475 0.4146341463414634 0.5853658536585366 0.4753521126760563 0.5246478873239436 0.4763513513513514 0.5236486486486487 0.4763819095477387 0.5236180904522613 0.5105058365758754 0.4894941634241245 0.5625 0.4375 0.1591320072332731 0.840867992766727 0.1805225653206651 0.8194774346793349 0.2044817927170868 0.7955182072829131 0.2082767978290366 0.7917232021709634 0.2371565113500597 0.7628434886499402 0.1899109792284867 0.8100890207715133 0.0448821203690145 0.9551178796309855 0.05738132498695879 0.9426186750130412 0.04504976427448926 0.9549502357255107 0.05186753364584908 0.9481324663541509 0.05932203389830509 0.940677966101695 0.05992949471210341 0.9400705052878966 0.660541586073501 0.3394584139264991 0.7614314115308151 0.2385685884691849 0.7828947368421053 0.2171052631578947 0.7194899817850637 0.2805100182149363 0.7847658979734451 0.2152341020265549 0.7604035308953342 0.2395964691046658 0.4295819935691318 0.5704180064308682 0.4968152866242038 0.5031847133757962 0.4765957446808511 0.5234042553191489 0.4824063564131669 0.5175936435868331 0.5070643642072213 0.4929356357927787 0.4647887323943662 0.5352112676056338 0.08291746641074856 0.9170825335892514 0.0851063829787234 0.9148936170212766 0.1023255813953488 0.8976744186046511 0.1174116077384923 0.8825883922615076 0.1187872763419483 0.8812127236580517 0.1094339622641509 0.8905660377358491 0.02850893182646737 0.9714910681735326 0.03394123606889565 0.9660587639311043 0.02794715447154471 0.9720528455284553 0.03391521197007481 0.9660847880299251 0.04552201880257298 0.954477981197427 0.03431169904919388 0.9656883009508062 0.6426839126919968 0.3573160873080032 0.7441471571906354 0.2558528428093645 0.7017045454545454 0.2982954545454545 0.6799336650082919 0.3200663349917081 0.7887640449438202 0.2112359550561798 0.7690631808278867 0.2309368191721133 0.4723320158102767 0.5276679841897233 0.479108635097493 0.520891364902507 0.496875 0.503125 0.5102533172496985 0.4897466827503016 0.5129396151293961 0.4870603848706038 0.5126582278481012 0.4873417721518987 0.07194010416666667 0.9280598958333334 0.07171853856562922 0.9282814614343707 0.09135399673735727 0.9086460032626428 0.09495387954422138 0.9050461204557786 0.09290003532320734 0.9070999646767927 0.09548254620123203 0.9045174537987679 0.02368360542653484 0.9763163945734652 0.03077651515151515 0.9692234848484849 0.03160493827160494 0.9683950617283951 0.031886146640245 0.968113853359755 0.03747408706745336 0.9625259129325466 0.03271221532091097 0.967287784679089 0.6553059643687065 0.3446940356312936 0.7955555555555556 0.2044444444444445 0.6968911917098446 0.3031088082901555 0.7183348095659876 0.2816651904340124 0.8055487953273303 0.1944512046726697 0.7539766702014846 0.2460233297985154 0.4979674796747968 0.5020325203252033 0.4915254237288136 0.5084745762711864 0.4526627218934911 0.5473372781065089 0.4593548387096774 0.5406451612903226 0.5123251165889408 0.4876748834110593 0.5042553191489362 0.4957446808510638 0.05758848230353929 0.9424115176964607 0.05630865484880083 0.9436913451511991 0.03532608695652174 0.9646739130434783 0.07948139797068771 0.9205186020293122 0.07107486163705214 0.9289251383629479 0.08268059181897303 0.917319408181027 0.02250885179564998 0.97749114820435 0.03531598513011153 0.9646840148698885 0.01968134957825679 0.9803186504217432 0.03573591762568141 0.9642640823743186 0.03566444409986044 0.9643355559001395 0.0344275420336269 0.9655724579663731 0.9765227384665901 0.02347726153340995 0.9764705882352941 0.02352941176470588 0.9905163329820864 0.009483667017913594 0.9774700774466087 0.02252992255339122 0.9746978851963746 0.02530211480362538 0.975921375921376 0.02407862407862408 0.8780658724597057 0.1219341275402943 0.9036697247706422 0.0963302752293578 0.887468030690537 0.1125319693094629 0.8832786885245901 0.1167213114754098 0.8756889161053276 0.1243110838946724 0.8754152823920266 0.1245847176079734 0.8990568442518481 0.1009431557481519 0.8706365503080082 0.1293634496919918 0.8774617067833698 0.1225382932166302 0.8743086978381096 0.1256913021618904 0.8563861094761624 0.1436138905238376 0.8813096862210096 0.1186903137789904 0.484930032292788 0.515069967707212 0.4928774928774929 0.5071225071225072 0.456828885400314 0.543171114599686 0.4556745182012848 0.5443254817987152 0.427 0.573 0.4119138149556401 0.5880861850443599</probabilities>
		</cpt>
		<cpt id="DIA_HadDiarrhoea">
			<state id="No" />
			<state id="Yes" />
			<parents>BF_BottleFeeding BF_BreastfedMonths BF_EarlyBreastfeeding IMM_Measles WSH_ImprovedWaterSource WSH_SafeStoolDisposal WSH_WashWithAgent WSH_WaterTreated</parents>
			<probabilities>0.8451776649746193 0.1548223350253807 0.9166666666666666 0.08333333333333333 0.8442906574394463 0.1557093425605536 0.8936170212765957 0.1063829787234043 0.8992481203007519 0.1007518796992481 0.8980891719745223 0.1019108280254777 0.8553019145802651 0.1446980854197349 0.8945908460471568 0.1054091539528433 0.9384615384615385 0.06153846153846154 1 0 0.9052631578947369 0.09473684210526316 0.943089430894309 0.05691056910569105 0.8865546218487395 0.1134453781512605 0.9320000000000001 0.068 0.9088983050847458 0.09110169491525423 0.8989501312335958 0.1010498687664042 0.9088541666666666 0.09114583333333333 0.8978328173374613 0.1021671826625387 0.8927159796725014 0.1072840203274986 0.9000380083618396 0.0999619916381604 0.9298245614035088 0.07017543859649122 0.9516129032258065 0.04838709677419355 0.9041916167664671 0.09580838323353294 0.9345300950369588 0.06546990496304118 0.8703339882121808 0.1296660117878193 0.8303571428571429 0.1696428571428572 0.8548233046800382 0.1451766953199618 0.9155844155844156 0.08441558441558442 0.9021688970927549 0.09783110290724505 0.9111111111111111 0.08888888888888889 0.8993514292577468 0.1006485707422532 0.9202682563338301 0.07973174366616989 0.9712643678160919 0.02873563218390805 0.9811320754716981 0.01886792452830189 0.920479302832244 0.07952069716775599 0.9383802816901409 0.06161971830985916 0.8975069252077562 0.1024930747922438 0.9140271493212669 0.08597285067873303 0.8957345971563981 0.1042654028436019 0.9194865810968494 0.08051341890315053 0.9269729093050648 0.07302709069493522 0.9230182926829268 0.07698170731707317 0.9209380234505863 0.07906197654941373 0.9249366797144831 0.07506332028551692 0.9419953596287703 0.0580046403712297 0.9577114427860697 0.04228855721393035 0.9407569939659901 0.05924300603400987 0.9471069549970778 0.05289304500292227 0.7682926829268293 0.2317073170731707 0.8421052631578947 0.1578947368421053 0.7307692307692307 0.2692307692307692 0.8356164383561644 0.1643835616438356 0.7667785234899329 0.2332214765100671 0.819672131147541 0.180327868852459 0.7838569880823402 0.2161430119176598 0.8556149732620321 0.1443850267379679 0.868421052631579 0.131578947368421 0.6666666666666666 0.3333333333333333 0.8473895582329317 0.1526104417670683 0.8717948717948718 0.1282051282051282 0.8846153846153846 0.1153846153846154 0.8983050847457628 0.1016949152542373 0.8208955223880597 0.1791044776119403 0.8548387096774194 0.1451612903225807 0.8620689655172413 0.1379310344827586 0.8494623655913979 0.1505376344086022 0.8049095607235142 0.1950904392764858 0.861271676300578 0.138728323699422 0.9032258064516129 0.09677419354838709 0.75 0.25 0.883248730964467 0.116751269035533 0.8625 0.1375 0.8082191780821918 0.1917808219178082 0.75 0.25 0.7691082802547771 0.2308917197452229 0.855072463768116 0.1449275362318841 0.8724279835390947 0.1275720164609054 0.8961038961038961 0.1038961038961039 0.8264425261244889 0.1735574738755111 0.8825214899713467 0.1174785100286533 0.8701298701298701 0.1298701298701299 0.8888888888888888 0.1111111111111111 0.8837209302325582 0.1162790697674419 0.9222222222222223 0.07777777777777778 0.8607594936708861 0.1392405063291139 0.7111111111111111 0.2888888888888889 0.8804347826086957 0.1195652173913044 0.8805309734513275 0.1194690265486726 0.8783068783068783 0.1216931216931217 0.86328125 0.13671875 0.8582010582010582 0.1417989417989418 0.884765625 0.115234375 0.8703703703703703 0.1296296296296296 0.9577464788732394 0.04225352112676056 0.8921389396709324 0.1078610603290676 0.92497320471597 0.07502679528403002 0.8041237113402062 0.1958762886597938 0.8775510204081632 0.1224489795918367 0.8313413014608234 0.1686586985391766 0.9261744966442953 0.0738255033557047 0.8768177929854577 0.1231822070145423 0.8495145631067961 0.1504854368932039 0.8598559266535691 0.1401440733464309 0.8961038961038961 0.1038961038961039 0.875 0.125 0.9285714285714286 0.07142857142857142 0.8588957055214724 0.1411042944785276 0.907563025210084 0.09243697478991597 0.8611111111111112 0.1388888888888889 0.875 0.125 0.8477157360406091 0.1522842639593909 0.8847926267281107 0.1152073732718894 0.8734015345268542 0.1265984654731458 0.899513776337115 0.1004862236628849 0.8788947677836567 0.1211052322163433 0.8812324929971989 0.1187675070028011 0.9444444444444444 0.05555555555555555 0.93 0.07000000000000001 0.871536523929471 0.128463476070529 0.9104938271604939 0.08950617283950617 0.8516483516483516 0.1483516483516484 0.8888888888888888 0.1111111111111111 0.8303094983991463 0.1696905016008538 0.905982905982906 0.09401709401709402 0.8908994145822245 0.1091005854177754 0.9112426035502958 0.08875739644970414 0.8874920093756659 0.1125079906243341 0.9002557544757033 0.09974424552429667 0.952054794520548 0.04794520547945205 1 0 0.9002016129032258 0.09979838709677419 0.9385964912280702 0.06140350877192982 0.8617886178861789 0.1382113821138211 0.9005847953216374 0.09941520467836257 0.8912579957356077 0.1087420042643923 0.907843137254902 0.09215686274509804 0.9037199124726477 0.0962800875273523 0.9085963003264418 0.09140369967355821 0.8940007361059993 0.1059992638940007 0.9045481747456613 0.09545182525433872 0.9315589353612167 0.06844106463878327 0.9220183486238532 0.07798165137614679 0.9255599472990778 0.07444005270092227 0.9333891914537076 0.06661080854629242 0.9777777777777777 0.02222222222222222 1 0 0.92 0.08 0.9615384615384616 0.03846153846153846 0.962178517397882 0.037821482602118 0.9621621621621622 0.03783783783783784 0.9361493123772102 0.06385068762278978 0.9775561097256857 0.02244389027431421 1 0 0.9545454545454546 0.04545454545454546 0.9316239316239316 0.06837606837606838 1 0 0.917910447761194 0.08208955223880597 0.9770114942528736 0.02298850574712644 0.9552238805970149 0.04477611940298507 0.9610894941634242 0.03891050583657588 0.9629629629629629 0.03703703703703703 0.9684813753581661 0.03151862464183381 0.9630411826821542 0.03695881731784583 0.9633204633204633 0.03667953667953668 0.9411764705882353 0.05882352941176471 0.9651162790697675 0.03488372093023256 0.9595588235294118 0.04044117647058824 0.9562171628721541 0.04378283712784588 0.9705215419501134 0.02947845804988662 0.9642857142857143 0.03571428571428571 0.9657142857142857 0.03428571428571429 0.9645390070921985 0.03546099290780142 0.9839704069050554 0.01602959309494451 0.9644549763033176 0.03554502369668246 0.9670682730923694 0.03293172690763052 0.9763872491145218 0.02361275088547816 0.9758064516129032 0.02419354838709677 0.9361702127659575 0.06382978723404255 0.953125 0.046875 0.9672131147540983 0.03278688524590164 0.952755905511811 0.04724409448818898 0.9724409448818898 0.02755905511811024 0.9704797047970479 0.02952029520295203 0.9671717171717171 0.03282828282828283 0.9790712884238064 0.02092871157619359 0.9830220713073005 0.01697792869269949 0.9739004349927501 0.02609956500724988 0.9673222390317701 0.03267776096822995 0.9437086092715232 0.05629139072847682 0.9605263157894737 0.03947368421052631 0.9773584905660377 0.02264150943396226 0.9653465346534653 0.03465346534653466 0.9084967320261438 0.0915032679738562 0.75 0.25 0.9142857142857143 0.08571428571428572 0.9310344827586207 0.06896551724137931 0.9311475409836065 0.06885245901639345 0.8947368421052632 0.1052631578947368 0.925130890052356 0.07486910994764398 0.9186046511627907 0.08139534883720931 0.868421052631579 0.131578947368421 1 0 0.9034749034749034 0.09652509652509653 0.8181818181818182 0.1818181818181818 0.92 0.08 0.8095238095238095 0.1904761904761905 0.9403973509933775 0.05960264900662252 0.927710843373494 0.07228915662650602 0.9269406392694064 0.0730593607305936 0.9220779220779221 0.07792207792207792 0.9007633587786259 0.09923664122137404 0.8791666666666667 0.1208333333333333 0.8846153846153846 0.1153846153846154 1 0 0.9553571428571429 0.04464285714285714 0.9661016949152542 0.03389830508474576 0.9361702127659575 0.06382978723404255 1 0 0.9246073298429319 0.07539267015706806 0.9629629629629629 0.03703703703703703 0.9278996865203761 0.07210031347962383 0.9473684210526315 0.05263157894736842 0.9238603297769156 0.07613967022308439 0.8875 0.1125 0.9310344827586207 0.06896551724137931 1 0 0.9373737373737374 0.06262626262626263 0.9775280898876404 0.02247191011235955 0.8095238095238095 0.1904761904761905 0.9047619047619048 0.09523809523809523 0.944 0.056 0.9384615384615385 0.06153846153846154 0.9219858156028369 0.07801418439716312 0.9523809523809523 0.04761904761904762 0.9543726235741445 0.04562737642585551 0.953757225433526 0.04624277456647399 0.9310344827586207 0.06896551724137931 0.8181818181818182 0.1818181818181818 0.9328358208955224 0.06716417910447761 0.960352422907489 0.03964757709251102 0.9507042253521126 0.04929577464788732 0.9333333333333333 0.06666666666666667 0.9270833333333334 0.07291666666666667 0.958904109589041 0.0410958904109589 0.9448717948717948 0.05512820512820513 0.9652173913043478 0.03478260869565217 0.935370741482966 0.06462925851703406 0.9567567567567568 0.04324324324324325 0.9210526315789473 0.07894736842105263 1 0 0.9459459459459459 0.05405405405405406 0.9661016949152542 0.03389830508474576 0.9565217391304348 0.04347826086956522 0.9344262295081968 0.06557377049180328 0.9626556016597511 0.03734439834024896 0.943089430894309 0.05691056910569105 0.9438202247191011 0.05617977528089887 0.9560117302052786 0.04398826979472141 0.9379243452958292 0.06207565470417071 0.9476553980370774 0.05234460196292257 0.9444444444444444 0.05555555555555555 0.9512195121951219 0.04878048780487805 0.9349593495934959 0.06504065040650407 0.91796875 0.08203125 0.9541547277936963 0.04584527220630372 0.9607843137254902 0.0392156862745098 0.9556561085972851 0.04434389140271493 0.9823529411764705 0.01764705882352941 0.9682668836452401 0.03173311635475997 0.9650145772594753 0.03498542274052478 0.9605680616407313 0.03943193835926877 0.9630584192439863 0.03694158075601375 0.9457364341085271 0.05426356589147287 0.8181818181818182 0.1818181818181818 0.9578587699316629 0.04214123006833713 0.9090909090909091 0.09090909090909091 0.96 0.04 0.9431818181818182 0.05681818181818182 0.9461966604823747 0.05380333951762523 0.9641943734015346 0.03580562659846547 0.9584013050570962 0.04159869494290375 0.9611111111111111 0.03888888888888889 0.9580519018841095 0.04194809811589051 0.9644369178662151 0.03556308213378493 0.9421052631578948 0.05789473684210526 0.8915662650602409 0.108433734939759 0.9398359161349134 0.0601640838650866 0.9495635305528612 0.0504364694471387 0.8947368421052632 0.1052631578947368 1 0 0.8888888888888888 0.1111111111111111 0.967741935483871 0.03225806451612903 0.9101449275362319 0.08985507246376812 0.9245283018867925 0.07547169811320754 0.9244444444444444 0.07555555555555556 0.9514563106796117 0.04854368932038835 0.9629629629629629 0.03703703703703703 1 0 0.896551724137931 0.103448275862069 0.9642857142857143 0.03571428571428571 0.9090909090909091 0.09090909090909091 0.9 0.1 0.896551724137931 0.103448275862069 0.9397590361445783 0.06024096385542169 0.9482758620689655 0.05172413793103448 0.9715909090909091 0.02840909090909091 0.9318181818181818 0.06818181818181818 0.9508196721311475 0.04918032786885246 1 0 0.9302325581395349 0.06976744186046512 0.9035087719298246 0.09649122807017543 1 0 0.9283667621776505 0.07163323782234957 0.9195402298850575 0.08045977011494253 0.897133220910624 0.1028667790893761 0.9553072625698324 0.0446927374301676 0.9439809296781884 0.05601907032181168 0.9417721518987342 0.05822784810126582 0.9228201919065498 0.07717980809345015 0.9475100942126514 0.05248990578734859 0.9111111111111111 0.08888888888888889 0.9491525423728814 0.05084745762711865 0.9295774647887324 0.07042253521126761 0.9532374100719424 0.04676258992805755 0.9202127659574468 0.0797872340425532 0.9368421052631579 0.06315789473684211 0.8960573476702509 0.1039426523297491 0.9442724458204335 0.05572755417956656 0.9430979978925185 0.05690200210748156 0.9224683544303798 0.07753164556962025 0.922566371681416 0.07743362831858407 0.9343148357870895 0.06568516421291053 0.9719101123595506 0.02808988764044944 0.9578947368421052 0.04210526315789474 0.9208381839348079 0.07916181606519208 0.9530864197530864 0.04691358024691358 0.8604651162790697 0.1395348837209302 1 0 0.9090909090909091 0.09090909090909091 0.8888888888888888 0.1111111111111111 0.8888888888888888 0.1111111111111111 1 0 0.8589743589743589 0.141025641025641 0.8709677419354839 0.1290322580645161 0.8260869565217391 0.1739130434782609 0.9116809884950332 0.08831901150496674 0.8645833333333334 0.1354166666666667 0.8571428571428571 0.1428571428571428 0.875 0.125 1 0 0.7826086956521739 0.2173913043478261 0.8181818181818182 0.1818181818181818 0.8961038961038961 0.1038961038961039 0.8888888888888888 0.1111111111111111 0.8378378378378378 0.1621621621621622 0.8720930232558139 0.1279069767441861 0.8 0.2 0.8333333333333334 0.1666666666666667 0.875 0.125 0.9827586206896551 0.01724137931034483 0.8817204301075269 0.1182795698924731 1 0 0.8358662613981763 0.1641337386018237 0.9705882352941176 0.02941176470588235 0.8947368421052632 0.1052631578947368 0.8727272727272727 0.1272727272727273 0.8850424559111691 0.1149575440888308 0.9139072847682119 0.08609271523178808 0.8225806451612904 0.1774193548387097 0.9090909090909091 0.09090909090909091 0.9158653846153846 0.08413461538461539 0.9495798319327731 0.05042016806722689 0.8780487804878049 0.1219512195121951 0.7857142857142857 0.2142857142857143 0.8470588235294118 0.1529411764705882 0.9152542372881356 0.0847457627118644 0.8784530386740331 0.1215469613259668 0.8947368421052632 0.1052631578947368 0.9291338582677166 0.07086614173228346 0.8980716253443526 0.1019283746556474 0.9777777777777777 0.02222222222222222 0.8275862068965517 0.1724137931034483 0.8993055555555556 0.1006944444444444 0.9335347432024169 0.06646525679758308 0.8918918918918919 0.1081081081081081 0.8571428571428571 0.1428571428571428 0.8804347826086957 0.1195652173913044 0.8125 0.1875 0.9157509157509157 0.08424908424908426 0.9024390243902439 0.0975609756097561 0.905511811023622 0.09448818897637795 0.9555555555555556 0.04444444444444445 0.9310344827586207 0.06896551724137931 1 0 0.8555555555555555 0.1444444444444444 1 0 0.9130434782608695 0.08695652173913043 0.9166666666666666 0.08333333333333333 1 0 0.9090909090909091 0.09090909090909091 0.9457831325301205 0.05421686746987952 0.9716981132075472 0.02830188679245283 0.916 0.08400000000000001 0.9067796610169492 0.09322033898305085 0.9393939393939394 0.06060606060606061 1 0 0.8977272727272727 0.1022727272727273 0.9019607843137255 0.09803921568627451 0.9117647058823529 0.08823529411764706 0.9787234042553191 0.02127659574468085 0.8915094339622641 0.1084905660377359 0.9528301886792453 0.04716981132075472 0.9380305602716469 0.06196943972835314 0.9306930693069307 0.06930693069306931 0.9257063132193931 0.07429368678060691 0.9108910891089109 0.0891089108910891 0.9173553719008265 0.08264462809917356 0.8947368421052632 0.1052631578947368 0.9265905383360522 0.07340946166394779 0.9343434343434344 0.06565656565656566 0.9339622641509434 0.0660377358490566 0.9354838709677419 0.06451612903225806 0.9362745098039216 0.06372549019607843 0.9153439153439153 0.08465608465608465 0.9234234234234234 0.07657657657657657 0.9373601789709173 0.06263982102908278 0.9146730462519936 0.08532695374800638 0.9246190858059342 0.07538091419406576 0.9714285714285714 0.02857142857142857 0.9574468085106383 0.0425531914893617 0.9225967540574282 0.07740324594257178 0.9262472885032538 0.0737527114967462 0.7857142857142857 0.2142857142857143 0.8181818181818182 0.1818181818181818 0.8208955223880597 0.1791044776119403 0.8888888888888888 0.1111111111111111 0.8496732026143791 0.1503267973856209 0.8181818181818182 0.1818181818181818 0.7709251101321586 0.2290748898678414 0.8925619834710744 0.1074380165289256 0.75 0.25 0.8 0.2 0.7857142857142857 0.2142857142857143 0.9354838709677419 0.06451612903225806 0.8837209302325582 0.1162790697674419 0.8571428571428571 0.1428571428571428 0.7613636363636364 0.2386363636363636 0.8931297709923665 0.1068702290076336 0.8355263157894737 0.1644736842105263 0.900709219858156 0.09929078014184398 0.8774834437086093 0.1225165562913907 0.8939096267190569 0.106090373280943 0.8571428571428571 0.1428571428571428 0.95 0.05 0.8487394957983193 0.1512605042016807 0.9329896907216495 0.06701030927835051 0.8333333333333334 0.1666666666666667 0.8333333333333334 0.1666666666666667 0.7533632286995515 0.2466367713004484 0.9516129032258065 0.04838709677419355 0.8584474885844748 0.1415525114155251 0.873015873015873 0.126984126984127 0.8243831640058055 0.1756168359941945 0.8875 0.1125 0.8 0.2 0.6 0.4 0.8588957055214724 0.1411042944785276 0.9320388349514563 0.06796116504854369 0.8048780487804879 0.1951219512195122 0.9361702127659575 0.06382978723404255 0.8466666666666667 0.1533333333333333 0.9137055837563451 0.08629441624365482 0.906158357771261 0.093841642228739 0.890295358649789 0.109704641350211 0.8958944281524927 0.1041055718475073 0.9107296137339056 0.08927038626609442 0.9146341463414634 0.08536585365853659 0.9375 0.0625 0.8936170212765957 0.1063829787234043 0.9245033112582781 0.07549668874172186 0.7317073170731707 0.2682926829268293 1 0 0.7031963470319634 0.2968036529680365 0.9565217391304348 0.04347826086956522 0.8163265306122449 0.1836734693877551 1 0 0.7380952380952381 0.2619047619047619 0.8627450980392157 0.1372549019607843 0.75 0.25 0 1 0.6951219512195121 0.3048780487804878 0.8461538461538461 0.1538461538461539 0.7272727272727273 0.2727272727272727 0.8571428571428571 0.1428571428571428 0.8133333333333334 0.1866666666666667 0.8695652173913043 0.1304347826086956 0.821917808219178 0.1780821917808219 0.7391304347826086 0.2608695652173913 0.7078189300411523 0.2921810699588477 0.7990196078431373 0.2009803921568628 0.5 0.5 0.75 0.25 0.8709677419354839 0.1290322580645161 0.8103448275862069 0.1896551724137931 0.85 0.15 0.6666666666666666 0.3333333333333333 0.708904109589041 0.2910958904109589 0.7666666666666667 0.2333333333333333 0.8 0.2 0.8421052631578947 0.1578947368421053 0.7733516483516484 0.2266483516483516 0.8703703703703703 0.1296296296296296 0.8666666666666667 0.1333333333333333 1 0 0.8272727272727273 0.1727272727272727 0.9285714285714286 0.07142857142857142 0.8095238095238095 0.1904761904761905 0.8571428571428571 0.1428571428571428 0.676056338028169 0.323943661971831 0.9178082191780822 0.0821917808219178 0.8636363636363636 0.1363636363636364 0.8235294117647058 0.1764705882352941 0.7751937984496124 0.2248062015503876 0.8772845953002611 0.1227154046997389 0.8695652173913043 0.1304347826086956 0.8571428571428571 0.1428571428571428 0.8405172413793104 0.1594827586206897 0.8993288590604027 0.1006711409395973 0.84 0.16 0.6 0.4 0.7891891891891892 0.2108108108108108 0.9047619047619048 0.09523809523809523 0.847682119205298 0.152317880794702 0.9130434782608695 0.08695652173913043 0.7763578274760383 0.2236421725239617 0.8235294117647058 0.1764705882352941 0.8181818181818182 0.1818181818181818 0.9116809884950332 0.08831901150496674 0.85 0.15 0.8095238095238095 0.1904761904761905 0.9130434782608695 0.08695652173913043 0.8636363636363636 0.1363636363636364 0.8556701030927835 0.1443298969072165 0.8285714285714286 0.1714285714285714 0.8181818181818182 0.1818181818181818 0.821917808219178 0.1780821917808219 0.8018018018018018 0.1981981981981982 0.8495575221238938 0.1504424778761062 1 0 1 0 0.8089887640449438 0.1910112359550562 0.9210526315789473 0.07894736842105263 0.7435897435897436 0.2564102564102564 0.75 0.25 0.7523364485981309 0.2476635514018692 0.7692307692307693 0.2307692307692308 0.8189655172413793 0.1810344827586207 0.875 0.125 0.8523489932885906 0.1476510067114094 0.9035532994923858 0.09644670050761421 0.8333333333333334 0.1666666666666667 1 0 0.920704845814978 0.07929515418502203 0.9130434782608695 0.08695652173913043 0.9743589743589743 0.02564102564102564 0.8928571428571429 0.1071428571428571 0.8376068376068376 0.1623931623931624 0.8861788617886179 0.1138211382113821 0.9098360655737705 0.09016393442622951 0.890625 0.109375 0.8257477243172952 0.1742522756827048 0.8878980891719745 0.1121019108280255 0.9 0.1 0.9655172413793104 0.03448275862068965 0.8949880668257757 0.1050119331742243 0.9200779727095516 0.07992202729044834 1 0 1 0 0.8108108108108109 0.1891891891891892 0.8461538461538461 0.1538461538461539 0.9193548387096774 0.08064516129032258 0.8571428571428571 0.1428571428571428 0.8818181818181818 0.1181818181818182 0.9245283018867925 0.07547169811320754 1 0 1 0 1 0 0.8571428571428571 0.1428571428571428 0.8235294117647058 0.1764705882352941 1 0 1 0 0.8867924528301887 0.1132075471698113 0.9411764705882353 0.05882352941176471 0.9885057471264368 0.01149425287356322 0.9456521739130435 0.05434782608695652 0.9496124031007752 0.05038759689922481 0.9090909090909091 0.09090909090909091 0.8571428571428571 0.1428571428571428 1 0 0.9714285714285714 0.02857142857142857 1 0 0.8333333333333334 0.1666666666666667 0.8888888888888888 0.1111111111111111 1 0 0.9795918367346939 0.02040816326530612 0.9318181818181818 0.06818181818181818 0.9320987654320988 0.06790123456790123 0.9646017699115044 0.03539823008849557 0.9166666666666666 0.08333333333333333 0.6666666666666666 0.3333333333333333 0.8490566037735849 0.1509433962264151 0.9285714285714286 0.07142857142857142 0.8611111111111112 0.1388888888888889 0.9666666666666667 0.03333333333333333 0.9166666666666666 0.08333333333333333 0.9772727272727273 0.02272727272727273 0.9644970414201184 0.03550295857988166 0.9760479041916168 0.02395209580838323 0.9421487603305785 0.05785123966942149 0.9410681399631676 0.05893186003683241 0.9285714285714286 0.07142857142857142 1 0 0.9371069182389937 0.06289308176100629 0.9444444444444444 0.05555555555555555 0.6923076923076923 0.3076923076923077 1 0 0.7837837837837838 0.2162162162162162 0.8 0.2 0.8695652173913043 0.1304347826086956 1 0 0.7893617021276595 0.2106382978723404 0.868421052631579 0.131578947368421 1 0 1 0 0.8260869565217391 0.1739130434782609 0.9090909090909091 0.09090909090909091 0.9166666666666666 0.08333333333333333 1 0 0.7659574468085106 0.2340425531914894 0.8823529411764706 0.1176470588235294 0.9117647058823529 0.08823529411764706 0.875 0.125 0.7884615384615384 0.2115384615384615 0.875 0.125 0.5 0.5 1 0 0.8867924528301887 0.1132075471698113 0.8571428571428571 0.1428571428571428 0.9473684210526315 0.05263157894736842 0.8 0.2 0.892018779342723 0.107981220657277 0.8918918918918919 0.1081081081081081 0.9282051282051282 0.07179487179487179 1 0 0.8977072310405644 0.1022927689594356 0.970873786407767 0.02912621359223301 0.9090909090909091 0.09090909090909091 1 0 0.9333333333333333 0.06666666666666667 0.9716981132075472 0.02830188679245283 0.6666666666666666 0.3333333333333333 0.6666666666666666 0.3333333333333333 0.9468085106382979 0.05319148936170213 0.9375 0.0625 0.9090909090909091 0.09090909090909091 0.9555555555555556 0.04444444444444445 0.9092827004219409 0.09071729957805907 0.9375 0.0625 0.8928571428571429 0.1071428571428571 0.9 0.1 0.9537953795379538 0.0462046204620462 0.9364548494983278 0.06354515050167224 0.7692307692307693 0.2307692307692308 1 0 0.8095238095238095 0.1904761904761905 0.75 0.25 0.9042553191489362 0.09574468085106383 1 0 0.851063829787234 0.148936170212766 0.9655172413793104 0.03448275862068965 1 0 0.9116809884950332 0.08831901150496674 0.8974358974358975 0.1025641025641026 0.6666666666666666 0.3333333333333333 1 0 0.75 0.25 0.78125 0.21875 0.8 0.2 0.8840579710144928 0.1159420289855072 0.9354838709677419 0.06451612903225806 0.8920863309352518 0.1079136690647482 0.9230769230769231 0.07692307692307693 0.9230769230769231 0.07692307692307693 1 0 0.9210526315789473 0.07894736842105263 0.9142857142857143 0.08571428571428572 0.9354838709677419 0.06451612903225806 0.8333333333333334 0.1666666666666667 0.9056603773584906 0.09433962264150944 0.6875 0.3125 0.9495412844036697 0.05045871559633028 0.8823529411764706 0.1176470588235294 0.923469387755102 0.07653061224489796 0.9465648854961832 0.05343511450381679 0.9230769230769231 0.07692307692307693 0.6666666666666666 0.3333333333333333 0.8923076923076924 0.1076923076923077 0.975609756097561 0.02439024390243903 0.9333333333333333 0.06666666666666667 0.8181818181818182 0.1818181818181818 0.9072164948453608 0.09278350515463918 0.8333333333333334 0.1666666666666667 0.9130434782608695 0.08695652173913043 0.8849557522123894 0.1150442477876106 0.9045996592844975 0.09540034071550256 0.9068493150684932 0.09315068493150686 0.9130434782608695 0.08695652173913043 1 0 0.8978723404255319 0.1021276595744681 0.8423913043478261 0.1576086956521739 0.8333333333333334 0.1666666666666667 1 0 0.9166666666666666 0.08333333333333333 1 0 0.896551724137931 0.103448275862069 1 0 0.9444444444444444 0.05555555555555555 0.9230769230769231 0.07692307692307693 1 0 0.9116809884950332 0.08831901150496674 1 0 1 0 0.8571428571428571 0.1428571428571428 0.8571428571428571 0.1428571428571428 0.9230769230769231 0.07692307692307693 0.9285714285714286 0.07142857142857142 0.9142857142857143 0.08571428571428572 1 0 0.9393939393939394 0.06060606060606061 0.8833333333333333 0.1166666666666667 0.4 0.6 0.5 0.5 1 0 1 0 0.967741935483871 0.03225806451612903 1 0 0.9230769230769231 0.07692307692307693 1 0 0.9181818181818182 0.08181818181818182 0.8928571428571429 0.1071428571428571 0.8942307692307693 0.1057692307692308 0.9345794392523364 0.06542056074766354 1 0 1 0 0.8589743589743589 0.141025641025641 0.8235294117647058 0.1764705882352941 0.9310344827586207 0.06896551724137931 0.8571428571428571 0.1428571428571428 0.8636363636363636 0.1363636363636364 0.9117647058823529 0.08823529411764706 0.8547008547008547 0.1452991452991453 0.9047619047619048 0.09523809523809523 0.8933333333333333 0.1066666666666667 0.9353448275862069 0.06465517241379311 0.9142857142857143 0.08571428571428572 0.8823529411764706 0.1176470588235294 0.8601398601398601 0.1398601398601399 0.9369369369369369 0.06306306306306306 1 0 0.9116809884950332 0.08831901150496674 0.9285714285714286 0.07142857142857142 1 0 0.875 0.125 0.9116809884950332 0.08831901150496674 0.8518518518518519 0.1481481481481481 1 0 0.5 0.5 1 0 0.8333333333333334 0.1666666666666667 1 0 0.75 0.25 0 1 1 0 1 0 0.875 0.125 0.9116809884950332 0.08831901150496674 0.6153846153846154 0.3846153846153846 0.875 0.125 1 0 0.9116809884950332 0.08831901150496674 1 0 0.8888888888888888 0.1111111111111111 0.9333333333333333 0.06666666666666667 0.9116809884950332 0.08831901150496674 0.82 0.18 1 0 0.8888888888888888 0.1111111111111111 1 0 0.856353591160221 0.143646408839779 0.9512195121951219 0.04878048780487805 1 0 1 0 0.9 0.1 1 0 1 0 0.3333333333333333 0.6666666666666666 0.7857142857142857 0.2142857142857143 0.9166666666666666 0.08333333333333333 0.8260869565217391 0.1739130434782609 1 0 0.8333333333333334 0.1666666666666667 0.8513513513513513 0.1486486486486487 0.8461538461538461 0.1538461538461539 1 0 0.8539325842696629 0.1460674157303371 0.8591549295774648 0.1408450704225352 1 0 1 0 0.8461538461538461 0.1538461538461539 1 0 0.9375 0.0625 1 0 0.7931034482758621 0.2068965517241379 1 0 1 0 0.9116809884950332 0.08831901150496674 1 0 1 0 1 0 0.8333333333333334 0.1666666666666667 0.75 0.25 1 0 0.9 0.1 1 0 0.8947368421052632 0.1052631578947368 0.8214285714285714 0.1785714285714286 1 0 1 0 0.88 0.12 0.8823529411764706 0.1176470588235294 0.7142857142857143 0.2857142857142857 0.9116809884950332 0.08831901150496674 0.9473684210526315 0.05263157894736842 1 0 0.7888888888888889 0.2111111111111111 0.9285714285714286 0.07142857142857142 0.8788927335640139 0.1211072664359862 0.9054054054054054 0.0945945945945946 0.9090909090909091 0.09090909090909091 1 0 0.8829787234042553 0.1170212765957447 0.8717948717948718 0.1282051282051282 0.8181818181818182 0.1818181818181818 0.8 0.2 0.7931034482758621 0.2068965517241379 0.96 0.04 0.9090909090909091 0.09090909090909091 0.9285714285714286 0.07142857142857142 0.8805970149253731 0.1194029850746269 0.8672566371681416 0.1327433628318584 0.95 0.05 1 0 0.9017341040462428 0.09826589595375723 0.8352272727272727 0.1647727272727273</probabilities>
		</cpt>
	</nodes>
	<extensions>
		<genie version="1.0" app="GeNIe 4.0.1922.0 ACADEMIC" name="Network1">
			<node id="MTH_MaternalAge">
				<name>MTH_MaternalAge</name>
				<interior color="e5f6f7" />
				<outline color="000080" />
				<font color="000000" name="Arial" size="8" />
				<position>460 91 540 131</position>
				<barchart active="true" width="128" height="64" />
			</node>
			<node id="GEO_Region">
				<name>GEO_Region</name>
				<interior color="e5f6f7" />
				<outline color="000080" />
				<font color="000000" name="Arial" size="8" />
				<position>636 60 716 100</position>
				<barchart active="true" width="128" height="90" />
			</node>
			<node id="CUL_Religion">
				<name>CUL_Religion</name>
				<interior color="e5f6f7" />
				<outline color="000080" />
				<font color="000000" name="Arial" size="8" />
				<position>429 210 509 250</position>
				<barchart active="true" width="128" height="72" />
			</node>
			<node id="CUL_LanguageGroup">
				<name>CUL_LanguageGroup</name>
				<interior color="e5f6f7" />
				<outline color="000080" />
				<font color="000000" name="Arial" size="8" />
				<position>594 188 674 228</position>
				<barchart active="true" width="128" height="72" />
			</node>
			<node id="BF_EarlyBreastfeeding">
				<name>BF_EarlyBreastfeeding</name>
				<interior color="e5f6f7" />
				<outline color="000080" />
				<font color="000000" name="Arial" size="8" />
				<position>981 277 1061 317</position>
				<barchart active="true" width="128" height="72" />
			</node>
			<node id="ECO_WealthQuintile">
				<name>ECO_WealthQuintile</name>
				<interior color="e5f6f7" />
				<outline color="000080" />
				<font color="000000" name="Arial" size="8" />
				<position>560 291 640 331</position>
				<barchart active="true" width="128" height="72" />
			</node>
			<node id="MTH_Education">
				<name>MTH_Education</name>
				<interior color="e5f6f7" />
				<outline color="000080" />
				<font color="000000" name="Arial" size="8" />
				<position>152 368 232 408</position>
				<barchart active="true" width="128" height="72" />
			</node>
			<node id="WSH_ImprovedToilet">
				<name>WSH_ImprovedToilet</name>
				<interior color="e5f6f7" />
				<outline color="000080" />
				<font color="000000" name="Arial" size="8" />
				<position>560 391 640 431</position>
				<barchart active="true" width="128" height="72" />
			</node>
			<node id="HOU_CookingFuel">
				<name>HOU_CookingFuel</name>
				<interior color="e5f6f7" />
				<outline color="000080" />
				<font color="000000" name="Arial" size="8" />
				<position>768 390 848 430</position>
				<barchart active="true" width="128" height="64" />
			</node>
			<node id="HOU_ModernWallMaterial">
				<name>HOU_ModernWallMaterial</name>
				<interior color="e5f6f7" />
				<outline color="000080" />
				<font color="000000" name="Arial" size="8" />
				<position>823 286 903 326</position>
				<barchart active="true" width="128" height="72" />
			</node>
			<node id="WSH_WashWithAgent">
				<name>WSH_WashWithAgent</name>
				<interior color="e5f6f7" />
				<outline color="000080" />
				<font color="000000" name="Arial" size="8" />
				<position>813 741 893 781</position>
				<barchart active="true" width="128" height="64" />
			</node>
			<node id="KNW_WatchTV">
				<name>KNW_WatchTV</name>
				<interior color="e5f6f7" />
				<outline color="000080" />
				<font color="000000" name="Arial" size="8" />
				<position>81 494 161 534</position>
				<barchart active="true" width="128" height="64" />
			</node>
			<node id="SRV_Near">
				<name>SRV_Near</name>
				<interior color="e5f6f7" />
				<outline color="000080" />
				<font color="000000" name="Arial" size="8" />
				<position>419 491 499 531</position>
				<barchart active="true" width="128" height="64" />
			</node>
			<node id="WSH_SafeStoolDisposal">
				<name>WSH_SafeStoolDisposal</name>
				<interior color="e5f6f7" />
				<outline color="000080" />
				<font color="000000" name="Arial" size="8" />
				<position>1086 613 1166 653</position>
				<barchart active="true" width="128" height="72" />
			</node>
			<node id="WSH_ImprovedWaterSource">
				<name>WSH_ImprovedWaterSource</name>
				<interior color="e5f6f7" />
				<outline color="000080" />
				<font color="000000" name="Arial" size="8" />
				<position>1227 496 1307 536</position>
				<barchart active="true" width="128" height="64" />
			</node>
			<node id="DEL_SmallBaby">
				<name>DEL_SmallBaby</name>
				<interior color="e5f6f7" />
				<outline color="000080" />
				<font color="000000" name="Arial" size="8" />
				<position>88 636 168 676</position>
				<barchart active="true" width="128" height="72" />
			</node>
			<node id="WSH_WaterTreated">
				<name>WSH_WaterTreated</name>
				<interior color="e5f6f7" />
				<outline color="000080" />
				<font color="000000" name="Arial" size="8" />
				<position>792 492 872 532</position>
				<barchart active="true" width="128" height="64" />
			</node>
			<node id="FP_ModernMethod">
				<name>FP_ModernMethod</name>
				<interior color="e5f6f7" />
				<outline color="000080" />
				<font color="000000" name="Arial" size="8" />
				<position>603 586 683 626</position>
				<barchart active="true" width="128" height="64" />
			</node>
			<node id="SRV_OKAlone">
				<name>SRV_OKAlone</name>
				<interior color="e5f6f7" />
				<outline color="000080" />
				<font color="000000" name="Arial" size="8" />
				<position>784 589 864 629</position>
				<barchart active="true" width="128" height="64" />
			</node>
			<node id="CHI_Weight4Height">
				<name>CHI_Weight4Height</name>
				<interior color="e5f6f7" />
				<outline color="000080" />
				<font color="000000" name="Arial" size="8" />
				<position>196 762 276 802</position>
				<barchart active="true" width="128" height="72" />
			</node>
			<node id="FP_BirthsLast5Yrs">
				<name>FP_BirthsLast5Yrs</name>
				<interior color="e5f6f7" />
				<outline color="000080" />
				<font color="000000" name="Arial" size="8" />
				<position>658 727 738 767</position>
				<barchart active="true" width="128" height="72" />
			</node>
			<node id="CHI_Age">
				<name>CHI_Age</name>
				<interior color="e5f6f7" />
				<outline color="000080" />
				<font color="000000" name="Arial" size="8" />
				<position>450 660 530 700</position>
				<barchart active="true" width="128" height="108" />
			</node>
			<node id="IMM_VitaminA1">
				<name>IMM_VitaminA1</name>
				<interior color="e5f6f7" />
				<outline color="000080" />
				<font color="000000" name="Arial" size="8" />
				<position>460 891 540 931</position>
				<barchart active="true" width="128" height="64" />
			</node>
			<node id="BF_BreastfedMonths">
				<name>BF_BreastfedMonths</name>
				<interior color="e5f6f7" />
				<outline color="000080" />
				<font color="000000" name="Arial" size="8" />
				<position>639 896 719 936</position>
				<barchart active="true" width="128" height="72" />
			</node>
			<node id="BF_BottleFeeding">
				<name>BF_BottleFeeding</name>
				<interior color="e5f6f7" />
				<outline color="000080" />
				<font color="000000" name="Arial" size="8" />
				<position>939 637 1019 677</position>
				<barchart active="true" width="128" height="64" />
			</node>
			<node id="IMM_Diptheria">
				<name>IMM_Diptheria</name>
				<interior color="e5f6f7" />
				<outline color="000080" />
				<font color="000000" name="Arial" size="8" />
				<position>825 888 905 928</position>
				<barchart active="true" width="128" height="64" />
			</node>
			<node id="IMM_Measles">
				<name>IMM_Measles</name>
				<interior color="e5f6f7" />
				<outline color="000080" />
				<font color="000000" name="Arial" size="8" />
				<position>484 1026 564 1066</position>
				<barchart active="true" width="128" height="64" />
			</node>
			<node id="DIA_HadDiarrhoea">
				<name>DIA_HadDiarrhoea</name>
				<interior color="e5f6f7" />
				<outline color="000080" />
				<font color="000000" name="Arial" size="8" />
				<position>1054 1070 1134 1110</position>
				<barchart active="true" width="128" height="64" />
			</node>
		</genie>
	</extensions>
</smile>
